{"layers":[{"out_depth":3,"out_sx":32,"out_sy":32,"layer_type":"input"},{"sx":5,"sy":5,"stride":1,"in_depth":3,"out_depth":16,"out_sx":32,"out_sy":32,"layer_type":"conv","l1_decay_mul":0,"l2_decay_mul":1,"pad":2,"filters":[{"sx":5,"sy":5,"depth":3,"w":{"0":-0.12792120887801414,"1":0.1705925622879038,"2":-0.12293412805551776,"3":0.1734435787467314,"4":0.08330023226885701,"5":-0.04702144694259026,"6":0.0026513453927888204,"7":0.02390722448359707,"8":-0.17568569164873124,"9":0.0673426206762849,"10":-0.02705555909820703,"11":0.10763288508858825,"12":0.05730388954324202,"13":0.12649846044630814,"14":-0.0403817028223357,"15":-0.12886750218643037,"16":-0.05264121099829196,"17":-0.036077718923584905,"18":0.12082488563677944,"19":0.12356221663261108,"20":0.02592478598565747,"21":0.052148247340132625,"22":0.0675741710192093,"23":-0.025174697959673073,"24":0.0007473918830057671,"25":0.15929607369559198,"26":0.11099158628542247,"27":-0.04078513889303822,"28":-0.09130412689786949,"29":-0.19962013632626768,"30":0.09336050669124248,"31":-0.26883124638280054,"32":0.08760541438129536,"33":-0.1180326981670032,"34":0.20706514186698177,"35":0.11955315347401568,"36":0.0450134383294021,"37":0.040590639337025315,"38":-0.02401887049588697,"39":0.05402662620925845,"40":-0.14374993021823113,"41":-0.14063705257277861,"42":-0.03005119291986862,"43":-0.16481784067757582,"44":0.032458917068421994,"45":0.015784030405857297,"46":0.16044031380369111,"47":0.09745397137997161,"48":0.07448357669479364,"49":-0.0765244162501921,"50":0.07822018336377053,"51":-0.12213855749393313,"52":0.03779876979049953,"53":-0.23937276356219642,"54":0.13434169320431405,"55":-0.2760656096689741,"56":0.12967190181095026,"57":-0.04663907421413297,"58":0.13474390892052096,"59":-0.1366484596360133,"60":-0.23665051934453052,"61":0.0478984584721887,"62":-0.03923612310456227,"63":0.1832685563816568,"64":-0.06961548259629839,"65":0.011612907725159638,"66":-0.157783628685909,"67":-0.07422895449181938,"68":0.0630170299707103,"69":0.03295880893887233,"70":-0.06759251845030591,"71":0.020847713004667787,"72":-0.00670850681998931,"73":0.2502119221306417,"74":-0.09555748241444353}},{"sx":5,"sy":5,"depth":3,"w":{"0":-0.07612161241178927,"1":-0.025612475645029848,"2":0.02503688477870048,"3":0.10822156906065716,"4":-0.07014176889639999,"5":-0.22755367662382148,"6":-0.06595981158014501,"7":0.02202089034431861,"8":-0.189581365025325,"9":-0.016010836691343115,"10":0.05809541472504563,"11":-0.005569667686689326,"12":0.04922446582798304,"13":0.1974498785577003,"14":0.01922641167501747,"15":0.04766764168533509,"16":0.15414225482834074,"17":-0.008393491651155684,"18":-0.05062408343880353,"19":-0.1617094422639509,"20":-0.0176414056535746,"21":-0.17992381136278274,"22":0.09407526263839988,"23":-0.014989430624744613,"24":0.026482646327168784,"25":0.030092682861128622,"26":-0.031423230349999984,"27":-0.006741052860486707,"28":0.24588362500614996,"29":-0.05427814119501384,"30":-0.1325608879103066,"31":0.08774021693526544,"32":0.1427653513295509,"33":-0.09617502011266851,"34":-0.20878138456413617,"35":0.24449937097019514,"36":-0.08936258516014986,"37":0.06341158310496632,"38":0.07980193219868659,"39":-0.21817786628279043,"40":0.08571006248906464,"41":-0.010367452185447894,"42":-0.20689748250691825,"43":-0.04532073570520824,"44":0.08791461102073461,"45":-0.005632409998964489,"46":-0.005319008512177365,"47":-0.020566763181845436,"48":0.06269517886943626,"49":0.035300219477079196,"50":-0.08689719421657496,"51":0.0806183560195291,"52":-0.013822308602837959,"53":-0.008655432747453107,"54":0.04072396847216293,"55":0.08768726361349839,"56":0.05169653394831094,"57":0.30315662733990845,"58":-0.04178308244076695,"59":0.041404334055683445,"60":0.08573744237291704,"61":-0.02785578298032835,"62":-0.16115341940083747,"63":-0.13633909706163896,"64":-0.17206862020223193,"65":-0.10465741110657964,"66":-0.006812240279583378,"67":0.0436713745153112,"68":-0.0883026594397268,"69":-0.005653261303190269,"70":0.013632353549675225,"71":0.023544667299240745,"72":0.05422134798153468,"73":0.0046681573652746855,"74":0.3612363557896713}},{"sx":5,"sy":5,"depth":3,"w":{"0":-0.08095031947027573,"1":-0.3094762779599681,"2":0.05011040067032989,"3":-0.0853984273595214,"4":0.05244782731449047,"5":0.008714709234177423,"6":-0.032665770517483955,"7":0.006120270181004264,"8":0.056736437741240243,"9":-0.029515272226762146,"10":-0.03447623647739736,"11":-0.046083177148665,"12":-0.12858693671571977,"13":0.047617256792552555,"14":0.10469503477601891,"15":-0.0798196044243686,"16":-0.2459646972672484,"17":-0.11395349877220223,"18":-0.06663292416610973,"19":0.11040011575441318,"20":0.007753967213447432,"21":0.07795054764414804,"22":0.29225521754003136,"23":0.10853744720665642,"24":-0.08470457954706458,"25":0.17558165809151546,"26":0.06610264041327914,"27":0.08499496990244662,"28":0.11242257625699897,"29":-0.026262434538080807,"30":-0.005058343648929869,"31":-0.06296181830386964,"32":0.08735156499411385,"33":0.2646414712810587,"34":-0.12944192101163407,"35":-0.15658614565234727,"36":0.09004748697790944,"37":-0.09616650415469985,"38":0.2679136804456362,"39":-0.04788525725002287,"40":0.08849343533468948,"41":-0.009290639774100384,"42":0.1128748530099933,"43":0.30749546180496035,"44":-0.05479148507238071,"45":-0.0712900832559364,"46":-0.07594853068158164,"47":0.13214573466856278,"48":0.1187541087082793,"49":0.2747407380993593,"50":0.14425584631426536,"51":0.0314991777221604,"52":-0.057719186866120556,"53":-0.002681227433009392,"54":0.07746898635755872,"55":0.1112469121973691,"56":0.024876418212183813,"57":0.1708944572077984,"58":-0.13219265453074053,"59":-0.0028569050073214298,"60":0.024796745035697187,"61":-0.048579125587074785,"62":-0.22597446423305104,"63":-0.004433008550305793,"64":-0.03193660643372218,"65":-0.02903839248872893,"66":-0.1826238657229196,"67":-0.12052117548199566,"68":-0.07278746972093364,"69":-0.041261650293080016,"70":0.06039996996220557,"71":0.022101344198983318,"72":0.17429806567969042,"73":0.18943207244737273,"74":0.11714138984813043}},{"sx":5,"sy":5,"depth":3,"w":{"0":-0.03873524523514218,"1":-0.08243129096557741,"2":0.062015339318482555,"3":-0.22573939943635582,"4":-0.06708486955651483,"5":-0.11314497982014016,"6":0.02017727998004023,"7":0.23477698718570938,"8":0.08104036876553807,"9":0.011018099040440108,"10":0.0740268536234926,"11":-0.019713064443871713,"12":-0.0854230706066678,"13":0.17438110699836193,"14":-0.003929911096087368,"15":-0.16767446080490783,"16":0.10366302320750687,"17":-0.08229979003175573,"18":0.009187831037467339,"19":0.15682259737251456,"20":0.05309979691253091,"21":0.07058120772314923,"22":0.005574984366523645,"23":0.1153359218976915,"24":0.03983323739968512,"25":0.10277061659459219,"26":-0.09908802342445916,"27":0.0734256717502606,"28":0.014925344217682912,"29":-0.02606415562790073,"30":0.0363167160864437,"31":0.03613624795764729,"32":0.1107320201721084,"33":-0.1350024572126851,"34":-0.0366025018558887,"35":0.07281946647103862,"36":0.060341556872516584,"37":-0.029207567382851907,"38":-0.06249153092089872,"39":-0.1489965927412133,"40":0.09517029311185826,"41":0.13320507950608143,"42":0.16412629653992689,"43":-0.06848449409017066,"44":-0.03131210500100354,"45":-0.09446325391505804,"46":-0.04094452503552449,"47":-0.11983849949568272,"48":0.1963924648103492,"49":0.09892883959834216,"50":-0.1334548518382974,"51":0.06888174453322923,"52":0.14503688681382662,"53":0.02290391981118582,"54":-0.043415108891116494,"55":-0.12031284636010765,"56":-0.062099681462288225,"57":-0.07246299226446833,"58":-0.1690959975580273,"59":-0.09211721632539321,"60":0.057865331118939746,"61":-0.024033307359639548,"62":-0.2078028568347936,"63":-0.14541260405786577,"64":-0.10076790474358234,"65":0.129522502271634,"66":0.02593317476600126,"67":-0.11511374721074663,"68":0.13517760276967755,"69":-0.10091196652148533,"70":0.06705830840161317,"71":-0.07171215852398527,"72":0.11376856728515804,"73":0.03717591472767251,"74":-0.09459207742507425}},{"sx":5,"sy":5,"depth":3,"w":{"0":-0.02550749534162007,"1":-0.014962438961846288,"2":0.03071608654939181,"3":0.12365623310569034,"4":0.06392084040453248,"5":0.11447565444454795,"6":0.04169561948190446,"7":-0.15524552892950158,"8":0.042686560675708474,"9":-0.04631115366680848,"10":-0.058716799989788196,"11":0.031001142584272223,"12":-0.018940397365860447,"13":-0.10387009583548981,"14":-0.1487225114063232,"15":-0.09672302531825037,"16":0.1060573231383056,"17":-0.0036499001906378807,"18":0.01793924589715369,"19":0.029531413694220916,"20":0.07204270426130455,"21":0.13149119809515916,"22":0.17493876180161616,"23":0.0003468816000712447,"24":0.05991892433617033,"25":0.1603702907320873,"26":0.05768519151413887,"27":0.10770233945066557,"28":-0.07527251916841035,"29":-0.023635123580955462,"30":-0.04608154037311324,"31":-0.02874390285816357,"32":-0.027313315086671536,"33":0.09880461320482763,"34":0.08489966027865155,"35":0.045975908255491284,"36":0.060382431456720884,"37":0.06105249729333894,"38":-0.015048129776340053,"39":-0.18066463684676068,"40":-0.026544827882891923,"41":-0.13190088563519686,"42":0.08463971856944931,"43":0.24187008084658068,"44":0.1514572844893628,"45":0.1118646805252093,"46":-0.13714282042777565,"47":0.03488056365911998,"48":-0.10764965310720488,"49":-0.18839662888919398,"50":-0.015454023487598952,"51":0.09695475282945462,"52":-0.09258372304519055,"53":0.03094933916943062,"54":-0.15327069831481024,"55":0.048793647125941676,"56":0.06517689783125374,"57":0.01633299744898327,"58":0.1327568621263608,"59":0.0005663787252025597,"60":-0.05830990548088039,"61":-0.24216944617417213,"62":-0.13921362509636057,"63":0.04270346276822224,"64":0.04703579671292195,"65":0.03062259881913687,"66":0.17463096960659763,"67":0.0029412854479697994,"68":-0.056525374721520756,"69":-0.030223516955736243,"70":-0.047850963340582524,"71":-0.16370281408936038,"72":0.21138008714053202,"73":0.00827130093508312,"74":0.0016660385800380635}},{"sx":5,"sy":5,"depth":3,"w":{"0":0.08059694239711089,"1":-0.04779030668494073,"2":-0.05919494367957775,"3":0.10933276119560686,"4":0.006084789528907865,"5":-0.1587151554660206,"6":0.046890740949944214,"7":0.01552658925283117,"8":0.0652779531092259,"9":-0.025839452031380182,"10":0.1231280044082606,"11":-0.1339801833953014,"12":-0.0007607576854475745,"13":-0.1782660327338737,"14":0.0027567400879951066,"15":0.0062131511331351835,"16":-0.052644564604478715,"17":-0.015282786257745049,"18":0.14409915890140215,"19":-0.13424115168411366,"20":0.020948203543750994,"21":0.09692163799310971,"22":0.03749573821112015,"23":-0.17729400107810717,"24":-0.22323936128918656,"25":-0.11570612315762836,"26":0.05159913226718089,"27":0.15248487053879697,"28":0.1472889306165983,"29":-0.10729838685853506,"30":-0.007959849664908997,"31":0.07707977251516437,"32":0.014751463102869452,"33":0.3375140491335229,"34":-0.03215889949697984,"35":-0.14935490597948742,"36":0.16539638013291175,"37":0.022783393639455037,"38":0.12227071986495625,"39":-0.048653428141621984,"40":0.04288190068857087,"41":-0.23335579537625137,"42":0.019601677203943714,"43":-0.06605121844534663,"44":0.014942731002066136,"45":-0.15949455441862356,"46":0.06146896621639873,"47":-0.12283866336161951,"48":-0.03071564749468546,"49":0.22150956768900645,"50":0.09873534426049797,"51":0.1522583708566696,"52":0.26445180131162155,"53":0.15043525580896885,"54":-0.19656070954479407,"55":0.004691257256367624,"56":0.023525619816631375,"57":0.1268811581417861,"58":0.008438594118651742,"59":-0.06041311159821612,"60":-0.16064617654844862,"61":0.008651839356321718,"62":0.1399776296865929,"63":0.041212566720811444,"64":0.14952904224232652,"65":0.04383156611273447,"66":0.08838274653065312,"67":0.1436553291520197,"68":-0.03734310754162895,"69":-0.09058659029295128,"70":-0.008014091775403541,"71":-0.08163548122203612,"72":0.07669657365880968,"73":0.18079963011656927,"74":-0.05082919621792545}},{"sx":5,"sy":5,"depth":3,"w":{"0":-0.056034790721609475,"1":0.11433771949743408,"2":-0.003591741648492607,"3":-0.1079585975211519,"4":-0.1311899785742192,"5":0.17128870793750503,"6":-0.0007453651817167549,"7":0.02340575670012478,"8":0.02680499598994503,"9":-0.17128178649668663,"10":0.1005953736058,"11":-0.16408422831262365,"12":0.04850132293333576,"13":-0.0021705485269289263,"14":0.2016474028353625,"15":0.0904941131623691,"16":0.14049788828109303,"17":-0.15619088746757262,"18":-0.002261400189208006,"19":-0.020701889485789077,"20":-0.05347998728899413,"21":0.15764236819419483,"22":-0.11125687447483126,"23":-0.06248707315009458,"24":-0.10081295532574568,"25":0.07558653524162069,"26":-0.057455302198924384,"27":-0.08616915644381082,"28":0.07091065104132567,"29":0.12501143183724334,"30":-0.10038742638963404,"31":0.0484852535043485,"32":-0.061361446373608866,"33":0.19153697267400757,"34":0.041274833661601014,"35":0.08351380740345529,"36":-0.04805933726332132,"37":-0.1498555852101614,"38":0.0882904125180569,"39":0.13166596977426312,"40":0.09975773989444649,"41":0.08695464207138573,"42":-0.04390743467230569,"43":-0.0021063340265221426,"44":0.19007281478001087,"45":-0.018323284877427355,"46":0.1687043405133311,"47":0.1038458925469258,"48":-0.060784133838367706,"49":0.1753386944910523,"50":-0.09541043116851386,"51":0.08410481016788778,"52":0.018087259274210434,"53":-0.1141174588612243,"54":-0.03236787300645911,"55":0.10912808697830906,"56":0.0400935218500859,"57":-0.01608642218904754,"58":0.09487115744550764,"59":0.09424182882811596,"60":-0.059106908910236004,"61":-0.044161777774606385,"62":-0.15841040959647387,"63":0.11027740484301835,"64":0.10290506512258042,"65":-0.20545358924894802,"66":0.1896309444270777,"67":-0.0765940787559226,"68":-0.046765928387760496,"69":0.3297656129975,"70":0.0009282067385923643,"71":-0.03856599363966505,"72":0.00821097730884948,"73":0.030628504112733088,"74":0.15081017721305234}},{"sx":5,"sy":5,"depth":3,"w":{"0":0.1277520297320325,"1":-0.186547293734663,"2":-0.016005267207577,"3":-0.09953785150156794,"4":0.07175004129961357,"5":0.024665084904992186,"6":0.008091884632332375,"7":0.2517038309976806,"8":0.12118254874909162,"9":-0.010774772000711082,"10":-0.27133850420375816,"11":-0.06467588290905589,"12":0.06813806520860874,"13":0.051779772610965176,"14":0.0074396710314243684,"15":0.055972455147904415,"16":-0.04871738107839223,"17":-0.03504662083471848,"18":-0.0006391846037540512,"19":-0.1166913205460521,"20":-0.2066143167646362,"21":0.12439580287988287,"22":-0.01069120130407731,"23":-0.10624199627767457,"24":0.06313109837506235,"25":0.10639132156855614,"26":-0.1550525528331254,"27":0.02427688642143244,"28":-0.16898302332291992,"29":-0.08934010371293419,"30":0.0745742557032556,"31":0.1957525250062216,"32":-0.09833272796649195,"33":0.060044671150317905,"34":0.009203141018608009,"35":-0.22526868796892136,"36":-0.1028340946955149,"37":0.030713977009022734,"38":-0.08779456550790374,"39":-0.07519570907512925,"40":0.05286478938271574,"41":-0.0474086452935687,"42":0.11505073055743516,"43":-0.15534192620849158,"44":-0.14027015561004028,"45":0.02703887266871235,"46":0.016363645818594848,"47":0.027335224955464,"48":-0.17524473733091597,"49":-0.06073956857839741,"50":0.07418535602364414,"51":0.02736144449793335,"52":0.1279888571253612,"53":0.0765074933817818,"54":0.30257203054378906,"55":0.030553851665635474,"56":0.07261668986124413,"57":-0.0009979060329982983,"58":0.10836927231693146,"59":-0.028106679226026,"60":0.017044564066031255,"61":0.042226397326324105,"62":0.1080336519682941,"63":-0.006603482754743177,"64":0.05590868917890706,"65":-0.05698711521819576,"66":0.002938495888239044,"67":-0.058889131406753795,"68":-0.11334156118063175,"69":0.04769253107635135,"70":0.14015838824844395,"71":-0.0029928465495904118,"72":-0.055613583273435366,"73":-0.13641202763853386,"74":-0.06861353876584736}},{"sx":5,"sy":5,"depth":3,"w":{"0":0.05675974727395446,"1":0.03387835662360047,"2":-0.09752716819556566,"3":0.14241217051589697,"4":0.22322049942373773,"5":-0.19208613395080607,"6":0.08774258656719021,"7":0.007512612073021278,"8":-0.17245134715010976,"9":0.04795059796050743,"10":-0.0730403690281864,"11":-0.08343896252095827,"12":-0.03547990741424892,"13":-0.09458828654674292,"14":0.10065388444428117,"15":0.24079344535730288,"16":-0.09773615244877376,"17":0.12407973808538028,"18":0.14041227694039646,"19":-0.09797397429568051,"20":0.0221370593241348,"21":0.021395040431990947,"22":0.15182140242539277,"23":0.11063279643114875,"24":-0.10757709588205075,"25":0.16239872691750706,"26":-0.05887600695809089,"27":0.06280224331886745,"28":-0.12385026571815033,"29":0.19179103681877355,"30":-0.07026289052890874,"31":-0.03586192571750944,"32":-0.13550220665616466,"33":-0.1195945122274676,"34":-0.004412355267420445,"35":0.04770921224486605,"36":-0.08478571435018525,"37":-0.03175642512153971,"38":0.05614502737440957,"39":-0.18798468253278047,"40":-0.20375033419839594,"41":-0.1198124235826357,"42":-0.06608613592794327,"43":-0.08883449000558107,"44":-0.1473028187624053,"45":0.023735380258863827,"46":-0.10860561502417646,"47":-0.04924182074916905,"48":0.08770654876884182,"49":-0.10920515638828597,"50":0.014759832192717794,"51":-0.0350582221455035,"52":-0.010548214965909155,"53":0.1483208512475321,"54":-0.053012913087301175,"55":0.19689353619097494,"56":0.11859422018143034,"57":-0.15736030825065303,"58":0.05409997961756354,"59":0.05264675572412213,"60":-0.008107446134602615,"61":0.011021748979003206,"62":-0.0707363427583256,"63":0.011102683851254569,"64":-0.09492674185732844,"65":0.01970705420954563,"66":0.12297603909978154,"67":-0.0653592199601178,"68":-0.0649347412623003,"69":0.05268528569095501,"70":0.03165174460367679,"71":0.05342102953566292,"72":-0.09297301438560357,"73":0.016848691639782858,"74":0.07589061084891904}},{"sx":5,"sy":5,"depth":3,"w":{"0":-0.0434439154408738,"1":-0.04421327896695115,"2":-0.07110451736823824,"3":-0.0349655045188655,"4":0.032278749209959406,"5":-0.06675525854438263,"6":-0.10574458755689137,"7":0.033739116781647135,"8":-0.0015136129608515165,"9":0.07654398816908824,"10":0.10442857930236339,"11":0.049404998208753444,"12":0.07705654071898853,"13":0.06994945738455943,"14":-0.10583096457584196,"15":-0.05401376682062115,"16":-0.12296674475728607,"17":0.010568182060940292,"18":0.04404634452539852,"19":0.16606808037638401,"20":0.036807139022167944,"21":0.05607723462433593,"22":-0.14902877638864054,"23":-0.21039453905287422,"24":0.1616657638394965,"25":0.021187529558159272,"26":-0.0065293506038765214,"27":-0.1547010601554363,"28":0.0386752327047088,"29":0.18378728038515743,"30":-0.03860179541916812,"31":-0.24319062785819012,"32":0.05951217011934936,"33":0.026998835127733673,"34":-0.04003891485995841,"35":-0.10291959741367526,"36":0.01745310564298359,"37":-0.18931703318923404,"38":-0.09586455330950217,"39":-0.15605265700613535,"40":0.05950548321698046,"41":0.029582162569425776,"42":-0.17019354623404487,"43":0.0851262253866449,"44":-0.13706414596716004,"45":-0.18854068483566744,"46":0.02851356458798461,"47":-0.039068879149282414,"48":0.0052244978688244376,"49":0.16521229256814438,"50":-0.07756748910555646,"51":0.05607343431103659,"52":0.21186608896572395,"53":-0.004138457986852335,"54":0.10955159752983575,"55":-0.149884139800889,"56":-0.08207021450681468,"57":0.1176974258393674,"58":-0.003539079579195324,"59":-0.03393828246113247,"60":0.011298963120969552,"61":0.054338468592727236,"62":-0.12218980839158186,"63":0.0704950760263147,"64":0.18043357292267506,"65":-0.21637352232969087,"66":0.002240755182707231,"67":0.08446592224800507,"68":-0.03925908887010944,"69":0.2305344671463573,"70":0.03484951905712384,"71":0.0612953218704322,"72":-0.1238492835227995,"73":-0.07967453857066963,"74":-0.05964667397826854}},{"sx":5,"sy":5,"depth":3,"w":{"0":0.06707575987055701,"1":-0.24361865909920738,"2":0.045941346449023694,"3":0.24407802910231238,"4":-0.16523431219497886,"5":0.15695349649567825,"6":-0.14400482019003605,"7":-0.07179344462229971,"8":-0.08150643934683136,"9":0.010756072823700868,"10":-0.2442398148174947,"11":0.06390979357972044,"12":0.025306491100966687,"13":-0.0698709200411394,"14":-0.15449075267205883,"15":0.18779974346412717,"16":0.14985745789436336,"17":-0.11935693437933981,"18":-0.13770805128796798,"19":-0.23668915341884506,"20":-0.00014603606115609234,"21":-0.12222721548078316,"22":0.03250092084237195,"23":0.03996965745365466,"24":0.007417043049767449,"25":-0.024503286494290174,"26":0.18718852587235446,"27":-0.1757834097123741,"28":0.009231546690101022,"29":0.013252403627394556,"30":-0.0734054690017241,"31":0.0629533312277101,"32":-0.06905748837486157,"33":0.0701709004956236,"34":0.035230774306524104,"35":0.16176986416739167,"36":0.1289617582555229,"37":0.24893016728063186,"38":0.0098624461808117,"39":0.02195932852761102,"40":-0.027097578179021208,"41":-0.12919168537574455,"42":-0.08889798919280194,"43":0.16326402815722435,"44":0.04072702232508955,"45":0.3447722139869117,"46":0.006883847568951976,"47":0.017639695376657445,"48":-0.0004888474398954566,"49":-0.025491967190758597,"50":-0.11390653530540598,"51":0.01068898686653241,"52":0.13922930103025835,"53":-0.0723243856131662,"54":-0.03720131187603312,"55":0.15937238388985947,"56":0.08614933715487579,"57":-0.0165196306013453,"58":0.030953117461780477,"59":-0.09790976477407284,"60":0.20530934912392865,"61":0.03431232363529635,"62":0.048452754552648705,"63":-0.02120378628503425,"64":-0.11817047958667133,"65":0.05501218706795761,"66":0.04464112089366429,"67":0.04485611822076497,"68":0.011493807467900111,"69":0.013856112218762746,"70":-0.23694889876167663,"71":0.09666337637797046,"72":-0.13024889826409358,"73":0.12754952193508726,"74":-0.25476959289845635}},{"sx":5,"sy":5,"depth":3,"w":{"0":-0.026470793196512975,"1":-0.03202962032826562,"2":0.0364038963030732,"3":-0.03387557859779547,"4":0.2534377724444997,"5":0.09199370135171782,"6":0.026559022201816804,"7":-0.1768369781284726,"8":-0.16675554339697066,"9":0.14751040795259646,"10":0.052776449553393626,"11":0.08424047654625423,"12":0.01934379369655008,"13":0.07099183302504292,"14":0.009070711185079884,"15":0.12669683869125545,"16":-0.07377535764966783,"17":-0.11817737780620718,"18":-0.17405618843528164,"19":0.023099932523879017,"20":-0.035091799005043764,"21":0.028206430153415115,"22":-0.23534006194437396,"23":-0.05804962491102779,"24":0.17399121958497263,"25":-0.028753351494045086,"26":-0.020519466972615388,"27":0.06330479172008219,"28":0.14078010064863,"29":-0.009138296028944327,"30":0.00826905569696315,"31":0.020034469324982478,"32":-0.06468033185786744,"33":0.09999171160121864,"34":0.1748308692357274,"35":0.0792126722615471,"36":-0.1890780323303278,"37":0.03773125492798002,"38":-0.12923193565801752,"39":0.09716300931473575,"40":-0.11597064643826016,"41":-0.025728664706551135,"42":0.00876394358460364,"43":-0.06306386566562722,"44":-0.28383552224737524,"45":0.13661900489259593,"46":-0.01564149701616171,"47":-0.09573131127252356,"48":0.008738246869690911,"49":-0.14168690773004589,"50":-0.03301427272274697,"51":0.24191535323174204,"52":-0.11003405168104707,"53":0.023061343332494523,"54":0.1459410149908992,"55":0.08498228309660451,"56":-0.20142247958443785,"57":0.13763800883058672,"58":0.0769802611345682,"59":0.0680953088442531,"60":-0.046994890967989186,"61":-0.15444674838472633,"62":-0.022006306179513692,"63":0.25701460758386335,"64":-0.0711121433614889,"65":-0.09666571927160007,"66":-0.09250757210927678,"67":-0.05325392738051082,"68":0.09653014342017796,"69":0.2341078825920432,"70":0.0351463880444513,"71":-0.11530901271297461,"72":0.00852519977826947,"73":0.09098812884791299,"74":0.3243391049137074}},{"sx":5,"sy":5,"depth":3,"w":{"0":0.05574755878580918,"1":-0.015596501718866885,"2":0.08781700622824652,"3":0.2541260313575112,"4":-0.0053743044672641006,"5":-0.18400778493397585,"6":-0.10386827154580655,"7":0.0539518648065314,"8":0.12023836534775482,"9":-0.10056068970897053,"10":0.11620870912848658,"11":-0.011001372554923897,"12":-0.01245615576939519,"13":0.006640230112131397,"14":-0.16562332226457915,"15":-0.2410377395217596,"16":-0.05582725204383899,"17":-0.007102354507559603,"18":0.166465899931773,"19":0.03698443827293344,"20":0.12505982957341397,"21":0.06735775669905517,"22":-0.12789366291136922,"23":-0.21195185391142748,"24":-0.14602731232803004,"25":0.2694871218727951,"26":0.12137401579706596,"27":0.0039910844760146355,"28":-0.1974616798132422,"29":0.10250217439970043,"30":-0.015153861280205856,"31":0.07908020297303271,"32":0.08826515535054083,"33":0.09549973419450876,"34":0.08959579691118165,"35":0.04469198519499641,"36":-0.10218525202170356,"37":0.13031044667532468,"38":-0.0412411139373048,"39":0.00863166189946326,"40":-0.23461583280925355,"41":0.09246272168112912,"42":0.13279963878774645,"43":-0.1911037607350088,"44":0.010929447692455414,"45":0.02333387929957038,"46":-0.050335130406997414,"47":0.13401192001971754,"48":-0.2386543002551818,"49":0.08731952606177057,"50":0.15364229364868168,"51":0.08227535633681922,"52":-0.15097223976216897,"53":0.10810635541539401,"54":0.16880536996833578,"55":0.005493964094949679,"56":0.17917125418054708,"57":0.15180545627039738,"58":0.0554302395238,"59":-0.08739769230039088,"60":0.06363505921350442,"61":-0.03096487204098706,"62":-0.0640404898507507,"63":-0.02371732810969519,"64":-0.19568932997047989,"65":0.06829595782886445,"66":-0.17856156786308733,"67":0.15376895728408893,"68":0.07152639714305147,"69":-0.0807360408207308,"70":0.029381382752515967,"71":0.026499848132606366,"72":-0.0525652783448739,"73":-0.1993656623401489,"74":0.18945357490363773}},{"sx":5,"sy":5,"depth":3,"w":{"0":-0.10998117062585883,"1":0.04356372747225381,"2":-0.05647236887274366,"3":0.001204654066794366,"4":0.0005870346204623748,"5":0.23393656965586765,"6":0.08900958847682543,"7":-0.022622942012211676,"8":-0.04199767753811696,"9":0.10954118613817318,"10":-0.11013876391805105,"11":-0.046515204337209556,"12":0.17894503171572362,"13":-0.05287503589057355,"14":-0.11131506581879777,"15":-0.007948128793599369,"16":0.06291726643932752,"17":0.11461314327511793,"18":0.00045299604360988155,"19":-0.057195425097675445,"20":-0.12349721084106187,"21":0.10850514542835202,"22":-0.02449284228563988,"23":-0.04706369004998413,"24":-0.10975576295990895,"25":-0.17158197707398748,"26":-0.08943818014056575,"27":0.24241705235979227,"28":-0.07389657406877914,"29":-0.05789180068050757,"30":-0.08163548333010588,"31":0.0013614004478819794,"32":0.2515566416490332,"33":0.02462127257057657,"34":0.36159483589701485,"35":0.035594031530023724,"36":0.038539995511256836,"37":-0.008181740154381223,"38":0.24847936035074378,"39":-0.04734442580973044,"40":-0.18794585454517207,"41":0.13650496184765665,"42":-0.16279424014893937,"43":-0.1531933231324885,"44":0.05596050014650742,"45":0.018541997675966107,"46":0.08270955339738861,"47":0.04066362993741583,"48":-0.11100975731917383,"49":-0.11464738724923976,"50":-0.026752001258804333,"51":0.09487361984647301,"52":-0.13467779162056062,"53":0.002782136256791171,"54":0.06597761705871509,"55":-0.15521740238978132,"56":-0.06323294053418166,"57":-0.013738968459507278,"58":-0.15603601836270758,"59":0.1204662561412588,"60":0.07172740581924884,"61":0.1509747441876064,"62":-0.2523824073396088,"63":-0.2472392571909587,"64":0.02679890694280696,"65":-0.06535449923596268,"66":0.1385733257125294,"67":0.040302741545942385,"68":0.14019288714149392,"69":-0.02176139231214244,"70":0.002699518101521811,"71":0.04543661833196977,"72":0.07521477290202842,"73":-0.15537581057935348,"74":-0.11842423416837884}},{"sx":5,"sy":5,"depth":3,"w":{"0":0.20257139253926668,"1":-0.16935482913653527,"2":0.012440939208493505,"3":-0.15743226734107088,"4":0.023781831748557566,"5":0.19618040480703738,"6":0.10460514589519541,"7":-0.05150777999609256,"8":-0.039654311840232895,"9":0.12398789524939229,"10":-0.03972117817379151,"11":0.10203040273321694,"12":0.13889093463684712,"13":0.08811269951829202,"14":-0.06335185870549391,"15":0.11938268862373612,"16":0.14947183773343378,"17":-0.11989203608906668,"18":0.09144815069901624,"19":0.025069661048413648,"20":0.03634327993000535,"21":0.06158202093402687,"22":-0.07135982062510736,"23":0.09125378502815706,"24":-0.31337335221682794,"25":-0.012387986494065082,"26":0.00741203876449905,"27":0.07397790006145241,"28":0.004795641361292436,"29":0.0876932879628071,"30":-0.23049193502650644,"31":-0.021090938572093768,"32":-0.0030950384082001044,"33":-0.01228197958143981,"34":0.0775318195831172,"35":0.2903162135298877,"36":0.1852607506277438,"37":0.06224197730094779,"38":-0.2960625562955439,"39":0.2567420586586865,"40":0.16954308364736953,"41":0.18208036392104687,"42":-0.1837561384461192,"43":-0.0265282117044135,"44":0.09276030636979389,"45":-0.12021186984898732,"46":-0.15230628723778686,"47":0.13233545278361342,"48":-0.13828859962753304,"49":0.030694456992105427,"50":0.118409458321357,"51":0.10110765011668604,"52":0.032070136720505786,"53":-0.0032046017581890095,"54":-0.19790117438537994,"55":-0.12562073782494323,"56":-0.025891422666749077,"57":0.2058166217326434,"58":0.04584717581174203,"59":0.07778294954775451,"60":-0.01617728180576802,"61":-0.10086144883733596,"62":0.017829474586838756,"63":-0.04844868243941731,"64":-0.044670418586929744,"65":0.00046441519697678745,"66":0.18976525893378,"67":0.01289437424291514,"68":-0.07426724405872535,"69":0.04150776401305923,"70":0.22727381056900878,"71":-0.09796634636454205,"72":0.14271375514966733,"73":0.26528210822363807,"74":-0.016871769895624146}},{"sx":5,"sy":5,"depth":3,"w":{"0":-0.048413719943423056,"1":-0.23633429297276148,"2":0.16614632096312842,"3":-0.15017935764503598,"4":0.0024318978664911737,"5":-0.007292736085802377,"6":0.0806786980740582,"7":0.05662842900642922,"8":-0.16636782748407664,"9":0.06070544093332914,"10":-0.1645079281923683,"11":-0.05172205152585683,"12":-0.012758542151170383,"13":0.06563958956942098,"14":-0.04943583526336136,"15":0.014643990406771805,"16":-0.13330862183453995,"17":0.17707810228713738,"18":-0.07653370865337468,"19":0.2630524786971045,"20":0.08290231578106613,"21":0.08953606792815846,"22":-0.21512182325191412,"23":0.03730843054816854,"24":-0.1389560980643821,"25":-0.05799129418530428,"26":-0.010897630881103598,"27":0.022829652953949793,"28":-0.07835581035659181,"29":-0.01153917030243857,"30":0.029799028717616777,"31":0.08381605110747907,"32":-0.07716397838446303,"33":-0.08628270609683024,"34":-0.14355035627350862,"35":-0.17022945498269057,"36":0.056148978928274106,"37":0.020324767426892393,"38":0.08816490946306656,"39":0.2546840892381948,"40":0.193989207217509,"41":-0.05718657145250866,"42":0.13749372275053937,"43":0.048293258357586945,"44":0.13188630797646436,"45":0.14215338024556487,"46":0.01228348853599711,"47":0.0014769537466393723,"48":-0.022877320141302705,"49":0.12681485177783006,"50":0.13059833306826724,"51":-0.15523739965539732,"52":-0.12406295200499623,"53":0.0735306469923506,"54":0.003050322676106821,"55":0.006448243251858869,"56":0.1969368919299799,"57":0.12796423843389834,"58":0.007675676590329626,"59":0.14226822505870862,"60":0.007485695607520514,"61":-0.17873460659666107,"62":0.00969491832836589,"63":0.10377378987585269,"64":0.029340259703702316,"65":0.06999738148626658,"66":0.11178226020198963,"67":0.07302717421028078,"68":-0.04376678040228493,"69":0.01365539197678462,"70":0.07927401496593368,"71":-0.1989455807091415,"72":0.03532604740394885,"73":0.07021759522672269,"74":-0.05568475340698094}}],"biases":{"sx":1,"sy":1,"depth":16,"w":{"0":0.09287579875130889,"1":0.0981443448351123,"2":0.1007664540034369,"3":0.09487232145040131,"4":0.09844625659388587,"5":0.08927802124332375,"6":0.09878243745985747,"7":0.09811781107293233,"8":0.08934495243665322,"9":0.0984446401308893,"10":0.09934299692363494,"11":0.08954827665227232,"12":0.10936153515903692,"13":0.09757627557542656,"14":0.09490816671288402,"15":0.0982570653757952}}},{"out_depth":16,"out_sx":32,"out_sy":32,"layer_type":"relu"},{"sx":2,"sy":2,"stride":2,"in_depth":16,"out_depth":16,"out_sx":16,"out_sy":16,"layer_type":"pool","pad":0},{"sx":5,"sy":5,"stride":1,"in_depth":16,"out_depth":20,"out_sx":16,"out_sy":16,"layer_type":"conv","l1_decay_mul":0,"l2_decay_mul":1,"pad":2,"filters":[{"sx":5,"sy":5,"depth":16,"w":{"0":0.000104950472198162,"1":-0.051838141543709255,"2":0.06402528230914721,"3":0.02019806991161571,"4":0.008564282783728453,"5":-0.11711576795928794,"6":-0.009708976913847032,"7":-0.04715316708321609,"8":-0.032124194274904774,"9":-0.014591440853005405,"10":-0.04930372402853631,"11":0.0798579426140854,"12":0.06697538556888914,"13":-0.053744991345872545,"14":-0.05846031200282,"15":-0.02104487778314634,"16":0.05551096607379414,"17":-0.014612280784425388,"18":0.05046711479603833,"19":-0.0749072439433151,"20":0.02084571887683378,"21":0.09523137293983035,"22":-0.10687376001623014,"23":-0.05787344438429046,"24":-0.04551433935691904,"25":0.0566295078662409,"26":0.04334557710507772,"27":0.004675178591585262,"28":-0.11326652053943355,"29":0.052518851329104416,"30":-0.03184173517709934,"31":-0.03209999475725663,"32":-0.045252978191476056,"33":-0.10917200326137008,"34":0.05865971506427115,"35":-0.1166831165520157,"36":0.032492685734764874,"37":0.00855993267205727,"38":0.08006231457611213,"39":0.03726861748851164,"40":-0.028512893230930203,"41":-0.034062966241525466,"42":0.04144458908466801,"43":-0.06358345610768268,"44":0.03762283085212724,"45":0.025033492378792897,"46":0.02420213767058056,"47":0.041563977161099074,"48":0.06052440329988228,"49":-0.07851374551632138,"50":0.015575534222040785,"51":-0.056990794958304065,"52":-0.03159417119797337,"53":-0.013541385075074592,"54":0.06800378642076088,"55":0.11116659140930658,"56":0.005941123353770208,"57":0.04899650522837554,"58":0.040407439719627895,"59":-0.01821213686271382,"60":-0.07180436843657444,"61":0.029025041508299796,"62":0.028694388727771074,"63":-0.031158745137889583,"64":0.05291984818592382,"65":0.03768743446698164,"66":-0.008920493005190934,"67":-0.04036426996338931,"68":0.07969062705867211,"69":-0.06702522217002205,"70":0.029686163740907462,"71":0.05154835304960565,"72":0.08454194782044742,"73":0.01812865597272359,"74":-0.024598492571513305,"75":-0.05055091272975787,"76":-0.011940357359252862,"77":-0.09140328608745542,"78":-0.0058251850204918115,"79":0.003511085333192712,"80":-0.015653118973377157,"81":0.03390680025029777,"82":-0.04620890204956639,"83":0.02438717132000812,"84":0.07968249886019788,"85":-0.00821588051719725,"86":0.01942229907668485,"87":-0.005283585228328552,"88":-0.016737369395552634,"89":-0.014729471024354578,"90":-0.04226669203621353,"91":-0.1120338711535811,"92":-0.03618723212194791,"93":-0.02316321030567132,"94":0.12048364017955696,"95":0.04806150431523227,"96":-0.020522839868883987,"97":0.031135948761710497,"98":-0.009944019582976105,"99":-0.04940185954253414,"100":0.05615122147711552,"101":0.018327901444539288,"102":-0.025387867623024814,"103":-0.011008971995520457,"104":-0.05474831068197514,"105":0.02658490868993208,"106":0.10350493596734413,"107":0.014309228770337027,"108":-0.06676120316019579,"109":0.07813410338563581,"110":-0.007491784741885403,"111":-0.08672779955481201,"112":0.08141134667465245,"113":-0.07874717465336704,"114":-0.05277331571608563,"115":-0.08963355162366321,"116":0.03216930834802803,"117":-0.01538725848788254,"118":-0.048879910409638544,"119":0.01754587927071022,"120":-0.0694771414824606,"121":0.036768828175135354,"122":0.05580527775085007,"123":0.04124092886910785,"124":0.003032639302781282,"125":0.0023629864968298447,"126":0.03803508435019764,"127":-0.007866890028919764,"128":-0.024380927463085067,"129":0.02689339866612435,"130":-0.038572103447970636,"131":-0.013351047448683248,"132":-0.0733779170233862,"133":0.07981327908749808,"134":0.10507406299438712,"135":0.015719190277977864,"136":-0.04046960038195435,"137":-0.019973579043224027,"138":-0.01291528389354776,"139":0.04423909900827039,"140":-0.031255261643054484,"141":-0.01315121717375527,"142":-0.08115086081820631,"143":-0.0399536388645413,"144":-0.012497636433677569,"145":0.03539739121731749,"146":0.04317481935907723,"147":0.050133084377425356,"148":-0.012603110595301285,"149":0.033330769261678786,"150":0.026972042629693806,"151":0.00981824753646077,"152":0.006685589925292289,"153":0.018905889404706392,"154":0.041600300865432635,"155":0.000990612145363414,"156":0.07789239626049778,"157":-0.002250124604116086,"158":0.10133953323598238,"159":0.005283399975931035,"160":0.0655086073857516,"161":-0.02420800455057524,"162":-0.04195135420471495,"163":0.054906012667234924,"164":-0.009636285633335209,"165":0.06587303439637829,"166":-0.02617883375577754,"167":0.03373617844381928,"168":0.10254590069903978,"169":-0.07919560946523467,"170":-0.0457391871030215,"171":-0.020345574859276152,"172":0.024740285076652057,"173":-0.043138767493705044,"174":0.031770085942583674,"175":0.07150936788545462,"176":-0.05171006664039928,"177":-0.03103093840616996,"178":-0.0267633894737707,"179":-0.0251148971811941,"180":0.14680826960911394,"181":-0.016594754414697606,"182":-0.03247428642019881,"183":-0.017429032032921996,"184":-0.05447308228958579,"185":0.06126803059589742,"186":-0.019859521633147914,"187":-0.00453319765659205,"188":0.011563638691053826,"189":0.0174362118103809,"190":0.00015415835989313151,"191":-0.013370690291918182,"192":-0.05390572148517785,"193":-0.007038296816775312,"194":0.07426556605482847,"195":0.0010262544405106764,"196":0.030735229003385336,"197":0.02757433384554836,"198":-0.013053991178776857,"199":0.05808706839214759,"200":-0.046894273277253005,"201":-0.06314929342954685,"202":0.040203420384254736,"203":-0.03718822027787576,"204":0.0032545467444013805,"205":-0.02629540690948987,"206":0.01971703145959542,"207":0.07283486757489203,"208":0.010347519191826846,"209":0.07489467599867991,"210":0.014595625583104444,"211":-0.05903669105725317,"212":0.0002451900407580681,"213":-0.006571274719770661,"214":0.014771992346352025,"215":0.02702871073022671,"216":0.02812001778393607,"217":0.030448456386823846,"218":0.03182935238871349,"219":-0.022423295636301036,"220":-0.022228075202922623,"221":-0.02473243666006976,"222":0.03667312276908537,"223":0.0017095612533826543,"224":0.07234175720865502,"225":0.022997146630637497,"226":-0.11414040914708992,"227":-0.04048079415715682,"228":-0.021812541645889957,"229":-0.027707061242530664,"230":-0.02892242543020622,"231":0.020972753588822637,"232":0.01419736989763212,"233":0.05802225602417704,"234":0.022457951665318974,"235":-0.05204537135721045,"236":0.020013782911258184,"237":-0.054363776413686477,"238":-0.10478799255629342,"239":0.02607259074460084,"240":0.04466619105359612,"241":-0.0581831915272462,"242":-0.09643028415678336,"243":0.03546550215411029,"244":-0.009618920970400164,"245":0.03869069570876097,"246":-0.03479522296354019,"247":0.019831164536204905,"248":0.11658223892092348,"249":0.005953516206342074,"250":-0.010451645574993541,"251":0.00696233002286988,"252":0.0230133599083916,"253":-0.019709063119263837,"254":0.07164522604789897,"255":-0.04061660734062301,"256":-0.034429117311035845,"257":-0.07391889008192028,"258":-0.06583240023199251,"259":0.054542840520180054,"260":0.05909780375096108,"261":0.020642893424500326,"262":0.10340288018894021,"263":0.046447434577133656,"264":-0.09862138878416962,"265":0.11588214737282045,"266":-0.1230807055923049,"267":-0.05421800340677522,"268":0.016284127602618364,"269":-0.05643339329578624,"270":-0.008084128033151339,"271":-0.07273610964857181,"272":-0.02839791992787861,"273":0.044248756150850395,"274":0.05671046609650564,"275":-0.06376712133544642,"276":-0.1049897959655732,"277":0.050398102510891656,"278":-0.08395934503757305,"279":0.09020784761794023,"280":-0.018629469735675072,"281":-0.00873953024653242,"282":-0.030435788298813105,"283":-0.006809698966015574,"284":-0.1174557883275236,"285":0.0448677364678709,"286":-0.09357729384794938,"287":-0.0007487203888016042,"288":-0.07213919843273622,"289":0.012749734252487772,"290":0.034496656111916234,"291":-0.047579199226994766,"292":-0.03333090527950725,"293":-0.034088753946292585,"294":-0.03161978987805142,"295":-0.006968050825860483,"296":-0.012478214180111278,"297":-0.014827075222290993,"298":-0.014212059120651696,"299":-0.056112848533452525,"300":-0.000702529494019691,"301":-0.06199497024252702,"302":0.006379153187376513,"303":-0.0247973026823775,"304":-0.02248909215150245,"305":-0.022410497610706945,"306":0.002942189147599676,"307":0.12983252826930217,"308":0.047182920898469455,"309":0.02072107404777556,"310":0.08511518649002377,"311":-0.003613015933756434,"312":0.04033295076396009,"313":0.07628000162732286,"314":-0.03402271754077281,"315":-0.05337219356698378,"316":-0.06918459886752454,"317":0.026941336875915517,"318":-0.08938655312341864,"319":0.048867171057645854,"320":0.05221068351883947,"321":0.06433157658586122,"322":0.07686576034409548,"323":-0.05912032082262928,"324":-0.07748598307438906,"325":0.029547391649395058,"326":-0.05658248255578295,"327":-0.02361868191621592,"328":-0.0074361435165726,"329":-0.03399355505279703,"330":-0.07491904257956655,"331":-0.04181752156432669,"332":-0.05895998213934463,"333":-0.037471285024051074,"334":0.0681332089457935,"335":-0.015783367654440807,"336":0.014627607192353382,"337":-0.1264528558206114,"338":-0.027140044098214286,"339":-0.06627328788790558,"340":0.01052219087822069,"341":0.0431650498323333,"342":0.0681561111747825,"343":-0.05689319924889224,"344":0.08037309530827849,"345":0.017185743661787656,"346":-0.07360788801390511,"347":-0.04874970972804695,"348":0.008600567170810175,"349":0.11837773709052699,"350":-0.044425552667671286,"351":-0.0033241407615943568,"352":0.008490754040829804,"353":0.0087599088912329,"354":0.1171638443229126,"355":-0.021871195907154875,"356":0.036038341283389494,"357":-0.09919557016000627,"358":0.0387189579540247,"359":0.055206985328950575,"360":-0.06367962535337436,"361":-0.048916152928126067,"362":0.06582755430262321,"363":-0.02847728870836485,"364":0.03554247658058181,"365":0.03298292304595156,"366":-0.007855815436336266,"367":-0.08617530201425289,"368":-0.04629990430134579,"369":0.08951989085176648,"370":0.032527873914367345,"371":-0.009721395668732343,"372":0.009726465657294018,"373":0.048464635469076034,"374":0.01791037097495801,"375":-0.015448886833666749,"376":0.02994036236784998,"377":0.00006885154245671841,"378":0.007111470058589158,"379":0.07349251748328262,"380":0.005675301012997781,"381":-0.10537689207917379,"382":-0.03496310249539013,"383":0.03490256778242179,"384":-0.054351713461670524,"385":-0.0022478061706253574,"386":0.02289972045442918,"387":-0.023514546264236172,"388":-0.05436482169452769,"389":0.04008456962206345,"390":0.01468189933333412,"391":-0.036252448594644715,"392":-0.024589612898952236,"393":-0.04751804722331531,"394":-0.026105519753698868,"395":0.057335422375743135,"396":-0.009984885292396585,"397":0.03052726997952363,"398":-0.042005233999246154,"399":0.06659617603473053}},{"sx":5,"sy":5,"depth":16,"w":{"0":0.18646143583760383,"1":-0.003420688417413036,"2":0.022097191796373702,"3":0.0764805198687021,"4":-0.00005117316961314282,"5":-0.014035906061308431,"6":-0.05290192430114141,"7":-0.020121277422290165,"8":-0.05496748455163674,"9":0.06847343550281151,"10":0.05704709112636488,"11":0.025322446821203423,"12":-0.041535026942212304,"13":0.0005836346785407084,"14":0.03332794020664637,"15":0.0034991690183188064,"16":-0.028070712591854403,"17":0.0898815392301466,"18":0.04028802595253521,"19":0.1143156344700745,"20":-0.048562878296957185,"21":0.06966267719009747,"22":0.022798407974316273,"23":-0.012195373759299742,"24":-0.011422667169276663,"25":-0.0047445403441062454,"26":0.08583998561142932,"27":0.04307492193811892,"28":0.001607085844271535,"29":0.06212394746221094,"30":0.014598208804192915,"31":-0.013027702067537244,"32":-0.022445803204117952,"33":-0.050896288010971305,"34":-0.011746176365706794,"35":-0.11002640402680008,"36":-0.08387345606026529,"37":-0.012950631943535833,"38":0.023292457178374016,"39":-0.0754476145943928,"40":0.08027413237899986,"41":0.048137281895236514,"42":-0.005451747967701888,"43":-0.029432441480471312,"44":-0.10125461388539467,"45":0.008559848452921091,"46":-0.021893119044916705,"47":-0.1056080160551209,"48":0.0159682758088627,"49":-0.10498623453062261,"50":0.028870325927568323,"51":0.08024907627394075,"52":-0.01196513244797201,"53":0.034688376733086224,"54":0.029513044569130453,"55":-0.08302682700873365,"56":0.04472828802934716,"57":-0.0014621322334698135,"58":-0.060932847300664145,"59":0.10529945692305334,"60":-0.026651194796563846,"61":-0.017816704592880057,"62":0.06529738666300344,"63":-0.041558988837515666,"64":-0.0962157460818026,"65":0.07246421599397646,"66":-0.057451086432828466,"67":0.004744267029559447,"68":-0.01428640604064202,"69":-0.051130463511542566,"70":-0.02211659129634236,"71":-0.007417125074270717,"72":-0.00589941209880964,"73":-0.05758680002103605,"74":-0.04632393290443067,"75":0.10626694879049133,"76":0.01307489182815435,"77":-0.008676711244682342,"78":-0.0021267382497797143,"79":0.07079033064257692,"80":0.005708202044706403,"81":-0.059591962469432304,"82":0.012971897398913388,"83":-0.03957933866798624,"84":-0.07095568867169488,"85":0.018015346359065036,"86":0.0114902043303537,"87":-0.0702779306357946,"88":-0.08790862251413106,"89":-0.03675116104434311,"90":0.04386073478124276,"91":-0.010072701377370014,"92":-0.040535145110547705,"93":0.026268765443402193,"94":0.025823125651775355,"95":0.009524415945161197,"96":-0.00506104622413937,"97":0.011103333549350962,"98":-0.028492222170316182,"99":-0.004814136954840852,"100":-0.05442981306686934,"101":-0.014524734993157224,"102":0.046901081346349356,"103":0.07964388905504657,"104":-0.0369588446005018,"105":-0.007774202812242391,"106":-0.023599911960355074,"107":0.04133018402618349,"108":-0.10141793816740417,"109":-0.0509905952818039,"110":0.039984564372603185,"111":-0.05987612324360259,"112":0.004967714671090045,"113":0.07044545434281906,"114":0.02488779277825017,"115":0.05229079086414544,"116":-0.028593705986539396,"117":0.02180646517920486,"118":-0.014023388559642795,"119":-0.0077962581329390004,"120":0.010718303146498256,"121":-0.03449497293801072,"122":-0.00022207730264747153,"123":0.03968593455583502,"124":0.001828646828038372,"125":-0.005257798768623808,"126":0.1052629910911908,"127":-0.04178393669507601,"128":-0.01278886391271921,"129":0.029453060919710415,"130":-0.025671956797821784,"131":0.027127557346303392,"132":0.02083341091707853,"133":-0.04171078964859228,"134":0.022238748225063054,"135":0.01275543854613198,"136":0.008692202800561759,"137":-0.016163763028963322,"138":-0.024662578320564916,"139":0.00021788127284926798,"140":0.08362446332306164,"141":-0.03213269874131229,"142":-0.08202999251988838,"143":0.0024118851468992305,"144":-0.11236923378522982,"145":-0.015008310611602339,"146":-0.032033162482309564,"147":-0.05652358334524182,"148":-0.02548721601392996,"149":0.036597502841335706,"150":0.03174666409479153,"151":-0.04396870751485573,"152":0.012300493731727986,"153":-0.009613956224847512,"154":0.03246222719652567,"155":-0.03590852336319207,"156":0.008678244293860365,"157":-0.02281884960178548,"158":0.038409704017879596,"159":0.037360000142756575,"160":-0.060452671791562704,"161":-0.03397617938049155,"162":-0.06022503490297528,"163":0.03561205222064845,"164":-0.06541649985937746,"165":0.027541723700242597,"166":-0.03961371965581477,"167":0.007785200510398534,"168":0.03873142195161174,"169":-0.02722763004207583,"170":-0.13179446485715068,"171":0.04930510683008211,"172":0.07616198464084552,"173":-0.04383521538167367,"174":-0.08422201362771256,"175":0.019103769367433163,"176":-0.04488185482779375,"177":-0.0426303137392971,"178":-0.05830851070944048,"179":-0.06314562417859755,"180":0.08866231573796554,"181":0.02745178981613229,"182":-0.062067678133577116,"183":0.025192310611847457,"184":-0.03654018228287011,"185":0.06303068210916798,"186":0.0578170369550177,"187":0.057808515455824425,"188":-0.07138483248392918,"189":-0.018238699114611918,"190":-0.040585012537288766,"191":0.06584798412995291,"192":-0.030743386962697294,"193":-0.05161724807181695,"194":-0.037255262065004305,"195":-0.03494697372588872,"196":0.020515028987586094,"197":0.03339120274303292,"198":-0.03236359870597827,"199":0.013660803054416758,"200":-0.03911700296074792,"201":0.030376171205123044,"202":-0.05177241653821808,"203":-0.09396775100236228,"204":-0.0436538771112448,"205":0.0065845426103077346,"206":-0.024268471500709484,"207":-0.0488905202079699,"208":-0.049457683498393405,"209":0.014054596722421868,"210":0.04279675797339076,"211":-0.02830971109508486,"212":0.007606827198462814,"213":-0.008517498270362864,"214":0.04316374309689015,"215":0.0026897800947237377,"216":-0.05085576383340809,"217":-0.08039402694128599,"218":-0.007745051822599613,"219":0.056865586644499054,"220":-0.0014977958631718045,"221":-0.03931711796772409,"222":-0.027634392485721714,"223":0.08201455708012201,"224":0.1642321018421761,"225":-0.10763909263831146,"226":-0.029291717674675866,"227":0.018589397538929985,"228":-0.028798217229597904,"229":0.05151391361442956,"230":-0.015821431883479616,"231":0.037317859388566195,"232":-0.053267300469934574,"233":0.014551326776387628,"234":0.0451080254901652,"235":-0.0026889414738883568,"236":0.11784750887199626,"237":-0.008888478541268532,"238":-0.0049621423980978525,"239":0.04915695322934649,"240":-0.04042884833464767,"241":0.05639136461790531,"242":0.00729072258453298,"243":-0.09355661599950539,"244":-0.10370526830047234,"245":0.024349553820083344,"246":0.09116394435874904,"247":-0.040120661106019806,"248":0.002774375059018212,"249":-0.06912460213113984,"250":-0.10187510084495124,"251":-0.06605078561046325,"252":-0.051983965649278825,"253":0.055965823887327064,"254":-0.03480426304465151,"255":-0.039775675675763365,"256":-0.05111630967347657,"257":-0.06356003275243868,"258":-0.09150760025712112,"259":-0.01125478589420453,"260":0.0401910912090017,"261":0.0065669203652578435,"262":0.02208608623548016,"263":-0.02513291254757374,"264":0.06641468588504927,"265":0.07515396638247726,"266":0.07136942758555892,"267":0.038831906892673025,"268":0.0793976258824612,"269":-0.03677867252690049,"270":-0.06193258122984126,"271":0.06367087752008166,"272":-0.05688430895776426,"273":0.04998540426694401,"274":-0.017806152982136336,"275":-0.023035856107283908,"276":-0.0009117405189388618,"277":-0.1203343031174861,"278":-0.037212691008425475,"279":-0.01794059574339534,"280":-0.07390379182693327,"281":-0.10028790834710727,"282":0.036825475057627115,"283":-0.013113887690574822,"284":0.10807768833470657,"285":0.004444624037346051,"286":-0.011892755621224816,"287":-0.036796627356845385,"288":0.028105272601075103,"289":0.022824923966684934,"290":-0.03573270560967941,"291":-0.005040176609381001,"292":0.0985627212625997,"293":-0.053345717902572615,"294":-0.050784836314495214,"295":0.04167316299129281,"296":-0.12069054898611589,"297":-0.0023384456159713796,"298":-0.027215842557379064,"299":-0.02432748661362473,"300":-0.061074949002394484,"301":0.0028056232761035057,"302":0.06299512123985693,"303":0.015595368661431214,"304":-0.05699281471706873,"305":-0.02317856323814575,"306":-0.12203591693253271,"307":0.04547742650689784,"308":-0.057157867296054654,"309":-0.0041282853451764506,"310":-0.0609268191569527,"311":0.008763164329175904,"312":0.012763544262678117,"313":0.01210851322518737,"314":0.05940970549148475,"315":0.04935964094574733,"316":-0.012596815850105011,"317":-0.05556233638255622,"318":-0.052040236957390844,"319":-0.052027150614782,"320":0.02160035390483597,"321":-0.017981420771317095,"322":0.03975447622095607,"323":-0.03781909135252337,"324":0.09030480866250211,"325":0.01931289041314069,"326":-0.013888636311277971,"327":-0.06283350324074885,"328":-0.01940287811986383,"329":-0.0007686534877994677,"330":0.07239536805975955,"331":0.017723347000526236,"332":0.01954737683811597,"333":-0.02792432232659768,"334":-0.03939994437784098,"335":-0.016322481181662796,"336":-0.009103631400587248,"337":0.0939512956591749,"338":-0.09434066827206347,"339":0.0014342525321148214,"340":-0.03732572298340999,"341":-0.06007971528601487,"342":-0.0824110920515462,"343":-0.07471656467168272,"344":-0.012830319140460102,"345":0.0008024218492290033,"346":-0.12959291011830826,"347":0.047072418124146,"348":0.09487591419166147,"349":-0.029979544709001226,"350":0.055801740138482894,"351":-0.05103107935908974,"352":-0.044931606074546354,"353":-0.02232473191963297,"354":-0.014384397097083555,"355":0.11619789194012063,"356":0.0745150446135115,"357":-0.02927594049398143,"358":0.043496566191538875,"359":0.00230727346502934,"360":-0.03871393384176982,"361":-0.03145468524912644,"362":-0.04284651137386982,"363":-0.0170369972308679,"364":-0.04275143697622348,"365":-0.03194843550188574,"366":-0.04138296537840151,"367":-0.058226360420657236,"368":0.017766224584157046,"369":0.05054660608022222,"370":-0.07416077149532223,"371":-0.008628920707591059,"372":-0.03364836188026087,"373":-0.028387541905446026,"374":0.04783894335576534,"375":-0.03344377637271341,"376":0.09567542324819245,"377":-0.020844475566008696,"378":-0.058354231517353944,"379":-0.045280069190854345,"380":-0.08069191095043331,"381":0.007555559229306622,"382":0.10298937698027755,"383":-0.08224125722253864,"384":0.042997210085397766,"385":0.021362376950221203,"386":0.016339070591749386,"387":0.05730323578142493,"388":0.05500368207711975,"389":-0.00430934091123713,"390":0.04382614589967676,"391":-0.03232580258549051,"392":0.10224367897447359,"393":-0.08073351430772994,"394":0.0507958617678874,"395":0.0028256434671390367,"396":-0.02274380321264992,"397":-0.006543100734392506,"398":-0.048714034922274635,"399":-0.04887579316067394}},{"sx":5,"sy":5,"depth":16,"w":{"0":-0.018269311940725997,"1":0.060246277915244825,"2":0.02969315561097993,"3":-0.058801801062538885,"4":0.03288089449647363,"5":-0.04804294898240536,"6":0.03412473933190875,"7":0.02799656647177568,"8":-0.010593147339763935,"9":-0.018187485598447194,"10":-0.026495069128728784,"11":0.04230027994327125,"12":-0.046221018901558095,"13":-0.09698442623308373,"14":-0.0151343289956348,"15":-0.05685482042535506,"16":0.10589442901550962,"17":0.03217130493652964,"18":-0.030526496902843883,"19":0.06360728449319272,"20":0.026881235868997926,"21":0.002191636884775688,"22":-0.020639900099995036,"23":-0.05597726246104238,"24":-0.04974179265636911,"25":-0.05998297007078634,"26":-0.051170583716547265,"27":0.0440720360784831,"28":0.008972275406069822,"29":-0.01248870820150269,"30":-0.025214648697905226,"31":0.03158796051581043,"32":0.0006764986011960203,"33":-0.05697478533298988,"34":0.0726165615237662,"35":-0.0398773381143856,"36":-0.01835507670937088,"37":-0.08918503256162205,"38":0.06363871125938486,"39":-0.0000661357685485791,"40":0.011794672355101926,"41":-0.0787750125311868,"42":0.04679180288155571,"43":0.02266060346974784,"44":-0.004281443136438463,"45":-0.018370644630257334,"46":0.09026993010103083,"47":-0.020355593306474438,"48":0.0565060326082926,"49":0.006949644856093202,"50":0.022965475668905916,"51":-0.0017215869167310329,"52":-0.040230514992779416,"53":0.06795025489641397,"54":0.046399572602779764,"55":-0.028167009604771313,"56":0.004113634227065298,"57":0.03766694499588083,"58":-0.05489158165528428,"59":-0.030098068741256007,"60":-0.029584927124663325,"61":0.05537446442612928,"62":-0.023556325429392337,"63":0.08294452876444326,"64":0.018783330318018314,"65":-0.07526148344288412,"66":-0.06036530447086021,"67":-0.028339789131995478,"68":0.10547908913560396,"69":0.04923135846808152,"70":-0.030896094902644465,"71":-0.07449276189559073,"72":-0.08888498280518248,"73":-0.01250610796136643,"74":-0.029730347891826738,"75":-0.0214854802938978,"76":-0.020642302586201988,"77":-0.02711281276872643,"78":-0.12145323541461342,"79":-0.020099106436641548,"80":0.009547545570726724,"81":-0.02661317669208802,"82":0.0794609512541878,"83":0.009273107915409395,"84":0.07012980508251096,"85":0.0870503908396504,"86":-0.01762645725957753,"87":0.12892937313379527,"88":-0.0820756802460315,"89":0.027491097217353083,"90":0.0244479273027408,"91":0.014962971423437877,"92":0.003964012212345766,"93":0.1028449014137636,"94":-0.025206158005497067,"95":-0.07878278328432368,"96":0.010218358942317058,"97":-0.014127537347305243,"98":0.0018387609666523884,"99":-0.05455908286539227,"100":0.00345529050956561,"101":0.015781659195227952,"102":-0.04131255787759092,"103":-0.02068123436602344,"104":-0.03691044632163815,"105":0.06999695294568953,"106":-0.004432615865690015,"107":0.018521364871500197,"108":0.05029253144121702,"109":-0.00866987991350086,"110":0.05161338790156696,"111":-0.058234628494388006,"112":0.10421619213906823,"113":-0.10673625498390937,"114":-0.002929157028143694,"115":-0.02547858123006285,"116":0.010916247839778744,"117":0.0074316609935613735,"118":0.054239507694245626,"119":0.06414215579306622,"120":0.04359083534686455,"121":0.044194571829970705,"122":0.009775928256597895,"123":-0.0064558402094068565,"124":-0.04045935199949072,"125":-0.03544073329453264,"126":-0.03969149644755777,"127":-0.13666417719455523,"128":-0.06784212004639588,"129":0.008419584875966044,"130":-0.06267446081797703,"131":-0.023357702679682936,"132":-0.008251014824281215,"133":-0.08496219174810732,"134":0.03846967102864542,"135":-0.07082872297286434,"136":0.06854898005350647,"137":0.005396069222348335,"138":0.045433612995424415,"139":0.03825443642175383,"140":0.05357665446019888,"141":-0.06318729526647716,"142":0.020027868277463605,"143":-0.011551829493616862,"144":0.020120793998006183,"145":-0.002060771463859125,"146":0.000632681929182261,"147":0.006646800978687012,"148":0.02892476050091646,"149":-0.02296115622887905,"150":0.0541907501340335,"151":-0.012609916578921741,"152":-0.09422778272219169,"153":-0.01191447092741902,"154":0.034582080426028845,"155":-0.035246305842181164,"156":-0.047058133960010004,"157":-0.05988093874117119,"158":-0.02267348442268176,"159":0.0019134913318242632,"160":0.018072302057528133,"161":-0.039654066568786416,"162":0.031977835075676045,"163":0.00654842327254182,"164":-0.00104142446635745,"165":0.008480926751855815,"166":-0.000641356272558154,"167":-0.0645875941498458,"168":0.025372989887104208,"169":-0.001719468241585866,"170":0.0008422397361780515,"171":0.07476354328765852,"172":0.09535156137218322,"173":0.061114300992793275,"174":-0.0477187887092861,"175":0.07141698585707439,"176":-0.0346465687430835,"177":0.09769758982438902,"178":0.039546737996856055,"179":-0.07295934270371694,"180":-0.028989765137098677,"181":-0.009684320166469331,"182":-0.0344903573433683,"183":-0.042790336885034405,"184":0.10037182815202361,"185":-0.011627247030131849,"186":-0.0013374094977734452,"187":-0.0122986661487779,"188":0.10601354045363426,"189":-0.05413782727444646,"190":-0.012580854838563176,"191":0.041789878938107136,"192":-0.04180898213761501,"193":-0.05546795292900038,"194":-0.0012044124519687872,"195":-0.03797608838299292,"196":0.046896288649961634,"197":0.012937725746674487,"198":0.0256598623320386,"199":0.003973377020885817,"200":0.006822497540743894,"201":0.051423646977233915,"202":-0.02465815297308145,"203":-0.012280063099705467,"204":-0.08909335907537112,"205":-0.017666109247708672,"206":-0.09377624472697585,"207":0.09302635597823017,"208":0.04587758077563557,"209":0.05602035887588054,"210":-0.06195846580663946,"211":0.07394818081316848,"212":-0.07064704909660287,"213":0.026690979972056994,"214":-0.08009700815702143,"215":-0.0797387545359407,"216":0.046806550850071266,"217":0.012803847081749305,"218":-0.032773057150835026,"219":-0.015319233890575462,"220":0.02799625006152112,"221":-0.0024767785885381837,"222":-0.01307640078810524,"223":0.0033575087876462325,"224":-0.017324054222753897,"225":0.009919694408527604,"226":-0.08733652311049565,"227":0.07413661476813012,"228":-0.01950661808694396,"229":-0.16844737103350427,"230":0.034549186269613445,"231":0.04459060291410363,"232":0.05835407795963003,"233":0.07187659446224846,"234":0.034737642332764836,"235":0.026003910196998353,"236":-0.030716511095045064,"237":-0.002519284451533275,"238":0.06161816338631906,"239":-0.052583184796562855,"240":-0.08092178706351967,"241":-0.0448688659475411,"242":-0.0673302847734352,"243":0.022624140589178714,"244":0.041927987253774696,"245":0.03494670002468698,"246":-0.026926191811462646,"247":0.059552015088110255,"248":0.05913319936672816,"249":0.02438202178464527,"250":0.044227411275516895,"251":0.0452187652446928,"252":0.00787615314115736,"253":0.03535308512564646,"254":-0.009576941101534574,"255":0.008916448323600393,"256":0.06119801421286626,"257":0.12267722390610293,"258":0.05995247618731004,"259":0.08724107791963304,"260":0.07076470365003167,"261":0.13349697034835922,"262":-0.08588868521768399,"263":-0.008620670272257056,"264":0.01136192816626027,"265":0.05530650452593885,"266":-0.06921344183062234,"267":0.011103907025058356,"268":-0.00803786829827927,"269":-0.06339799220154349,"270":0.014383093439327206,"271":-0.021830673728253955,"272":0.0015942323064947316,"273":-0.0017079816177609872,"274":-0.08612999269582133,"275":0.058974729801796286,"276":-0.02761767715598173,"277":0.05869720291546344,"278":0.008760136914106995,"279":-0.022438077908288185,"280":0.08605326392740498,"281":-0.08256393948182818,"282":-0.016337109787098614,"283":0.0527774442552523,"284":-0.1019262986422307,"285":-0.05308833303657902,"286":-0.021628884981242033,"287":0.0035140345638096024,"288":0.025601351649826763,"289":-0.08523190865166322,"290":-0.07493399628451092,"291":0.058769175271494695,"292":0.07969854683031856,"293":0.09194954216020168,"294":0.06564338762353784,"295":-0.03834306863957478,"296":-0.05901148848228103,"297":-0.025287789479061556,"298":0.049445581262115214,"299":0.04525293741372795,"300":-0.02117774215005367,"301":-0.08329494037084942,"302":0.0690784890231416,"303":0.014049741583435166,"304":-0.0024492576029698744,"305":0.0268800544035575,"306":-0.0104770935486478,"307":-0.013810162246429327,"308":-0.10145711883737481,"309":0.007236455893047208,"310":0.030084768898693513,"311":0.011829283930022087,"312":-0.02148468836565535,"313":0.053591626044999806,"314":-0.08609421030728286,"315":-0.05637966260225596,"316":0.007524902647013909,"317":0.0357930016787394,"318":-0.012912917443998641,"319":-0.009674151932128937,"320":0.024521779214480042,"321":-0.037871976250718364,"322":-0.056678142157556184,"323":-0.019365021706210826,"324":-0.012343375705577989,"325":0.044632820146546924,"326":-0.024526878554229043,"327":0.02256911223250747,"328":0.029682424348512728,"329":-0.011673087527376343,"330":0.0009832829361322683,"331":-0.0015813720039875188,"332":0.03065391763202522,"333":-0.005239648923489274,"334":0.014947856720139837,"335":0.028619246591109655,"336":-0.048258889844607654,"337":0.019286052010753,"338":-0.07957004476073327,"339":-0.04467409452025062,"340":-0.05935546463191146,"341":-0.002104491764438151,"342":0.010423713466015921,"343":0.004427702794912937,"344":0.06627412160364214,"345":-0.055281147859781915,"346":-0.01963880621630181,"347":-0.06408402555743345,"348":0.01247082210681126,"349":-0.12222788088970162,"350":0.03741177256163678,"351":0.016293469928853097,"352":0.0709059416952208,"353":-0.027997799461756668,"354":-0.013617625322047966,"355":-0.003176743613582843,"356":0.029220220433682227,"357":0.0499133241042882,"358":0.053710458845016906,"359":0.038020904157198034,"360":-0.032047806301715026,"361":-0.03783919491556888,"362":-0.006385149959112975,"363":0.04974543818599004,"364":-0.10359845741053035,"365":-0.0055200276593112335,"366":-0.059496392665094516,"367":0.022487391663346425,"368":-0.10600164144317818,"369":0.0028909353758442427,"370":-0.04701805054042011,"371":0.019487991092104903,"372":-0.024894713574679143,"373":-0.01773029390324926,"374":-0.04174368201651789,"375":0.0540988203197457,"376":0.0011408439461643794,"377":0.04861634898978499,"378":-0.08567300733984091,"379":-0.0080448556168052,"380":-0.02237802331275214,"381":-0.03572420831673325,"382":0.08313886760832613,"383":-0.11010006243919843,"384":-0.058908788164982295,"385":-0.0061868883446963485,"386":-0.09162778412782048,"387":0.0333565636324924,"388":0.0405971135911431,"389":0.04874720353277423,"390":-0.10627392002449108,"391":-0.0813256919495099,"392":0.10125041495218724,"393":0.031797599153804826,"394":0.0029500632414887267,"395":-0.06238844275873327,"396":0.00013046191437921396,"397":-0.03939507306853948,"398":0.029386579458299436,"399":-0.05785819858955146}},{"sx":5,"sy":5,"depth":16,"w":{"0":0.029953976420605752,"1":-0.051983191036108566,"2":0.029228124347897042,"3":0.017523965763079623,"4":-0.04855186650645633,"5":-0.0547842579178169,"6":0.015996422433989105,"7":-0.02019815744025265,"8":0.11337988952711973,"9":0.011865064246950163,"10":-0.0889392815843636,"11":-0.0012898907800180555,"12":-0.04158142968163404,"13":-0.029558893483066687,"14":-0.07663163809010341,"15":0.07440662645374131,"16":0.0017641958674650092,"17":0.00914773900494595,"18":-0.017354567220143217,"19":0.055962098769567564,"20":0.039647096801966215,"21":-0.04340040265276119,"22":-0.006828545685652773,"23":0.05998613324989204,"24":-0.0652466617617169,"25":-0.05651497451822369,"26":-0.08178292125386138,"27":0.021714213581217178,"28":0.06001702153747064,"29":-0.013069577708053212,"30":-0.050978197636048564,"31":0.04277138203286203,"32":-0.00012836321365060094,"33":0.006097628116835528,"34":0.026019207854186772,"35":-0.040455840074617895,"36":-0.06276275420363196,"37":0.002265240711162077,"38":0.015928163228262696,"39":-0.00006100383151023698,"40":-0.030344534790973744,"41":0.030913282837021848,"42":0.11556920138948044,"43":-0.04132111886725772,"44":-0.06746986451456094,"45":0.12538490019861326,"46":0.02406949132158658,"47":-0.08252512579338654,"48":-0.030704204204764534,"49":-0.060529867093399144,"50":0.044513484008034274,"51":0.009383698793199448,"52":-0.03721912025926859,"53":-0.05712791233283828,"54":-0.008869176920411967,"55":0.019094575714583922,"56":0.05532497706313498,"57":0.024167611271196383,"58":0.02708711677004347,"59":-0.000617275857839536,"60":-0.03814428559677837,"61":0.004369786042481907,"62":0.033151693469382196,"63":0.02039149821798331,"64":-0.0899961737703906,"65":0.10880762367876345,"66":-0.1098677738665751,"67":0.0396480219433632,"68":0.020352289302179256,"69":0.0035982984878473925,"70":-0.0010373117969015378,"71":0.009500506586119829,"72":-0.009451221673033024,"73":-0.009900841001062987,"74":-0.12821262348113474,"75":0.033206951495154444,"76":-0.058241651331017934,"77":-0.014115150388643484,"78":-0.07382203617699283,"79":-0.023553243849857956,"80":0.05936390632414618,"81":0.0799596846270025,"82":0.050891152947294335,"83":-0.04692656792979307,"84":0.05518450242370752,"85":0.0070831596721250235,"86":0.059564032894043294,"87":0.015158687948313501,"88":-0.030631068663529427,"89":0.031170121668946005,"90":0.10630874314298278,"91":0.05463317645125085,"92":0.045267718740684824,"93":-0.005397991091150765,"94":-0.05461408298256777,"95":-0.046357850461463866,"96":-0.011290281629014564,"97":0.05822513037709354,"98":-0.048464752488807196,"99":0.011061590812420568,"100":0.028489076227002773,"101":-0.148380499110794,"102":-0.005362415128586245,"103":-0.013606105741032966,"104":-0.03913236985986742,"105":0.03769443324732317,"106":0.0032989597772408227,"107":-0.07112340149331316,"108":-0.07480071595468475,"109":0.04345060671843843,"110":0.05941163140794523,"111":-0.04700885831367606,"112":0.0179970588671724,"113":0.045145181735119916,"114":-0.07393861950562243,"115":-0.07802133242990891,"116":-0.06646030344885535,"117":0.01782282896293826,"118":-0.05210414633291844,"119":-0.049639445596214506,"120":0.05117928963908002,"121":0.009695535681266607,"122":-0.05998416895732443,"123":0.017831710055466597,"124":0.0484626544815091,"125":-0.007155475946869631,"126":-0.014350158859072076,"127":0.05359716310393903,"128":-0.0012047586982545369,"129":0.011909124825722527,"130":0.018849627179932937,"131":-0.0239204674253821,"132":-0.001995726093542989,"133":0.018896196772820145,"134":-0.015729022042398573,"135":0.014359964164003983,"136":-0.05835442639367938,"137":-0.023702832931702222,"138":0.030582809311992032,"139":0.01691907424756822,"140":0.06274137503721107,"141":-0.04521432691815812,"142":0.06087825327759254,"143":0.07513349702399023,"144":0.05475240014392227,"145":0.032894061652257583,"146":0.09126484969046122,"147":-0.03153201548932455,"148":0.003947633877374616,"149":-0.07669515973946725,"150":-0.1237342055464997,"151":0.02277973672645438,"152":0.04317258395280672,"153":0.042030408065146636,"154":-0.0012543544367655847,"155":0.07385676936659916,"156":0.0483534617208158,"157":0.05498312209895756,"158":-0.056305749493858276,"159":0.0725685937542296,"160":0.04958425274369549,"161":0.03450112616197946,"162":0.030963248216562902,"163":-0.001959410967543611,"164":-0.06744524301619642,"165":-0.00785016743195636,"166":0.00036490928674382146,"167":0.07437748972269284,"168":-0.02828030059084437,"169":-0.060950237672714784,"170":0.05364158728942712,"171":0.011745091678176563,"172":-0.04000628370929727,"173":-0.010203268789119507,"174":0.01868207759710698,"175":-0.015410484623788308,"176":-0.023577472552192218,"177":-0.046124256682829656,"178":0.13045957042608375,"179":-0.04162962089400939,"180":0.012970514609540844,"181":-0.05594546210761229,"182":0.00786661662554702,"183":-0.02720361514187803,"184":-0.04380992152130792,"185":-0.09325739743396681,"186":-0.026428027960237674,"187":0.09172237424535284,"188":0.00549798129399994,"189":-0.07414843024046232,"190":-0.026569220036108517,"191":-0.03556626811751871,"192":0.024705300581945606,"193":-0.008518665001934326,"194":-0.049255654524915864,"195":0.0043343009719222165,"196":0.051103432292191164,"197":0.009600236393402337,"198":0.09159823779539038,"199":-0.012919565755927504,"200":-0.061482327767866184,"201":-0.01741956008784663,"202":0.029176561349957546,"203":-0.12813571989530806,"204":-0.06161803865611365,"205":-0.003090809188895522,"206":-0.06151330469778871,"207":-0.08062012098644714,"208":-0.0451161039098054,"209":0.07318368487639744,"210":-0.03254272383033251,"211":0.0198760590111232,"212":0.05585629795280995,"213":-0.0526879084376454,"214":0.0450467403226469,"215":0.03597628411328042,"216":-0.023639909596682145,"217":-0.05272972026388799,"218":-0.04947248603631842,"219":0.012914737588518554,"220":0.02559264703370317,"221":-0.04679487188675208,"222":-0.03479428966570636,"223":-0.04393052767762973,"224":-0.07822213941355766,"225":0.047100960825027974,"226":-0.07614555001363535,"227":-0.06566422675513157,"228":-0.008288253973369023,"229":0.017985791874081662,"230":0.03966889988426005,"231":-0.02088615104364415,"232":-0.05422936833849498,"233":0.025471232968094313,"234":0.03667833566445455,"235":-0.021838047710770282,"236":-0.002725075322066001,"237":0.04783532788486781,"238":0.0009131921049120141,"239":0.02159508371607026,"240":-0.000331228282297571,"241":0.04468595206138867,"242":-0.016248592928738172,"243":0.0422490221603143,"244":0.010047395115343822,"245":-0.04822749432147797,"246":-0.0024909128693107975,"247":0.02895236510585866,"248":0.002506304188175785,"249":0.0327110099820329,"250":-0.05408519062771233,"251":-0.02962326440278551,"252":-0.07231877307922178,"253":-0.0491367483989284,"254":0.018244216388864434,"255":0.02078888028960697,"256":-0.011598958972692742,"257":0.009691515060414383,"258":-0.01540569365836592,"259":-0.03296688253436395,"260":0.025411713144321075,"261":-0.05321484104552903,"262":0.026068980812830433,"263":-0.03825932450126843,"264":0.01468173036955552,"265":-0.04739480779420755,"266":0.012004329959977394,"267":0.010339553736597054,"268":0.03035358183886296,"269":-0.017081325701475816,"270":-0.096469005069069,"271":-0.05481448137802839,"272":0.05281118702626601,"273":-0.04948077676491101,"274":0.00046043558703192863,"275":-0.08370457437597459,"276":-0.03241699651991668,"277":0.0071660953156489566,"278":0.05788369917014445,"279":-0.09297933580859148,"280":-0.022274510054790777,"281":0.06266361931004281,"282":-0.0433334755032921,"283":0.05249736408927162,"284":-0.10080330240780784,"285":-0.10566041251965996,"286":0.03926225182228775,"287":-0.03378205833444119,"288":0.02974735492072971,"289":0.024504651679112942,"290":0.017011461125591015,"291":-0.03984054273791872,"292":-0.06192382079629379,"293":-0.011145668849107598,"294":0.045747423209484904,"295":0.08645844878396215,"296":0.005540103237227442,"297":0.09326528428934638,"298":-0.03497749278210427,"299":0.0014182172304017474,"300":0.07503604257974175,"301":-0.02683516542310978,"302":-0.07876962487199114,"303":-0.03424662783164021,"304":0.016831566375971278,"305":-0.04172517321640931,"306":-0.03669858626168067,"307":-0.058166083190120656,"308":0.09131441130575692,"309":0.06258325779461404,"310":-0.02029983094280858,"311":0.02144288408112141,"312":0.0037658034370652268,"313":0.05377127971278001,"314":0.05966582422176163,"315":-0.13691024077312514,"316":-0.021500277500973324,"317":-0.051299972613690945,"318":0.06170206053649921,"319":0.023038366640248782,"320":0.044716191595278953,"321":0.073358903866911,"322":-0.06507155947127569,"323":0.06459765498860605,"324":0.13119225831826342,"325":0.12600169478091783,"326":0.027755681180056297,"327":-0.026298528138365113,"328":0.0407618674062957,"329":0.02186347413631199,"330":0.023968885043828252,"331":0.019596209805065226,"332":-0.0435849535062057,"333":-0.000022307279893914525,"334":0.04534990210496977,"335":0.06548627140419663,"336":-0.011261300208925695,"337":-0.08425660626132236,"338":-0.07467633161766267,"339":0.09871651612698508,"340":0.003838007151567473,"341":-0.06233384087838639,"342":0.016573349724740727,"343":0.03395304934812698,"344":0.08283747708831193,"345":0.03946660756243431,"346":-0.020747207708342895,"347":0.009935798903080995,"348":0.04066681752250229,"349":-0.044141200737892954,"350":0.005062146603016528,"351":0.06782091275180027,"352":0.04223229415098339,"353":0.055357668222153766,"354":-0.05218293491065451,"355":0.012777804948115626,"356":-0.02088819184864017,"357":-0.041207621294905045,"358":-0.10567973225565996,"359":-0.01257526977228754,"360":0.0025601233494239577,"361":0.011073134792515996,"362":-0.014194194863840978,"363":-0.0705072614261715,"364":0.035659687161287035,"365":-0.02294586152858538,"366":-0.053914864045893296,"367":0.012490405654668631,"368":0.062298269322094646,"369":0.007427309904834645,"370":-0.0015800297588835248,"371":-0.02452605050122869,"372":-0.011693578260899402,"373":-0.04831573222355455,"374":-0.09941389972002057,"375":0.008951684935004471,"376":0.09820988067901351,"377":0.026452000684594308,"378":0.005615413985451549,"379":-0.01964371435752751,"380":-0.11795747712186938,"381":-0.10822944392418815,"382":-0.0036204360192933324,"383":0.045105358613516805,"384":-0.024898945615848163,"385":0.0008712617350294782,"386":0.014291442019629045,"387":-0.04992506954070851,"388":-0.02354670142875495,"389":0.11021867103902759,"390":0.004076430116436927,"391":-0.07453283907870424,"392":-0.03627602369058375,"393":0.027105809882547103,"394":0.0721524774181713,"395":0.05407942075288879,"396":0.10188241409705406,"397":-0.009130724316267668,"398":-0.03412593630803611,"399":0.05098850582822759}},{"sx":5,"sy":5,"depth":16,"w":{"0":0.0044586724302274556,"1":-0.031348277510402006,"2":0.04539217674349697,"3":0.051704636731627555,"4":0.002868476373900911,"5":0.033997834439122576,"6":-0.03144546209165772,"7":0.08558764965266283,"8":-0.0031279543770809616,"9":0.0029151184237501465,"10":0.014045845067320782,"11":-0.040487013326786996,"12":0.001621645894676965,"13":0.006929065445876013,"14":-0.04326238666314432,"15":0.054926212590685156,"16":-0.02722140603633376,"17":-0.06342916033890411,"18":-0.09726671787510895,"19":0.007196460695563396,"20":-0.025524367609775462,"21":0.02116279556431515,"22":0.03299801737114748,"23":0.009454387719081763,"24":-0.06026584970545312,"25":0.04065186998571108,"26":0.0039258072512518075,"27":-0.017017556767756657,"28":0.04299811974853672,"29":0.07946548448965986,"30":-0.025497519982877494,"31":0.02840649512008566,"32":-0.014021609830061444,"33":0.024376072422581233,"34":-0.02906546893355217,"35":0.06566675072817175,"36":-0.03160959947737752,"37":-0.11427197324977705,"38":-0.029528040211779398,"39":0.04435039674006672,"40":-0.05459806481070191,"41":-0.04491282999978247,"42":-0.004607218655174903,"43":-0.0007599624794537565,"44":-0.010919109037478909,"45":0.027665060263977213,"46":0.033886551866637124,"47":-0.08665359405827171,"48":-0.10514074030487505,"49":-0.007004113074170905,"50":-0.04232603498903517,"51":0.055472760381448404,"52":-0.008383751460671572,"53":-0.0413971089359951,"54":-0.0344417365580167,"55":0.09338549130874467,"56":0.009986523159899903,"57":-0.006286484674796112,"58":0.016468830576699067,"59":0.027172050491610044,"60":0.0005123372718081882,"61":-0.044696447446700045,"62":-0.10872570925109105,"63":-0.04914327102829414,"64":0.027315148859332672,"65":0.01955732441280275,"66":0.011945850999210543,"67":-0.021995547297456775,"68":-0.048701633840267426,"69":0.068073300896672,"70":-0.01634912233917183,"71":0.04319564661601156,"72":-0.022225338863877953,"73":0.015608154515411535,"74":-0.03677093272743265,"75":-0.045885908791999344,"76":-0.00834649862844656,"77":0.015048063329469357,"78":-0.04510116761544352,"79":-0.042236627314866534,"80":0.008520716860855149,"81":-0.11131119305515509,"82":0.0065717776366306865,"83":-0.07652386336963776,"84":-0.06589210798611408,"85":-0.045215067531626976,"86":0.020010013642934258,"87":0.05601632943309205,"88":-0.0432713247404281,"89":-0.059957520575319445,"90":-0.03288214227791708,"91":0.11509596917252757,"92":0.049130544430033396,"93":-0.0850516517437712,"94":-0.014046790136968353,"95":-0.048050827164211156,"96":-0.006170660761013056,"97":-0.06385580198379553,"98":0.021029808787516785,"99":0.03346775336837101,"100":-0.018097457231066538,"101":-0.013552457901534658,"102":-0.04268534548159124,"103":-0.0010794752251013593,"104":-0.04939856790103904,"105":0.033727454163655364,"106":-0.016883753200587517,"107":0.013315027129104656,"108":0.01808612041953508,"109":-0.0045012354751912155,"110":0.03542189913819757,"111":0.07280014702599591,"112":-0.005339136975800648,"113":0.02689857658650289,"114":-0.07979373833051023,"115":0.07856714485663538,"116":-0.036948510699169775,"117":0.13114165327452434,"118":-0.03622107624951053,"119":0.04840519221630438,"120":0.05042065213299784,"121":0.01626321522827692,"122":-0.05335830076469857,"123":-0.034145392560049385,"124":-0.015782087328539352,"125":0.01286650775310226,"126":0.020916335544182218,"127":-0.11956253910995751,"128":-0.10203102619045408,"129":0.05005620221888287,"130":0.04768190136305205,"131":0.005535964169797103,"132":0.005641380264459444,"133":0.017222634696513688,"134":0.021116071149562234,"135":-0.03575971941926473,"136":0.02142315959126074,"137":0.029752843447519092,"138":0.007502921870162706,"139":0.024377704758271015,"140":-0.05801048559245425,"141":-0.05857697134012486,"142":0.003464822326258358,"143":-0.05139132362318089,"144":-0.03776141265826734,"145":0.07989103983731992,"146":-0.006946013492923427,"147":-0.09510853936891797,"148":-0.00508676091381947,"149":-0.08912059630546831,"150":-0.03860221513852156,"151":-0.018236961351910465,"152":0.00036118425389466535,"153":-0.04092200139679693,"154":0.09451835677450873,"155":0.12734891485186867,"156":-0.15197583852664373,"157":0.10517507136767695,"158":-0.01000721434488845,"159":0.025389456904504615,"160":-0.006042301511193664,"161":-0.031619303393827486,"162":0.015358761956236672,"163":0.08207688252013902,"164":-0.003562872017717847,"165":0.04864376697390088,"166":-0.09168168841046215,"167":-0.05896670884493897,"168":-0.029962768191604518,"169":0.013242798218918333,"170":-0.0778374853350786,"171":0.009543424650792946,"172":-0.002684845076799906,"173":-0.1381302589153786,"174":0.013585603525820318,"175":0.0008372054865278646,"176":0.026073920064123658,"177":0.06781021801801627,"178":0.10144275043288806,"179":-0.026903989050817638,"180":-0.04101674449722682,"181":0.008330744639237327,"182":-0.07245805081564825,"183":-0.05199691024242826,"184":-0.01779364064006577,"185":0.020730127680781123,"186":0.061699783742335694,"187":0.07310366503568295,"188":-0.03235907783617769,"189":-0.0016289382683389968,"190":-0.05328368918795022,"191":-0.018517417147453398,"192":0.020309523228075974,"193":0.0032694833743370398,"194":0.037858932661772954,"195":-0.10392283854645569,"196":-0.06837791795232703,"197":-0.000337327163928201,"198":0.07547140140165279,"199":-0.09511802636760132,"200":0.09335310653259152,"201":0.04272172519219333,"202":-0.05429269943697813,"203":-0.10363279524859881,"204":-0.04919876300030494,"205":-0.04334857651984825,"206":0.02393020864222534,"207":0.06913137043984834,"208":-0.13930198702400706,"209":-0.010376961546106938,"210":0.04257947803045388,"211":0.070524053399595,"212":0.056070353582614384,"213":-0.06690480969874782,"214":-0.020231473813333525,"215":0.0539558278748998,"216":0.05639855342425683,"217":0.07474704175872647,"218":-0.014838765499865677,"219":-0.03778096446941441,"220":-0.05124568028527224,"221":-0.0616239086965984,"222":0.003731249067109544,"223":0.013642612823073417,"224":0.08101864347724644,"225":-0.006988936667322714,"226":-0.02739493364053653,"227":-0.009583412733469503,"228":-0.017069018262083575,"229":-0.03404377600424915,"230":-0.05248851801538271,"231":-0.0015677691126398524,"232":-0.012716707246415004,"233":0.004821124029307819,"234":-0.06615632718343234,"235":-0.0012164029220821,"236":-0.020594922652508646,"237":0.01845056954900618,"238":0.1366598753412187,"239":-0.05800218389705572,"240":0.008419653045378336,"241":0.02051722158977788,"242":0.009633125798270793,"243":0.009497214569830149,"244":0.13141565807902666,"245":0.008570145227387237,"246":-0.002671443069533483,"247":0.047420503944463954,"248":-0.07123408834853458,"249":0.02220957036685811,"250":0.10127168999526695,"251":0.05948923835089742,"252":-0.025902830460331712,"253":-0.01643080626368668,"254":0.01199188981245578,"255":0.05253479852519369,"256":0.0741194452140139,"257":-0.05649323623807331,"258":0.016673947700735773,"259":0.030354262448102496,"260":-0.013187030234725915,"261":-0.06725502039880457,"262":-0.026654977058670135,"263":0.021860485811548334,"264":-0.030447711840329714,"265":-0.08723270318938942,"266":-0.05116973609528912,"267":0.07468827374683454,"268":0.04191436324469864,"269":-0.0023949098017958105,"270":-0.09316708300129761,"271":0.008082856072321199,"272":-0.02356410474813426,"273":-0.06489660039695137,"274":0.01597521082539167,"275":-0.04183440077282408,"276":-0.010299039712171809,"277":-0.04051237477802016,"278":0.06513424988774144,"279":-0.017550156265237937,"280":-0.0006919040188524258,"281":0.004708508563600145,"282":0.062225528035719756,"283":-0.03605226556724636,"284":-0.04666343621295918,"285":-0.0007320074920004437,"286":0.04257294567338249,"287":-0.1033416360722694,"288":-0.006466112065174192,"289":-0.007155376421283282,"290":-0.0530817045443323,"291":0.045745977654316226,"292":-0.06918084519463207,"293":-0.02696771578157958,"294":-0.0018532517442702684,"295":-0.04753611780439795,"296":-0.07914161150478237,"297":-0.09258063600359814,"298":-0.0034824967482586793,"299":0.06262391695951594,"300":-0.017257317347041782,"301":-0.006580716036863068,"302":-0.013942971410330067,"303":-0.09232080593977592,"304":-0.022825345908757306,"305":-0.02474125541210182,"306":0.032876456820722266,"307":-0.06463926119442354,"308":0.11806486614782533,"309":0.006629445679428635,"310":-0.03462720100873413,"311":0.024045917871757798,"312":-0.059987837389526025,"313":-0.00014405352005493477,"314":0.025489374844827817,"315":0.04153846501886534,"316":0.08024445001450052,"317":-0.028810683767705524,"318":-0.024222415442202563,"319":-0.022716804718813658,"320":0.0783204394034459,"321":0.057319727600344005,"322":0.007123711299966706,"323":-0.03514159475630956,"324":-0.011865142829614728,"325":0.019594782571233198,"326":0.05870117532369335,"327":-0.049942905607303335,"328":-0.07789082737802923,"329":0.04996732876073854,"330":0.0661401824685709,"331":0.033130815718273005,"332":-0.012564523680220964,"333":-0.008213764784194513,"334":0.02621723296473137,"335":0.017934570594969678,"336":-0.03317443138338661,"337":0.025099855779805957,"338":-0.012563094000358389,"339":0.03797256188666146,"340":-0.046242566830058056,"341":-0.07611014552174086,"342":-0.02897850827880289,"343":0.029664208445623338,"344":0.07646795405708158,"345":-0.09291983468980736,"346":0.013941570975784044,"347":0.02000697782166923,"348":-0.019302288970673886,"349":0.054900708963814805,"350":-0.048610941196053054,"351":-0.03782673384981308,"352":-0.0031202642838694585,"353":-0.05081280509622157,"354":0.04283651458257874,"355":0.03805912832455319,"356":-0.045314706144982876,"357":-0.0395192767912441,"358":-0.013521168897146971,"359":-0.06672047857573125,"360":-0.014349662043282294,"361":0.0431515405340111,"362":-0.006012104467782038,"363":-0.028148934531770167,"364":-0.021869212727653315,"365":-0.11026343481508077,"366":-0.0634776662902595,"367":-0.1059493341080235,"368":-0.056382544698607526,"369":-0.014608841171841408,"370":0.009953619749762216,"371":-0.1176067460372462,"372":-0.05974990521898462,"373":-0.010929574330765955,"374":0.04156807240842968,"375":0.010664210841183595,"376":0.07419354302432626,"377":-0.005982254318772536,"378":-0.09433375996654855,"379":0.06675384877796767,"380":-0.06746066287675455,"381":0.04004080500128963,"382":-0.02759076721276248,"383":0.03330391078115853,"384":0.02606865896179472,"385":0.02062466207157539,"386":0.026276789596752916,"387":-0.01754230769823059,"388":0.006931750474077782,"389":0.06419261240251525,"390":0.0430934542868428,"391":0.059304462830264935,"392":-0.08087031553306857,"393":-0.06260039523229069,"394":-0.027928009702228557,"395":-0.11539507037193847,"396":-0.042224778521012654,"397":0.0695621711347284,"398":-0.06128007671703944,"399":-0.020800345778243037}},{"sx":5,"sy":5,"depth":16,"w":{"0":0.0010475537716843298,"1":-0.05002948934175527,"2":0.07576349711339314,"3":-0.03302929374462545,"4":-0.018017898814895735,"5":0.02336068597914215,"6":-0.00958257486537734,"7":0.006543063694944171,"8":0.04660122255030812,"9":-0.027809312760665953,"10":-0.02801139989378724,"11":-0.013405044577345654,"12":0.008272851481289922,"13":-0.007093985647113126,"14":-0.014912916717603105,"15":0.04126887723363909,"16":0.01819415636362908,"17":0.047536328723656956,"18":-0.012874728403027568,"19":0.08548709041711162,"20":-0.07305168651133066,"21":-0.02611121927333745,"22":0.03730677000770444,"23":-0.010999616572516012,"24":-0.05835362523612185,"25":0.00835789482013092,"26":-0.008830310763786115,"27":0.007130643805027531,"28":-0.02981052634368262,"29":0.022281166272845022,"30":0.025620057048076895,"31":-0.012366143545432497,"32":-0.020119665442061733,"33":0.10587784869027204,"34":-0.054637889214321736,"35":-0.019452735439516138,"36":-0.01858967348005159,"37":0.0830113983270986,"38":0.11816536821149456,"39":0.005562321776879476,"40":0.0060042969130693945,"41":-0.0177317465707322,"42":-0.04510996861770789,"43":-0.061213172422042314,"44":0.017146424784384016,"45":-0.11765286088585375,"46":-0.025020871121235567,"47":-0.04037773128800945,"48":-0.06785856914439548,"49":-0.09485996646281464,"50":0.03507406121745132,"51":0.016599105604595158,"52":-0.035548004580610956,"53":-0.012871236825622443,"54":-0.03627587879755108,"55":-0.04530339436255468,"56":-0.010337401189139058,"57":-0.042560375829528777,"58":-0.037530198221510366,"59":-0.04113163574416678,"60":-0.045944857602394994,"61":-0.02923793890096074,"62":-0.04040201291201616,"63":0.013073647347890072,"64":0.028423572906393378,"65":-0.1126381921021203,"66":-0.022414637571524575,"67":0.055595981055378496,"68":0.0031202732949386688,"69":-0.04608694087735196,"70":-0.10666611462391641,"71":-0.01405871692071205,"72":-0.05969357108943695,"73":-0.11675674497430158,"74":-0.034364567334700766,"75":-0.05631878902703653,"76":-0.013839263734294269,"77":0.016870919638416942,"78":0.020525925795714862,"79":-0.0014603127618278006,"80":-0.08273079210035106,"81":0.03594207819677303,"82":0.022994276004566966,"83":0.05204795257512737,"84":0.022876614368325682,"85":0.06575014949305583,"86":0.010120817108756295,"87":-0.0037782525193068087,"88":-0.08751930636226149,"89":-0.029210666620703665,"90":-0.07463244286571878,"91":-0.04368606844246723,"92":0.026023798973668875,"93":0.06974425747199221,"94":0.03280484983710645,"95":0.06741000507888442,"96":-0.05571719685337449,"97":0.03765323558776314,"98":0.03794955940187096,"99":0.006905287107876373,"100":-0.030249448921390663,"101":-0.10361810208048541,"102":0.07300397065384637,"103":-0.1077540041997324,"104":0.005118069716402297,"105":-0.05024315361843883,"106":0.03496668983805008,"107":-0.07025123623498927,"108":-0.12589122744883263,"109":-0.02366781618597185,"110":-0.05439030939701339,"111":0.056564803153840756,"112":-0.012587878017026079,"113":0.06597336513274044,"114":-0.003942150340878574,"115":-0.031834715344931694,"116":-0.00880108322446534,"117":0.03194235921409175,"118":-0.0028254719456747134,"119":-0.010881474977931054,"120":0.1417527138400854,"121":0.05506999184838874,"122":0.014710385802682888,"123":0.018155891617292915,"124":0.016731175581082024,"125":0.052030468212903025,"126":0.0161152160077959,"127":-0.03446745487539843,"128":0.06074301443017428,"129":0.04975736900266546,"130":0.014123589516678539,"131":-0.10055982155816853,"132":0.05525275286782019,"133":-0.04125127228632042,"134":0.03862946930295305,"135":-0.01076767317306723,"136":-0.027125558579006843,"137":0.05477945709963779,"138":0.038985738447709174,"139":-0.10148993485636754,"140":-0.10462477327041257,"141":-0.07781736967831317,"142":0.02739845234749914,"143":-0.0769566640706059,"144":0.029262004071332493,"145":0.07189575423171153,"146":-0.053244024430934324,"147":-0.053697244258358846,"148":0.03410791627941343,"149":0.02698546704339585,"150":0.06627858597492532,"151":-0.04270757747939075,"152":0.05835045901092113,"153":0.004622659602802202,"154":0.1025209278703618,"155":0.10435335569649036,"156":-0.055780204293937506,"157":0.013894582999000211,"158":-0.014038666821975514,"159":0.08488830705340106,"160":0.01251484758526227,"161":-0.035224842011282134,"162":-0.07322602242575062,"163":-0.054737071627335446,"164":-0.004176073410043253,"165":0.03142310188179668,"166":-0.047496334927403946,"167":0.03398115288169514,"168":-0.009111316979705339,"169":-0.03162597817360429,"170":0.027764666018827707,"171":-0.08684861574701556,"172":0.08441406289134881,"173":-0.018213620349684528,"174":-0.006770713823649133,"175":-0.07127985792991923,"176":0.01770517367020355,"177":-0.06937933755855295,"178":0.008977611965616836,"179":0.014955294109101055,"180":0.026637223651436087,"181":-0.015962382808911192,"182":0.046349347865480756,"183":0.005447047918588603,"184":0.004051826784575854,"185":-0.021072361987171394,"186":0.035524539305211225,"187":0.00872859932803958,"188":0.09762138560993232,"189":0.07640472394548094,"190":0.05945868192010029,"191":-0.04479816910639303,"192":-0.04229074094749688,"193":-0.07715353633858614,"194":-0.04612695801610933,"195":-0.005061779032602968,"196":0.009854089041865579,"197":-0.02903609494503407,"198":0.06855582997542678,"199":0.05060804286988076,"200":-0.027155898620373823,"201":0.10128061439924196,"202":0.03254521266649362,"203":0.022431251020999247,"204":-0.005706667368817422,"205":-0.030616201314217373,"206":-0.006176088357167692,"207":-0.023669461881212432,"208":0.02796428618279541,"209":-0.017805878784930406,"210":-0.04542019924291902,"211":-0.01499636518529789,"212":-0.03683375829992371,"213":-0.049396104141972326,"214":0.0477306034847976,"215":0.027516447669953387,"216":-0.0552317711871872,"217":-0.07598393876965187,"218":0.010526390266078912,"219":0.03887626534442075,"220":-0.03304367479588738,"221":0.06042133841957308,"222":-0.007310723950493519,"223":0.045622489453095445,"224":-0.06433481179833478,"225":-0.007859964545459784,"226":-0.003472225432127255,"227":0.043967533043888736,"228":-0.04131869435499233,"229":0.05757855776272758,"230":0.04834281356852709,"231":-0.042662524531425536,"232":-0.0566623517287945,"233":-0.08172966862636157,"234":-0.029242318695698176,"235":0.023697555791314176,"236":0.0017662211145777753,"237":0.025736091383152433,"238":0.025931859801424983,"239":-0.05677262242851465,"240":0.02589297042552774,"241":0.040050377127402434,"242":0.0224485054450695,"243":0.03592731587470188,"244":-0.026205600191967198,"245":-0.03686898139510394,"246":-0.07827293288929502,"247":-0.04353270275529291,"248":-0.11376129686935524,"249":-0.02630147909499434,"250":0.010659712647318319,"251":0.0030566064105888987,"252":0.04751311807258925,"253":0.07427087050048642,"254":-0.004252428370581529,"255":-0.028152791168542572,"256":-0.04046463045462003,"257":-0.040024036982902494,"258":-0.01739082577110811,"259":-0.02522254445326476,"260":-0.0441046587669009,"261":0.039773403983970154,"262":0.1287303865141552,"263":-0.027422949950841814,"264":-0.0035450990158703835,"265":0.006144573538925902,"266":0.06911957240882417,"267":-0.02604131372613564,"268":-0.08622783506315217,"269":-0.04790495842977677,"270":-0.008621102892184393,"271":0.025007571933299944,"272":-0.07307142622051577,"273":0.0066712167552614495,"274":-0.01061993839830186,"275":-0.015357170945372662,"276":0.06071148339403937,"277":0.0011565872173931874,"278":-0.038907893578684176,"279":0.011913163614289613,"280":0.023845917949072225,"281":-0.07831034045583339,"282":-0.05529694817321964,"283":-0.004111223098740963,"284":-0.0802299765864459,"285":-0.02283191338922713,"286":0.08150177677142584,"287":0.08055732386146916,"288":-0.0824172379641483,"289":-0.06924668069548899,"290":-0.06497688517223141,"291":0.06287972479691929,"292":0.004278753700329643,"293":-0.048189980788944,"294":-0.07939336022824413,"295":-0.0017213402730020637,"296":0.020341257762355007,"297":-0.05215929542945526,"298":0.0172655547407108,"299":-0.05856594551161708,"300":0.011437626502930502,"301":0.01911704355845275,"302":0.04213096575222697,"303":0.040430233587401915,"304":0.04039624876447471,"305":-0.01774082026971968,"306":-0.029319023094087175,"307":-0.06587566654698453,"308":0.05908895944647924,"309":0.0073792309357575935,"310":-0.05745585488922979,"311":-0.03957993329176843,"312":0.028058777201911203,"313":0.01233489037361795,"314":-0.026140155737290866,"315":-0.056633365846439104,"316":0.022528244067718292,"317":-0.0006378823394857947,"318":-0.04811815878824703,"319":0.08014414230056857,"320":0.009688391482487959,"321":-0.04833091934838353,"322":-0.044950006165283066,"323":0.024956030934399805,"324":-0.029668260283954005,"325":-0.0014759193723367786,"326":0.013803342740301674,"327":-0.08143257546430577,"328":0.017784068214746138,"329":-0.020022055188498075,"330":-0.0752691024174716,"331":0.03874789509247837,"332":-0.07391800868169016,"333":0.009136898188996916,"334":-0.06117324620957473,"335":0.030935502362182458,"336":0.07530454672447856,"337":0.008151946982071298,"338":0.05906269491047996,"339":0.05532345485315182,"340":-0.02850760221360395,"341":-0.06290648046068378,"342":-0.006798367421316105,"343":0.005132851980521159,"344":0.02202123163457667,"345":-0.06634071028722573,"346":-0.11814253654199444,"347":0.020468763679272202,"348":-0.014216600930359811,"349":-0.021574273694307994,"350":-0.008905430741974422,"351":-0.020577820526740804,"352":0.038200508426490434,"353":0.10116111527703688,"354":-0.026934367218204983,"355":0.041602065357790395,"356":-0.09832097410825236,"357":-0.016691106264460687,"358":0.03605502461541799,"359":0.009632967749185827,"360":-0.03616640113288448,"361":0.05448457761218695,"362":-0.00740143113494151,"363":0.022332155226769793,"364":0.007203194948361374,"365":0.008161332738383358,"366":-0.004014578550330998,"367":-0.019162580170461338,"368":-0.01796716853069724,"369":0.07041503789732022,"370":0.004850364676238238,"371":0.11846325366294805,"372":0.07183574382591093,"373":0.003386110477862396,"374":0.02466765201076837,"375":0.035393200423514015,"376":0.024854695767997363,"377":0.0026376105349916173,"378":-0.16256567652125437,"379":0.00866347843640892,"380":0.08133467985312297,"381":-0.040691221644254635,"382":0.00947379995309277,"383":0.04266667925415363,"384":-0.025406982999264506,"385":-0.01767441778393479,"386":-0.008621270932266289,"387":0.03148784420152875,"388":0.027501701486108768,"389":0.04775271900236547,"390":-0.006661192065269746,"391":-0.07730146830040227,"392":-0.02595816980056129,"393":-0.042723288526867735,"394":0.006409527327819351,"395":0.013022230390134351,"396":-0.021067567228545584,"397":-0.11949318450241386,"398":-0.07054819390419852,"399":-0.09802111947266409}},{"sx":5,"sy":5,"depth":16,"w":{"0":0.01099360082242539,"1":0.10332826533378273,"2":-0.007873547352960378,"3":-0.0536152586393379,"4":0.027380579507925495,"5":-0.05710556776870483,"6":-0.03959451039752402,"7":-0.08194236318457036,"8":-0.01685439981705678,"9":0.02541275768640678,"10":-0.009227638842158943,"11":-0.03491481118251513,"12":-0.022786261140774883,"13":0.0033972900772007136,"14":-0.05488495665090277,"15":0.013452293475322175,"16":-0.056100674813632616,"17":-0.03998316552282194,"18":0.058658240588511594,"19":-0.0210126763927402,"20":0.0703967317706493,"21":-0.0630453193592454,"22":-0.000453454934125486,"23":-0.055921362948208014,"24":-0.06357810330851668,"25":0.07424857794302583,"26":-0.06890771540182057,"27":-0.04144537389931346,"28":-0.06863105485885826,"29":-0.012995205070312325,"30":-0.02724670580847024,"31":0.08174940983801371,"32":0.037026277747195906,"33":-0.01020645919316724,"34":0.024059415925624827,"35":-0.06892254539993793,"36":0.011151703248294318,"37":-0.06802943092593265,"38":0.014838436553593968,"39":-0.061769944482921134,"40":-0.038008691941300236,"41":-0.00014810316867976646,"42":-0.025643171786350883,"43":-0.059032156380669866,"44":-0.053733161595754544,"45":0.017909822218223112,"46":-0.07145622797370833,"47":-0.016225312225989524,"48":-0.052736358126181965,"49":0.06736971867652838,"50":-0.00731401781174047,"51":0.019682653496989284,"52":-0.05294412285187685,"53":0.01989473607773137,"54":0.016925747463589574,"55":-0.054716584716337634,"56":-0.04710705649261739,"57":-0.001485511001650659,"58":0.003937714625233793,"59":-0.028520350604181698,"60":0.010017584453628776,"61":0.013525033838365664,"62":0.010447536206825925,"63":-0.03273760821801049,"64":-0.013992253879893113,"65":-0.02897713273891891,"66":-0.07761483233058104,"67":0.026274557147056597,"68":-0.049860236172480976,"69":-0.014131545598516943,"70":0.0337015843753818,"71":0.01669440657205775,"72":0.07087105261416396,"73":0.012287815287275069,"74":0.03745825200561921,"75":-0.02271022417963461,"76":-0.015038241316727157,"77":-0.02998821838788497,"78":0.010821674526421344,"79":-0.0370853242576576,"80":-0.0029167187758029458,"81":0.013716965257223905,"82":-0.018136685526323307,"83":0.028708470140882084,"84":-0.01391917967661241,"85":-0.028811966789182457,"86":-0.012374682163287758,"87":0.04066102055538692,"88":0.020771089573217896,"89":0.03352816933466535,"90":-0.006774618758735198,"91":0.04611272564188145,"92":0.017087353855107595,"93":0.06966917015818981,"94":0.010061205431388963,"95":-0.05603202190795148,"96":-0.09902310889551007,"97":-0.03544303293474073,"98":0.0011916033583945548,"99":-0.03352690052654346,"100":-0.050803965777972825,"101":-0.0034081380347424813,"102":-0.06950941539896291,"103":-0.05842499270500848,"104":0.011340162969897118,"105":0.11858818753254355,"106":0.04533584013647969,"107":0.05341584177092144,"108":-0.03183523080366231,"109":0.05015947447988903,"110":-0.09269725289683609,"111":0.014860911526253025,"112":0.07167303662516643,"113":-0.11637386282854091,"114":0.05322987334891293,"115":0.0301594645739866,"116":0.04496813330263562,"117":-0.04094628779314334,"118":-0.08745499337885454,"119":-0.0534865856920059,"120":0.028711667925541477,"121":-0.04564702542068779,"122":-0.038386779545422835,"123":-0.09189629558385576,"124":0.011209183918715362,"125":-0.0051858138172297605,"126":-0.008422708233451266,"127":0.12608640824361986,"128":0.04714965846413855,"129":-0.07937568680336765,"130":0.08882933864879247,"131":-0.04182070626369571,"132":-0.07584250738844542,"133":0.040565533755254936,"134":0.03705946084664125,"135":0.054373777881233515,"136":0.04592325575483378,"137":0.004345204157897282,"138":0.027305018409604684,"139":0.0644319936412739,"140":0.07133940064230998,"141":-0.056048646903720335,"142":-0.018935356855585558,