{"layers":[{"out_depth":3,"out_sx":32,"out_sy":32,"layer_type":"input"},{"sx":5,"sy":5,"stride":1,"in_depth":3,"out_depth":16,"out_sx":32,"out_sy":32,"layer_type":"conv","l1_decay_mul":0,"l2_decay_mul":1,"pad":2,"filters":[{"sx":5,"sy":5,"depth":3,"w":{"0":0.10599905437988827,"1":0.08743370016932138,"2":0.14517225552766158,"3":-0.1251689271316781,"4":0.08680675145776184,"5":-0.05764006102773421,"6":0.004154003324191024,"7":-0.04024355118081865,"8":0.131328744172303,"9":0.06630583365538341,"10":0.021837875413815305,"11":0.18340594003182822,"12":-0.08218927673280237,"13":-0.06848228355720308,"14":0.07482673266008284,"15":0.19367798848508272,"16":0.1398085682302789,"17":0.020505289291996,"18":0.020003018007307007,"19":-0.15216982055094325,"20":-0.06443260095430632,"21":0.15704639480290244,"22":-0.05162958868857255,"23":0.1540616832896001,"24":-0.16908320937249563,"25":-0.05418773285653444,"26":-0.04154874520787792,"27":-0.028580559912078078,"28":0.3134948688987474,"29":-0.10793763455355611,"30":-0.18524241097966906,"31":-0.0877809836527024,"32":0.013107312053085216,"33":0.06742915269287013,"34":-0.042757659765380006,"35":0.03474926157063794,"36":-0.1029118571591546,"37":-0.1539811231582126,"38":0.04511136202952885,"39":-0.10275867531862319,"40":0.15205112133562282,"41":0.022797275994734828,"42":-0.047518187854115365,"43":0.11779589329757202,"44":-0.007844649833620541,"45":-0.12896476052477998,"46":0.005381222059387326,"47":0.1628970738950734,"48":0.0884706109281486,"49":0.08956858258378646,"50":0.25110497014497524,"51":-0.12303467531975791,"52":0.09408066775387444,"53":0.05574109186518467,"54":0.08358045237493074,"55":0.12347285401871225,"56":0.09768166346423093,"57":0.007127355881560105,"58":0.04953004705196295,"59":0.23382345404039642,"60":0.11135100825738553,"61":-0.20057954962543764,"62":-0.03168525077117862,"63":0.22326678527265148,"64":-0.03463726718591818,"65":-0.01712416340125883,"66":0.12035390078987482,"67":-0.03768442993042115,"68":0.1813754887271464,"69":0.0031021483628187858,"70":0.08848055158137923,"71":-0.054207064258079286,"72":-0.20168593530494172,"73":-0.149205748213026,"74":0.1351574261813516}},{"sx":5,"sy":5,"depth":3,"w":{"0":0.03746329673639057,"1":-0.07439131459032701,"2":-0.1266625233547068,"3":0.00293418488906422,"4":0.16141607812037498,"5":0.1732154478097678,"6":-0.0499011476283712,"7":0.017274416819400673,"8":-0.08506803901274289,"9":0.11279317584019882,"10":-0.2711505804898637,"11":0.020756657842220118,"12":-0.006195725461127884,"13":-0.16942976183189587,"14":-0.07184279004919726,"15":-0.027856218850575445,"16":0.05036884987123431,"17":0.001023672797038689,"18":0.18338460589755576,"19":-0.07050849992404425,"20":-0.24139635918087568,"21":0.05800610748291308,"22":0.031064969425344435,"23":0.031582208498938,"24":-0.02809921256038504,"25":-0.0026563761191751183,"26":0.11274678877053379,"27":-0.03279223946926124,"28":0.04907270750629832,"29":-0.03243749891847771,"30":0.11866870785562313,"31":-0.05985297555235656,"32":0.06701770841615912,"33":0.19076808869719714,"34":0.08381310366727993,"35":0.02646017011246176,"36":0.014885415363291342,"37":-0.06663525497491118,"38":0.06865190521076193,"39":-0.12000321104016035,"40":0.16887977134025486,"41":0.1545214705977822,"42":-0.06608819173404054,"43":0.036053614861500695,"44":-0.013246583516149482,"45":0.1124217693197047,"46":0.12060429304584508,"47":0.06528913590942674,"48":-0.007941574296538495,"49":-0.03817986529682209,"50":-0.06233726258584825,"51":-0.030195209410439988,"52":-0.10170222500723812,"53":0.07320802013192287,"54":0.02274486715337977,"55":0.015089227612088665,"56":-0.037738380764835266,"57":0.09346258628241663,"58":0.06850038700983675,"59":0.29118082299429454,"60":0.08229997232694351,"61":-0.03313264372130535,"62":0.022600828167555688,"63":-0.17375633419943307,"64":0.037479785919251614,"65":0.03574940530569243,"66":-0.053345208072631906,"67":0.0788672679119653,"68":0.07027500857040139,"69":0.1424544184333701,"70":0.2553033311400705,"71":-0.03457258875368484,"72":0.22479198817625834,"73":-0.15176495076142363,"74":-0.05425307825294897}},{"sx":5,"sy":5,"depth":3,"w":{"0":-0.026047512358022155,"1":-0.12173734041765613,"2":0.24040068704910483,"3":0.138203299047239,"4":-0.06865776583352297,"5":-0.36525954646517567,"6":-0.01140330223138888,"7":-0.03715527488537851,"8":-0.20412282715923039,"9":-0.00002227941248357122,"10":-0.07940325171646474,"11":-0.11510327097078953,"12":0.017095808125116498,"13":-0.07920610621139718,"14":-0.19207780403671892,"15":0.03883399399816818,"16":0.12404934138807282,"17":0.15894104528518135,"18":0.01628875108791002,"19":0.014254782465631942,"20":-0.1538806149828457,"21":0.20020185766824428,"22":0.14185174574476417,"23":0.03877383897754191,"24":-0.08223042557101848,"25":0.13022849509811762,"26":-0.11122658729129431,"27":0.03340157592204812,"28":0.09035878652878358,"29":0.09176319581055058,"30":-0.12324198675450189,"31":0.04232570247125745,"32":-0.19305304374659502,"33":-0.16099266507628315,"34":0.03339883324985091,"35":0.08515838693719206,"36":0.057784556978081554,"37":0.1516730722320954,"38":-0.058507806638559895,"39":0.041459107745355855,"40":-0.0485025774394921,"41":-0.034715141179789084,"42":0.12191445095691543,"43":-0.01937353236526635,"44":-0.08160024559459135,"45":0.022318216071527924,"46":0.045460501258741196,"47":0.08731816599201982,"48":0.018103217328797362,"49":-0.024965095334410978,"50":-0.17095276824340475,"51":0.056796495723685475,"52":-0.11008135537443084,"53":0.11562872089327479,"54":-0.007367198232098203,"55":0.1351087941801438,"56":0.06668573138495217,"57":0.10860695708289211,"58":-0.029272010127164856,"59":0.14490464784563264,"60":0.058192450510795045,"61":-0.15854291956794778,"62":0.005811000498718799,"63":0.10822544634902244,"64":-0.09145520473739804,"65":0.04419603245952757,"66":-0.18238731399468938,"67":0.26976946109513794,"68":-0.11906625966687368,"69":0.025937959393309305,"70":-0.016623833858026876,"71":0.14128914577338386,"72":-0.05713912640067425,"73":0.05216318132705368,"74":-0.07932387505299172}},{"sx":5,"sy":5,"depth":3,"w":{"0":-0.04263282829314297,"1":0.05299713157358263,"2":0.06282850072548642,"3":-0.019768750821192848,"4":-0.03144269612981803,"5":-0.01177270841305743,"6":0.17417156530286115,"7":0.09723703256906409,"8":-0.08294288844650612,"9":0.03376749361365608,"10":0.033398162270503955,"11":0.10093164496323266,"12":0.021865570177299454,"13":-0.039247982737150924,"14":0.06141052105713584,"15":-0.013157557892063524,"16":0.08440136133344853,"17":0.05108876046448468,"18":0.006665801762211841,"19":-0.011813563000679001,"20":-0.008990170672199371,"21":-0.09273996350815272,"22":-0.13106432955743855,"23":0.0685353632416392,"24":-0.12839139546321174,"25":-0.055421832253072734,"26":-0.0933434676339451,"27":-0.14721177006121383,"28":0.00026493391124498156,"29":-0.012898687271095853,"30":-0.06937701162087924,"31":-0.07573730884463496,"32":0.07155634456895656,"33":0.05023820707647382,"34":0.06749036222563698,"35":-0.0027484298619982923,"36":-0.25813847309228233,"37":0.030485775975953443,"38":-0.20024721523053118,"39":-0.16306211954751884,"40":-0.08932207127581177,"41":-0.04336640999196051,"42":-0.0007772739105656014,"43":-0.2636389361760927,"44":0.09599969616929427,"45":0.12404731411826864,"46":-0.10143578958407107,"47":-0.005569783069092066,"48":-0.039602114829805135,"49":0.11754861695090818,"50":-0.03036665022459666,"51":0.10799639358698127,"52":0.0025396514944844026,"53":0.08915669217384097,"54":-0.10071104558094614,"55":0.035080950469920415,"56":-0.09092534378077233,"57":0.033175119471962965,"58":-0.2369627101941541,"59":0.2149469167188854,"60":-0.22048615945462705,"61":0.006773390235136563,"62":-0.022040538080502006,"63":0.06130799236259867,"64":0.012327827996313045,"65":0.10231527899371277,"66":-0.07152288245373449,"67":0.011224535367175275,"68":-0.11593698659373664,"69":-0.20216228497878533,"70":0.08304573194557725,"71":-0.018975735464355742,"72":-0.015394498530352761,"73":0.09275950272095485,"74":-0.01851654456479043}},{"sx":5,"sy":5,"depth":3,"w":{"0":-0.14394167656469936,"1":-0.16887496803546476,"2":-0.0606996963348765,"3":-0.05230349302106681,"4":-0.018872938271314678,"5":0.12642400762964068,"6":-0.03427856673552182,"7":-0.03824276239438787,"8":0.0755802516606515,"9":-0.05994161749295778,"10":-0.0031690480157724916,"11":-0.13533282180563577,"12":0.07033117765902061,"13":0.01642187990243575,"14":-0.191899750506542,"15":0.030569923830197167,"16":-0.0026558804490300486,"17":-0.07832132429001298,"18":-0.148809057787855,"19":-0.0620669197380325,"20":0.1419827918950354,"21":0.22970184418136716,"22":-0.10294476100528407,"23":0.005737898099090415,"24":0.021846704959864245,"25":-0.03495607099454953,"26":-0.2042710920023608,"27":-0.01400333572427286,"28":0.13529035356934155,"29":-0.12288103689584347,"30":0.16861851165976066,"31":-0.05544246956898429,"32":-0.011215622433281964,"33":-0.09741225572038614,"34":-0.0034844598058746635,"35":0.0071256952455827065,"36":0.10287087803647917,"37":0.05861826405737077,"38":0.011822355074538925,"39":0.01814803339374472,"40":0.23592244545281577,"41":0.039942804868506654,"42":0.04812650980960181,"43":-0.10901379910382214,"44":0.10752587875264696,"45":-0.007334353943109739,"46":0.02407370444960214,"47":-0.140812720208506,"48":-0.014100227296803427,"49":0.07804815706668934,"50":-0.14728164018976347,"51":0.1793605825428632,"52":-0.023286088734237216,"53":0.10243086230267881,"54":-0.09743773277336132,"55":0.028451872832348953,"56":0.19198149029508774,"57":0.07728808137540777,"58":-0.06914051644421519,"59":0.004810500223610915,"60":-0.03462342672038256,"61":0.059524823658547055,"62":0.05827815314816367,"63":0.05647432996862806,"64":0.010358949337551496,"65":0.012761002404661312,"66":-0.0074297468875059525,"67":0.07780855164833214,"68":0.1051747698937536,"69":0.05478075255709836,"70":0.2710483921604406,"71":0.03077066068256662,"72":0.04276529385072041,"73":0.037483569509208635,"74":-0.16588367883636512}},{"sx":5,"sy":5,"depth":3,"w":{"0":-0.018817571228158338,"1":0.09294108683604925,"2":0.013249868514225884,"3":0.016379578648677444,"4":-0.0908771950094364,"5":-0.0249994279144168,"6":0.02008575174619167,"7":0.12206241579353415,"8":0.1465931992337413,"9":-0.11938599363109693,"10":0.09530700652068737,"11":-0.04330845449556191,"12":-0.09904011817941201,"13":0.03059869121610064,"14":0.15391083426180024,"15":-0.13684832511563208,"16":0.02020737431258262,"17":-0.22803907002354298,"18":-0.14869951142787594,"19":0.14080124947624256,"20":0.11896773474415939,"21":0.28081579496128034,"22":-0.13727223081075196,"23":0.017421588283042758,"24":-0.1445914336999195,"25":0.07245395675410456,"26":-0.045030605391807275,"27":0.02330163940274567,"28":0.0491791194937544,"29":-0.021280482425450324,"30":-0.015844433296613426,"31":0.07351937653398383,"32":0.07983118377764739,"33":0.19932924279462913,"34":-0.13349609752814554,"35":-0.03843590515543224,"36":-0.10999863846428673,"37":-0.04387196371086229,"38":0.09371611573254693,"39":-0.0025509147459712197,"40":0.052078692522215385,"41":-0.08724227208114098,"42":-0.10383368044803279,"43":-0.09413723036972521,"44":-0.041857882368123746,"45":0.15652369121930337,"46":-0.055386111900138875,"47":-0.05947476971924768,"48":0.04583120181512058,"49":0.0016930276893862802,"50":0.11119256374255454,"51":0.0932589771710475,"52":0.12714283819293598,"53":0.031119341602047663,"54":0.11304587555532083,"55":-0.23450052929914947,"56":-0.07654832000528794,"57":0.01243352358388045,"58":0.06122948878553356,"59":0.18396760025077727,"60":-0.14390062120470493,"61":0.08096186811340411,"62":0.02760716485274796,"63":-0.09265053454560665,"64":-0.029142139300141152,"65":-0.05935976031971397,"66":0.1617962829189714,"67":-0.04012763231660505,"68":0.1753405518038258,"69":0.04467887165135703,"70":0.16741388061804272,"71":-0.037849339410850245,"72":-0.16254834655192452,"73":-0.18056091765461116,"74":0.05806206764626545}},{"sx":5,"sy":5,"depth":3,"w":{"0":0.03459732978501357,"1":-0.15165744044034393,"2":-0.028219387826053145,"3":0.10972741613592717,"4":0.012395804527538563,"5":0.03998886715025758,"6":-0.12119346654483137,"7":0.06957391151338636,"8":0.10477646370939296,"9":-0.058024228966828274,"10":-0.23566753531095735,"11":0.1657670839545683,"12":0.09539982197779663,"13":-0.008378201731417397,"14":-0.08083139419751766,"15":0.038381838983194805,"16":0.016844459172764024,"17":-0.1274218840099885,"18":0.01968598157228649,"19":-0.06759908899504773,"20":-0.04141401021172797,"21":0.048790328171996876,"22":0.0006267217933794973,"23":-0.01113524025383972,"24":0.19062850776284748,"25":-0.020146830683965666,"26":0.0022015532224570343,"27":0.0450629841469535,"28":0.16517213633364722,"29":0.09643075595512128,"30":0.044370796883307986,"31":0.040441933799717826,"32":-0.03165297255610801,"33":0.063366540040637,"34":-0.10561803868359143,"35":-0.1760655244168442,"36":0.08773162115167493,"37":-0.15036666445920516,"38":0.13721078224415964,"39":-0.015133406225674618,"40":-0.12214011950972652,"41":-0.07658527002135783,"42":-0.10853100647289315,"43":-0.006518320766597972,"44":-0.02961838767249529,"45":-0.08645827688899752,"46":-0.12502880788219825,"47":-0.09213373494039091,"48":-0.04288968738546705,"49":0.16077916021261135,"50":0.06404229422892913,"51":-0.055816902403316514,"52":-0.0535550545247405,"53":0.2044149458574798,"54":0.19890280674785754,"55":-0.027808449861429715,"56":0.19129833959991233,"57":0.14145865494315096,"58":-0.13024829116094966,"59":0.01937589141607613,"60":-0.16203383363757354,"61":0.0370005417419165,"62":-0.014232906482522577,"63":-0.020515737034173136,"64":-0.12102745707772568,"65":0.10707007161045944,"66":-0.032987363381567235,"67":-0.01191904374537013,"68":-0.028084014967462694,"69":-0.12891707425827006,"70":0.13333826684699596,"71":-0.07224561018766523,"72":0.13175070638615252,"73":0.09358046141728443,"74":-0.028032196982353087}},{"sx":5,"sy":5,"depth":3,"w":{"0":0.0429429610210033,"1":-0.11828496272732224,"2":0.09463242708284204,"3":-0.08214563504105075,"4":0.06608867478607032,"5":0.2385815265864545,"6":0.03817006615054335,"7":0.012576944272550917,"8":0.05601413483120485,"9":0.1627111168649954,"10":-0.217694728344949,"11":-0.04781176217143985,"12":-0.167060922353718,"13":0.23475423193245454,"14":0.11986995391557244,"15":0.18734899005111055,"16":-0.02127756535569647,"17":0.13008513537264446,"18":-0.08163980630096179,"19":0.037804882283783744,"20":0.030578239441239153,"21":0.040461205055694685,"22":-0.06714723587040224,"23":-0.06862297811534054,"24":0.09589734155529966,"25":-0.03816939997428659,"26":0.19986166548724274,"27":0.18443376360006347,"28":0.2588666033233501,"29":0.03939774260015722,"30":-0.010134516403062566,"31":-0.19895906406940836,"32":0.21011669151018147,"33":0.2599404531114565,"34":-0.03010577358806222,"35":0.051302541202786225,"36":0.173373078472918,"37":0.254077022352471,"38":0.19389615082079958,"39":-0.0985838771132933,"40":0.1292051729416736,"41":-0.041489370154999865,"42":0.009747086012167233,"43":-0.08764094984274111,"44":-0.010410293088656012,"45":0.1939208389882135,"46":0.04521099747563677,"47":-0.029537225424601844,"48":0.11520530445159942,"49":-0.08358943864113551,"50":-0.02852760727837842,"51":0.13230120372125231,"52":-0.16982373962451208,"53":0.02548790633353656,"54":0.10705220181440646,"55":-0.01834114760220112,"56":-0.0762178736357993,"57":0.001757857427968794,"58":-0.12064087446674594,"59":0.2532670641486303,"60":0.038893037444362295,"61":-0.02007471560268168,"62":-0.07427877551158438,"63":0.011499653869026148,"64":0.1374948293742376,"65":0.07021592379055035,"66":0.06401790160279504,"67":-0.013096997343205402,"68":-0.1295008250469475,"69":-0.01360009402209346,"70":-0.05686870646814711,"71":-0.088069007351329,"72":0.16604336835621358,"73":-0.06370443342215099,"74":0.05957252299391055}},{"sx":5,"sy":5,"depth":3,"w":{"0":-0.11149803831914162,"1":0.10103359474748268,"2":0.12520865634859865,"3":0.1342065715416903,"4":0.15651931795812876,"5":0.06310175102208554,"6":-0.014277466188369716,"7":0.03291692028548428,"8":0.02792202242411869,"9":0.09255339724637146,"10":-0.09180847082260114,"11":0.07337108426432583,"12":0.07258330416172756,"13":0.05723381026252551,"14":-0.020303175480660747,"15":0.09263239521563305,"16":-0.1757743347438049,"17":-0.006891535038247403,"18":0.00693260359139547,"19":0.23947339287176786,"20":-0.03838213720483199,"21":-0.000652595125495425,"22":0.04804426706184764,"23":0.08021079194928428,"24":-0.09235644156637736,"25":0.1823161548747815,"26":0.08836007826854962,"27":-0.025613508904542785,"28":0.2620658048440711,"29":0.08065712034615251,"30":0.09323350698625159,"31":-0.1119474291188145,"32":0.01340276607852962,"33":-0.23871288263049878,"34":0.1763138300663653,"35":0.08456779732154165,"36":-0.19554950624983294,"37":-0.14554402617590845,"38":-0.0864316919926533,"39":0.004521174325063791,"40":0.009030195828813857,"41":-0.049968892404735656,"42":0.09869209327647316,"43":-0.19653526561502715,"44":0.002533915338789767,"45":0.000641298913679699,"46":-0.2044985708935235,"47":0.25071590821604905,"48":-0.08031321908669624,"49":-0.1009327017419927,"50":0.011847253899737634,"51":-0.19834490548951303,"52":-0.14992337518605087,"53":-0.16222919176229786,"54":-0.02968533442929721,"55":-0.09513324986242007,"56":-0.04050875681357387,"57":0.09514767351176921,"58":-0.006212581750603794,"59":0.14813020642963615,"60":-0.06797588918540538,"61":-0.02052073713624028,"62":0.0362546522511163,"63":-0.05888159292664642,"64":-0.07998820035459775,"65":0.07482908867337318,"66":-0.00842275205036303,"67":0.03916225179457117,"68":0.01085587039134124,"69":0.17432098209889146,"70":-0.11015257875653107,"71":0.10680790152574962,"72":0.07620338347772233,"73":0.14508097655095165,"74":-0.04442425272399061}},{"sx":5,"sy":5,"depth":3,"w":{"0":-0.16285872011364563,"1":0.11057365039856856,"2":0.1378762954835415,"3":0.245456792259635,"4":-0.16150313682844664,"5":-0.048829194232993235,"6":-0.1144146052488742,"7":-0.043971736210420345,"8":-0.20598468171818943,"9":-0.08982479739636891,"10":0.18717971938151753,"11":0.11677832651788299,"12":-0.05505171373084115,"13":0.05965501220550061,"14":0.24829780558084055,"15":0.13779573383532356,"16":-0.09067158015820866,"17":0.09195198439784374,"18":0.0448001315185138,"19":0.1972063839211364,"20":0.14608199655261367,"21":0.07117595034798684,"22":0.012411543902061301,"23":-0.2352848004948412,"24":0.14875482667971066,"25":0.06419590156669236,"26":0.01826312412897402,"27":-0.18032002585975437,"28":0.02884364875470736,"29":-0.2505682203968296,"30":0.07950691788905416,"31":-0.2602155801939857,"32":-0.0019108972211954465,"33":-0.18599131467777513,"34":-0.09166637727823791,"35":0.0007177722506603304,"36":0.046792115086665385,"37":-0.034461230220596016,"38":-0.0699616098499184,"39":-0.15619598007739022,"40":0.1466250472787806,"41":-0.04321857548552809,"42":0.014883973854323988,"43":0.18016046227493893,"44":-0.08737506872595141,"45":0.16938944061385694,"46":-0.14363343450847205,"47":0.34668300363691623,"48":-0.013085478611899369,"49":-0.1433086469597481,"50":-0.166257904462455,"51":-0.0010433534722975027,"52":0.004415423209773915,"53":-0.11608511892906248,"54":0.282998450938697,"55":-0.10890733127545937,"56":0.12390087858446919,"57":0.04740938304700559,"58":-0.15861565421443272,"59":0.09760863554014447,"60":0.033029726256553,"61":-0.25975452111260694,"62":-0.05971578533485018,"63":-0.08505186405680576,"64":-0.2909654037178047,"65":-0.0950526521841061,"66":0.19568495659388932,"67":-0.1488087000297024,"68":0.008444919420197525,"69":0.04217615812347025,"70":0.0029082485482180907,"71":0.1336507621854484,"72":-0.12266984809537243,"73":-0.16851403627426545,"74":-0.24129566223155832}},{"sx":5,"sy":5,"depth":3,"w":{"0":-0.0326607183746072,"1":-0.22875479974144275,"2":0.10514257779624585,"3":-0.03177198111956646,"4":-0.03504923218192033,"5":-0.2795470968703087,"6":-0.034981696502008504,"7":0.11984075863648869,"8":-0.14249250094755223,"9":-0.06900745382592206,"10":-0.18937043408835852,"11":0.3571849526168285,"12":0.017697965643870477,"13":-0.010610940492826192,"14":-0.0975136537932046,"15":0.03590189491335482,"16":0.01865509541435495,"17":0.02550073916302726,"18":0.11892613566073754,"19":0.0910069508156785,"20":0.2124477956355037,"21":-0.017533774585780933,"22":0.3592144721875538,"23":0.12098847319844212,"24":-0.02369990357980876,"25":0.10411334363676347,"26":0.10692489277422262,"27":-0.1386630302692523,"28":0.16857268934548922,"29":-0.12259728579768511,"30":-0.1356777567569541,"31":0.13419185231419004,"32":0.08924731694134463,"33":-0.11490572664454501,"34":0.1003779730622642,"35":0.13447828355149305,"36":0.10978031694990413,"37":0.12911083131093398,"38":-0.06165331502251173,"39":-0.06331941363111566,"40":0.026626248372509938,"41":0.0898900736733568,"42":0.11576625014895761,"43":-0.10730517380195816,"44":-0.12837349786338867,"45":-0.12466673473533275,"46":-0.138485605515314,"47":-0.06585331858844432,"48":-0.21043554699091138,"49":-0.05337893591766513,"50":-0.008807151169530831,"51":-0.04062831875739721,"52":-0.09308733896490862,"53":0.022274621958595683,"54":-0.054716844958925745,"55":0.019431269818406365,"56":0.1650407727328776,"57":-0.12975766693377797,"58":-0.0785424583534352,"59":-0.03861344300053925,"60":0.1308761031059072,"61":0.07182537386661111,"62":0.05748325949980107,"63":-0.11671313451635397,"64":-0.16786683853010115,"65":0.18235872245093188,"66":0.051487420987782515,"67":-0.07081485039885096,"68":-0.02543328492032826,"69":0.09628932801597691,"70":-0.10271543747822048,"71":-0.07746978470699332,"72":0.06429091790830987,"73":0.28078667568936233,"74":0.40782171233314285}},{"sx":5,"sy":5,"depth":3,"w":{"0":0.013776848623197944,"1":-0.11081216519725805,"2":0.025314071828487054,"3":-0.09925504781175862,"4":0.03703287965496556,"5":0.13024617831650684,"6":0.09360242243226628,"7":0.04021774193712937,"8":-0.08973278301035906,"9":-0.008348434363040658,"10":0.07948240756373892,"11":0.06564248762731226,"12":-0.011880135210942812,"13":-0.10464406141329921,"14":-0.1916515099140342,"15":0.049583904063155035,"16":0.09247984956183328,"17":0.2901221070009321,"18":-0.05756157189103107,"19":0.013069496455027824,"20":0.025984491610713888,"21":-0.027532523250917432,"22":-0.04249348215965712,"23":-0.023194291485355782,"24":0.04753296811290405,"25":0.03008327749077162,"26":-0.004232921433681198,"27":0.02409923493369084,"28":0.26265501932967206,"29":0.3009260169824394,"30":0.15075873724876857,"31":-0.08037082770993935,"32":0.2136523649644373,"33":-0.02565261065902718,"34":0.17627327743522578,"35":0.11259279586639888,"36":0.03835106991392699,"37":0.12550458424805408,"38":0.02197014150558303,"39":-0.1323326182488633,"40":-0.23166059341244957,"41":-0.09058370728155507,"42":-0.07417208582448857,"43":0.31519249896710555,"44":0.1083555654122732,"45":0.06920105907054586,"46":0.05798990252345374,"47":0.12293950180268716,"48":-0.22291611373051146,"49":0.01791903403122928,"50":-0.002828937531967413,"51":-0.019597933905980115,"52":-0.12345855617201405,"53":0.05105086936497228,"54":0.06793979895062763,"55":-0.10597043041460602,"56":0.0670410501151088,"57":-0.18331731013101285,"58":-0.012082744428732545,"59":-0.14905170401381568,"60":-0.08841595232252265,"61":-0.13297388239968277,"62":0.09647892135525787,"63":0.08738985583204786,"64":0.21315025476536303,"65":-0.2061205897124736,"66":-0.209022320138711,"67":0.012103710242411955,"68":0.04425875097560827,"69":-0.03260185737398924,"70":-0.05149111552990449,"71":-0.060496291207373404,"72":-0.024952547398950458,"73":-0.02064418016475756,"74":-0.11124155946767508}},{"sx":5,"sy":5,"depth":3,"w":{"0":0.07691559597578324,"1":-0.16741677222147644,"2":0.18702215375656261,"3":-0.08000371626014413,"4":-0.06679578787505208,"5":0.08382226153026345,"6":-0.04428620266037082,"7":0.1148270851258994,"8":-0.0882021801181527,"9":0.030025690400842492,"10":0.2638325641432494,"11":0.041165547545483745,"12":0.019317387732665767,"13":0.04430284225116847,"14":-0.10679892288344182,"15":0.05136755697215847,"16":0.0454179725678785,"17":0.3752310091198864,"18":-0.2544466696223475,"19":0.1561974242217782,"20":-0.21873688224579552,"21":-0.13752529761610355,"22":-0.0732320125436482,"23":-0.05490743181032889,"24":-0.20849607370041018,"25":-0.09095573840128625,"26":0.0506451014563968,"27":-0.06096615936324255,"28":0.0248006322904623,"29":0.11462618403072442,"30":-0.020171581029880755,"31":-0.2781989480761134,"32":-0.21107129304368363,"33":0.026655103657954544,"34":0.17347344618015212,"35":0.1343164069493122,"36":0.15874236018916396,"37":0.024465188786626228,"38":0.14924721483159425,"39":0.028314031124963338,"40":0.01776175721388087,"41":-0.1288868187293135,"42":-0.05122284242973079,"43":0.029717483296872117,"44":-0.09265206779420579,"45":0.19029139783913032,"46":0.010474983095821932,"47":0.0817429136024542,"48":-0.037079527232445675,"49":-0.023983217439287746,"50":0.002189229459824269,"51":-0.05954342357396131,"52":-0.024687736029359707,"53":-0.018895625421479576,"54":0.09793694522955272,"55":-0.06498265437032805,"56":0.05855958230088315,"57":-0.27092302349150144,"58":-0.06386259955285928,"59":-0.07769284509416398,"60":-0.021219388405284843,"61":0.14042489369531097,"62":0.08825470240283083,"63":0.15253243192807034,"64":-0.10016465994350833,"65":-0.009105170972170803,"66":0.04800894177903622,"67":-0.011299968999431937,"68":0.07716501558761107,"69":0.01612880005114602,"70":0.034073289275245854,"71":0.13288654835195296,"72":0.02513085443604851,"73":-0.1749126518325719,"74":0.024283405915298404}},{"sx":5,"sy":5,"depth":3,"w":{"0":0.10633870970492557,"1":-0.07713158311892217,"2":-0.19292427367045129,"3":-0.029136385697590736,"4":-0.08423347031700709,"5":0.06811606855851472,"6":0.1583518799124912,"7":0.0717140571123209,"8":0.09997922978445567,"9":0.08211177251059587,"10":-0.08079458906079229,"11":0.007735307994195478,"12":0.1439420533823862,"13":-0.07499516975647857,"14":0.056018351380352764,"15":-0.03477651571422884,"16":0.16823068092106278,"17":0.018607201678709696,"18":0.07572219173129631,"19":0.03975386344780293,"20":-0.05875424266755509,"21":-0.09598950019936821,"22":-0.0799345891345602,"23":0.2739713020215162,"24":-0.05783088418559329,"25":0.09572023184148643,"26":-0.1383838634985546,"27":-0.043070445314736715,"28":0.014123809746836087,"29":0.09187118780040787,"30":-0.00910580344849742,"31":-0.01585344936252206,"32":-0.08905084197622766,"33":-0.030710859376733842,"34":0.12971917374701283,"35":-0.002017235956047035,"36":-0.08345242873407409,"37":0.05062552704046358,"38":-0.10940990305836124,"39":-0.05425735392814618,"40":-0.07255910319406379,"41":0.031068103793654375,"42":-0.04851226725819297,"43":-0.10237395044081174,"44":-0.10155578962891953,"45":0.045968612853182905,"46":-0.1750348936993284,"47":0.06285833617166384,"48":0.07430987144557029,"49":-0.023714816585648796,"50":0.09410775684587269,"51":-0.004017866894287007,"52":0.04027105886737581,"53":-0.027462723788609183,"54":0.045403152242583365,"55":-0.20192493249320528,"56":-0.04862022039327333,"57":0.14757466830209348,"58":-0.13413918560098698,"59":-0.016186132712125323,"60":-0.1971722173740422,"61":-0.13417293568551975,"62":-0.0004883654886172284,"63":-0.0036304814176136525,"64":-0.14060617728773572,"65":-0.047450758690774385,"66":0.020447912014262017,"67":-0.12634662854115158,"68":0.06539928550156711,"69":0.10141250836610297,"70":-0.016202108041436066,"71":0.09409117563916447,"72":-0.12251816826507497,"73":0.19081463897836407,"74":-0.03153296075012774}},{"sx":5,"sy":5,"depth":3,"w":{"0":0.08851995012762968,"1":-0.08753192682216808,"2":-0.08378355884332134,"3":-0.17131276078734076,"4":0.07368529125700071,"5":-0.03767228139772785,"6":0.12403272885151842,"7":-0.04881427289247167,"8":-0.013597210955773289,"9":0.15026851343841818,"10":-0.09383514153086543,"11":-0.0821974742585433,"12":-0.06878291896137359,"13":0.11742987732789403,"14":0.05948495142499464,"15":-0.041292263377570526,"16":-0.21800930653881578,"17":-0.07222778809984778,"18":0.008783878850229847,"19":0.1920913454854752,"20":0.009582315080720608,"21":0.13226850797733847,"22":-0.007694006556609045,"23":0.09936722379416608,"24":-0.09984963457410229,"25":0.13423383254015364,"26":-0.06318396335201783,"27":-0.3125203791932418,"28":-0.2342294760817865,"29":0.14038122993461666,"30":-0.06385044257622388,"31":-0.08784150928805302,"32":-0.008745817378892753,"33":0.056830703185113386,"34":0.15615721332056537,"35":-0.09251943160663476,"36":0.1109737315735605,"37":-0.20362848030547714,"38":0.029136096054150358,"39":0.018719106452763153,"40":0.04760830247782481,"41":-0.0931598856854075,"42":-0.09485685208253292,"43":-0.03534210308544526,"44":0.020841678034385715,"45":0.05164491253835839,"46":0.04818187126023537,"47":0.05018280080424338,"48":-0.03166252554512181,"49":0.02177763883331993,"50":0.045885540404506105,"51":0.09128639387038583,"52":-0.14067412138713095,"53":0.10755478034877627,"54":0.024272513446774908,"55":-0.014043970356128537,"56":0.022946730045803384,"57":-0.07332297726308487,"58":-0.1874983337878183,"59":-0.05189603837622167,"60":-0.08728180787381914,"61":0.07713589325325552,"62":0.11325847586370566,"63":-0.011093525929480295,"64":0.1569995317881768,"65":-0.12037657819646694,"66":-0.10541930139453376,"67":0.07099923455613392,"68":-0.0979142921348082,"69":0.0061005259862520166,"70":-0.14819956054858005,"71":-0.1280396780289984,"72":-0.02051225381260592,"73":-0.10455135408946833,"74":-0.1732728580864598}},{"sx":5,"sy":5,"depth":3,"w":{"0":0.10367974133791236,"1":0.11015997683538226,"2":0.117770303545245,"3":0.1699381653651082,"4":0.029432286662759682,"5":-0.11962036904109866,"6":-0.06336542028226441,"7":0.11535829398174909,"8":-0.010861697867847957,"9":-0.06109834617052148,"10":0.045206240706088766,"11":0.14434624563198228,"12":-0.13430935306460082,"13":-0.06321429890518439,"14":-0.07156699566828571,"15":0.08540815928628266,"16":0.11267592011330076,"17":-0.028124885124914012,"18":-0.017025694515746825,"19":0.06108399491938165,"20":0.1974629930145908,"21":0.03227545434500236,"22":0.001767792977529179,"23":0.006476602525804015,"24":-0.17687838561613295,"25":0.08974334343912252,"26":0.17104645485540546,"27":0.15378900397744213,"28":-0.12344546841818879,"29":0.20050101860298972,"30":-0.023662564675080773,"31":0.01559629789929903,"32":0.1752339425588806,"33":-0.09415702262573004,"34":-0.03977351642137043,"35":-0.3122928828317965,"36":-0.04154954850220971,"37":0.06957416063308458,"38":-0.11706387324171118,"39":0.0070748787180707155,"40":-0.03204207741876141,"41":-0.1165805455757414,"42":0.05704467100933455,"43":0.003465056188590132,"44":0.2347400776151251,"45":0.09195955461079201,"46":0.01667233520756082,"47":-0.16001074934185944,"48":-0.05707136824718146,"49":-0.08532614349953815,"50":0.05655073076337416,"51":0.07709384004310227,"52":0.11849904685592051,"53":-0.09136441453169071,"54":0.19748729001299095,"55":0.012193594157836062,"56":-0.00009767949786964697,"57":0.0329521264142976,"58":-0.07172516011488377,"59":0.0521918807216933,"60":-0.10349935675813528,"61":0.06778112236651285,"62":0.30563656662523825,"63":-0.016955297751874633,"64":-0.01632334710927627,"65":-0.025779346717725343,"66":0.026110182856109585,"67":0.13113689208714896,"68":0.055316325181806,"69":-0.024291598792541894,"70":-0.08618944117416692,"71":-0.02366731778050946,"72":0.09361335014635201,"73":-0.0005995911671296188,"74":0.03653852845281772}}],"biases":{"sx":1,"sy":1,"depth":16,"w":{"0":0.091051146711535,"1":0.09317841610866695,"2":0.09853694378315166,"3":0.0980032907912374,"4":0.09002951743080351,"5":0.09614288074951308,"6":0.0981423828654039,"7":0.0983229274047498,"8":0.09850868784346846,"9":0.09830894956620724,"10":0.09276821788191883,"11":0.09442941703416222,"12":0.10644305037110163,"13":0.09098257092681064,"14":0.09950980114005344,"15":0.0933217049673943}}},{"out_depth":16,"out_sx":32,"out_sy":32,"layer_type":"relu"},{"sx":2,"sy":2,"stride":2,"in_depth":16,"out_depth":16,"out_sx":16,"out_sy":16,"layer_type":"pool","pad":0},{"sx":5,"sy":5,"stride":1,"in_depth":16,"out_depth":20,"out_sx":16,"out_sy":16,"layer_type":"conv","l1_decay_mul":0,"l2_decay_mul":1,"pad":2,"filters":[{"sx":5,"sy":5,"depth":16,"w":{"0":-0.02251054001019574,"1":-0.08153656330492633,"2":0.05235617669135815,"3":0.007032535440111226,"4":-0.076416303950688,"5":0.08365094488341382,"6":-0.05445292876874534,"7":0.017891555053505915,"8":-0.05451553387414211,"9":-0.025199754017088724,"10":-0.09013441092087068,"11":-0.09324448143463425,"12":0.0132972128688125,"13":0.01800171755309573,"14":-0.05864091688000801,"15":0.045560580996541034,"16":0.08549059905913065,"17":-0.008068867094667826,"18":-0.03455042383031383,"19":0.016959644109628406,"20":0.06590458981864002,"21":0.0010322189504652038,"22":0.040724887804682454,"23":0.05007205585714705,"24":0.08946835368721527,"25":0.00154535666521458,"26":0.07973825287211472,"27":-0.09780524296904555,"28":-0.05402600873344941,"29":-0.016576875223436087,"30":-0.018532826974706106,"31":-0.028868864439654467,"32":0.029574636537099776,"33":0.09254550935582062,"34":-0.03330775219270948,"35":-0.03523676848354049,"36":0.03672739149433236,"37":-0.09554530052153451,"38":-0.02414649371648049,"39":0.011249692174536221,"40":0.07046215971396853,"41":0.10388767672822412,"42":0.026864764856331526,"43":0.029266490900352105,"44":-0.05165455157231281,"45":-0.018679697455638473,"46":-0.03539036469665804,"47":-0.11781011724022812,"48":-0.041824072032359286,"49":0.06336401619102443,"50":-0.015148113839449522,"51":0.06255809844380807,"52":0.004637332233651129,"53":0.011887641656592238,"54":-0.053181249947795176,"55":0.05515999626192155,"56":0.006118454559800738,"57":-0.09269854602855881,"58":-0.030447111270422805,"59":0.0824212609112955,"60":0.008704854012611599,"61":-0.10062113953500508,"62":0.06204366533129902,"63":-0.10058220487215576,"64":0.07308944285274938,"65":0.05246366965786525,"66":-0.015339263003602915,"67":-0.045316494676260054,"68":0.09973793912689323,"69":0.06694767212775081,"70":-0.02075351804487754,"71":0.01682751291067382,"72":0.027525269052731866,"73":0.037631876860871785,"74":0.06556006828674701,"75":-0.008046675690213992,"76":0.054807596450959166,"77":-0.055462750877686096,"78":-0.06973910895922449,"79":-0.04852971412193343,"80":-0.05841363369694308,"81":-0.007024826461932846,"82":0.03862844867185685,"83":-0.037220647232184045,"84":0.0577203260739859,"85":-0.11284570872649581,"86":-0.0626486907081966,"87":0.010121946748554206,"88":0.056420287990074154,"89":-0.023860828533017867,"90":-0.015850898455055662,"91":-0.008139841711352593,"92":0.05533527131132881,"93":0.059807122705598736,"94":0.10171997479300135,"95":-0.035462272015093416,"96":-0.019259696101718557,"97":0.029535056221818505,"98":-0.10618805790789491,"99":0.02447106350121766,"100":0.026661158022030573,"101":0.0843350086968303,"102":-0.08644598041197167,"103":0.030149394105002014,"104":0.06695197170407531,"105":0.035364068597426294,"106":-0.0560206856771046,"107":0.04418041553283805,"108":-0.07346017040268886,"109":0.01254088912693366,"110":0.03438583767144949,"111":-0.010256643717647404,"112":-0.07134933972083851,"113":0.0685702430921105,"114":-0.03644903700569291,"115":0.013421149262693222,"116":-0.10390254936911192,"117":-0.04607080341600965,"118":-0.025895790802555912,"119":-0.04066785542285378,"120":0.005695220556067702,"121":-0.011633895335540417,"122":0.006512493277391533,"123":-0.013328298120345083,"124":0.026279656226469893,"125":-0.07469774292590903,"126":-0.040739697401463874,"127":-0.02621709430705786,"128":0.06599768910512262,"129":-0.014045039835599158,"130":0.027220249271875878,"131":0.03717153816619285,"132":-0.03424108913126639,"133":0.019097570129489663,"134":0.11709302843007742,"135":-0.013950799526542657,"136":-0.0335613510477958,"137":-0.05726725964503371,"138":0.044633876216689454,"139":-0.07189748475506227,"140":0.02330728987963994,"141":-0.02509305966110749,"142":0.01552796618486134,"143":0.030860354977112283,"144":-0.03755217149118302,"145":0.02648856988253482,"146":-0.04067864841555217,"147":-0.08765301405724837,"148":0.025955808936613603,"149":-0.07880518436903741,"150":-0.02853905105945303,"151":0.03346321454220195,"152":0.006195135235874361,"153":0.07316551292363688,"154":-0.02058245481700643,"155":0.02865316245567474,"156":0.06574221730221917,"157":-0.035986572963005205,"158":-0.11178251147406984,"159":0.043210156702036547,"160":-0.008458991340443513,"161":0.03466284223654569,"162":0.15663618168775437,"163":-0.012997992877645704,"164":-0.021906857002048204,"165":0.06195894105807431,"166":0.0068073743371285305,"167":0.02749496778496629,"168":0.0013480511459046966,"169":0.030002005430661293,"170":-0.004040418931600238,"171":-0.04561704428659714,"172":0.037061692487705196,"173":-0.1856595240747216,"174":0.041924114129169764,"175":-0.032912445252430846,"176":-0.05284208383547627,"177":-0.012366457839891844,"178":0.038478678491188675,"179":-0.004380823446784485,"180":0.0059424946335512666,"181":0.10331020625718976,"182":0.03285462742512005,"183":-0.06950161823535682,"184":-0.047322220081983,"185":0.020685475097572348,"186":0.047192703152611246,"187":-0.09882594142974471,"188":0.01833326767213465,"189":-0.1409249331578453,"190":0.08043823322020024,"191":0.038457150094440326,"192":-0.10891176864926175,"193":-0.06916514167367797,"194":0.020145278152094503,"195":-0.04110397667262911,"196":0.024254979170245227,"197":0.011182123555798153,"198":-0.03508489490329261,"199":0.00745170501885425,"200":0.02805954537066556,"201":0.03984668839663304,"202":0.023655600337964506,"203":0.02197433866426585,"204":0.03199431582388315,"205":-0.03209858933338807,"206":-0.01895881782316436,"207":0.060468719881708745,"208":0.07503662205335038,"209":-0.003042521462108317,"210":-0.004612477503321843,"211":-0.0002596892920748465,"212":0.004324002380710429,"213":0.03460301179338154,"214":0.0012355582538853935,"215":0.06550038150280699,"216":0.026011795875473597,"217":0.023746917837538326,"218":0.0148982103371,"219":0.04804720046743459,"220":0.01597724432725877,"221":0.03162726069639435,"222":-0.006362870001388135,"223":-0.0445790978471005,"224":0.06598609735677945,"225":0.05188728258406649,"226":-0.013460220887401876,"227":-0.07117173257384314,"228":0.0012101919861776064,"229":-0.06610685836231277,"230":0.09569308622079695,"231":-0.0892768809732088,"232":-0.04841372132581318,"233":0.033132341494931924,"234":-0.013897730722413517,"235":-0.032325622045502156,"236":0.04278305460529238,"237":0.04988985779291637,"238":0.03991009836652036,"239":0.03619739551037787,"240":0.06448874711437239,"241":0.021388881010977266,"242":0.043973668098561174,"243":-0.024508366512682345,"244":-0.02329571429419377,"245":-0.008536327824806643,"246":0.011395591749242647,"247":-0.03256838926493528,"248":0.06838522800955292,"249":-0.10562398080892707,"250":-0.09124812081589634,"251":0.022482847418826994,"252":0.030080593488485543,"253":0.026407249575956804,"254":0.05133304773997608,"255":-0.02219290631187956,"256":-0.029556895236283704,"257":-0.08891040231526876,"258":-0.04076244852917117,"259":-0.1090137007685559,"260":0.006066016885030401,"261":-0.046797344694119704,"262":0.03333579434679798,"263":0.053612723361388996,"264":0.09692875356900393,"265":-0.018056465924537968,"266":-0.07526155226538822,"267":-0.004813321573835273,"268":0.0658032849076522,"269":-0.023412291624788705,"270":0.06466939361732503,"271":0.09057554996390002,"272":0.04697068957384325,"273":0.0027952784769612366,"274":-0.01748889595088083,"275":0.13770902124048295,"276":-0.012807795034877983,"277":0.006881660535106254,"278":-0.04634474022374964,"279":-0.016516246431352508,"280":-0.025236815206524855,"281":-0.01684584821845384,"282":-0.03312415499262157,"283":0.04843345567999648,"284":0.0064200719515828935,"285":-0.1254369016316852,"286":-0.008221295638624868,"287":0.018547287844680998,"288":-0.038331539019039046,"289":0.02925865185046816,"290":-0.09866514486518406,"291":0.05544130415138159,"292":0.04919905502730685,"293":0.03284071184546357,"294":0.05737789402792381,"295":0.02027612058518686,"296":-0.026806442686133417,"297":0.033195493557235604,"298":0.051910018952690894,"299":-0.00735636277546692,"300":0.07154614340953648,"301":0.029042025607769164,"302":0.00519187182379,"303":0.046122173827988576,"304":0.017713710656622608,"305":0.021389929881607928,"306":-0.005071247509471513,"307":0.08667446424453339,"308":0.011804204374260982,"309":-0.03521651532041354,"310":0.027473319350716563,"311":-0.07535099870377414,"312":0.04684521296089201,"313":-0.01599875477713719,"314":-0.014589492587530645,"315":0.05131196596818917,"316":0.07009390250752227,"317":-0.04309761661627888,"318":0.04274452252264861,"319":0.026177929640913634,"320":0.05140594571751956,"321":0.024145244365783098,"322":-0.07204672672261166,"323":0.005997960748015462,"324":-0.1258098908517413,"325":0.11205409725770069,"326":-0.04517554097411522,"327":0.02875375484410851,"328":0.03178378674234643,"329":0.08163175817644004,"330":-0.07338404973068624,"331":0.02707206242386267,"332":-0.03551123998707723,"333":-0.020705715678933687,"334":0.07975431041965109,"335":-0.0011580010712227595,"336":-0.04934627201406645,"337":-0.004495893221383005,"338":0.06002322857595844,"339":-0.021745857948161976,"340":-0.022975188224649078,"341":0.03565102905969358,"342":-0.05068495575197731,"343":0.1033239084411541,"344":0.05550450544902066,"345":0.06909623612029678,"346":0.004476374667240453,"347":-0.006565950313908579,"348":-0.10985626816350229,"349":-0.04115850177031208,"350":0.0328640384151359,"351":-0.01638839551260239,"352":-0.07496340523855265,"353":-0.0023367016798778962,"354":0.030532759059369297,"355":-0.0176710174068403,"356":0.04787174548329261,"357":-0.10260996098639545,"358":-0.1083250783575577,"359":0.007599321920496486,"360":-0.049813930585567226,"361":-0.06419359957803819,"362":0.024085749180201982,"363":0.025693320290329086,"364":-0.04109570347495199,"365":0.006727650476422315,"366":0.033853927208652816,"367":0.04707089630543023,"368":0.10621608882767032,"369":-0.070117436828682,"370":-0.005998640485626655,"371":-0.008871565685715448,"372":0.04733485876755299,"373":-0.03111325318131447,"374":-0.010626225493756216,"375":0.026242692633140788,"376":-0.04975751569937351,"377":0.020497073955401426,"378":-0.03479942740148714,"379":-0.03453836477487418,"380":-0.014963951113768213,"381":-0.0011722223950740153,"382":-0.0031592582636369455,"383":0.02806918217280815,"384":-0.0072700509489455785,"385":-0.022433228793611405,"386":0.09079298653713945,"387":0.05670474341107206,"388":-0.033574385772607095,"389":-0.022099966148247874,"390":-0.03539564626269407,"391":-0.03800393274394146,"392":0.06287388414043031,"393":-0.04298437332902052,"394":0.03716157735320218,"395":-0.10385450968448641,"396":0.0255312325797404,"397":-0.12957358424775062,"398":0.0764475842620437,"399":-0.0632985163113722}},{"sx":5,"sy":5,"depth":16,"w":{"0":0.04743117121401172,"1":0.04168204392256727,"2":-0.06780598194012445,"3":0.04459235106662216,"4":0.029673519708273255,"5":-0.019092450139059903,"6":-0.027223206825501396,"7":-0.013243754871962986,"8":-0.059304242501465626,"9":-0.05548892049333045,"10":0.002029423800318364,"11":-0.018269212880401627,"12":-0.06764044245348229,"13":-0.017289153942260275,"14":-0.01847805423589611,"15":0.0022187527568997265,"16":-0.03861223160974085,"17":0.037324828115277646,"18":-0.01666717396384617,"19":0.02583638810605267,"20":-0.07561919386590425,"21":-0.043185788635416555,"22":0.007308553369494709,"23":-0.04278720248694541,"24":0.11237358028606274,"25":-0.018815632097859265,"26":-0.0005650240638810162,"27":-0.004453460738660052,"28":-0.015550920980117506,"29":-0.049800233818060244,"30":-0.05533586752958896,"31":0.04933641699201514,"32":-0.058831495703791356,"33":0.03966318131319598,"34":-0.04389702766036484,"35":0.002645342368018646,"36":0.08316958283921246,"37":0.029851717188159866,"38":0.05289159734203315,"39":0.030005478312778368,"40":-0.005729058283978065,"41":-0.00484880303158266,"42":0.08273699418149168,"43":0.023512662324506276,"44":0.05861139481397792,"45":-0.017915951144221266,"46":-0.010942090567428188,"47":0.014212558011614598,"48":-0.05422836215435287,"49":0.04525422468423491,"50":0.015122872280242521,"51":0.0013028066037623492,"52":0.0392890471755125,"53":-0.08670951149667834,"54":0.014200847423757879,"55":0.0024338660109774015,"56":0.014232089572978498,"57":-0.00380120094475529,"58":-0.0062669556001087555,"59":-0.049322190618351296,"60":-0.012859750065209164,"61":0.027135416874793657,"62":-0.06076299322616867,"63":-0.052330464036505306,"64":-0.0053954200083900705,"65":0.0033341903887617623,"66":-0.0996368260585343,"67":0.0011618413041957223,"68":-0.09040550871109082,"69":-0.041002443032850826,"70":-0.010980033040496986,"71":0.0022307387149649765,"72":-0.056413876987677795,"73":-0.04003526079975101,"74":-0.010972776185706266,"75":0.09054281408220126,"76":0.03960823004213176,"77":0.013248612812951015,"78":-0.049032259011665316,"79":0.011565864368844585,"80":0.08284421495885538,"81":0.029829130608457658,"82":-0.0058285192651653765,"83":-0.017534307325481734,"84":-0.027998575299642392,"85":-0.0331479999631444,"86":-0.02606751417179204,"87":-0.05007124390402719,"88":0.004946479655284692,"89":0.038268526504000894,"90":-0.05389624593231054,"91":-0.05439372569946458,"92":0.042042523361232216,"93":0.02510320011791754,"94":0.044590080793790066,"95":0.016445928036280373,"96":-0.046392564491494,"97":-0.0823799080367566,"98":0.08822990003640717,"99":-0.028163882235435003,"100":-0.0544050510805786,"101":0.05320916148747358,"102":-0.03157008266129141,"103":0.041740862781321296,"104":-0.031893763582427036,"105":-0.0806420307620707,"106":-0.03896916183822438,"107":0.012642941836590774,"108":-0.019030778538023197,"109":-0.05316002663487944,"110":-0.061040402457564175,"111":-0.08964643553432135,"112":0.01432980781613615,"113":0.017123166017601638,"114":0.004840455741603315,"115":-0.016840498405513587,"116":-0.07985914147559323,"117":-0.01590963514312579,"118":-0.08319894271202759,"119":0.01869721096014322,"120":0.10677569111312125,"121":0.029942723235385927,"122":-0.09827916120849274,"123":-0.019485513252451,"124":0.08227572375382655,"125":0.0064507368843972745,"126":-0.06481611831225012,"127":0.039542622846786696,"128":-0.006528007141333065,"129":0.023017076351481015,"130":-0.014289156049350424,"131":0.04159788390832919,"132":0.0630780748375117,"133":0.06202277927315369,"134":0.03370836994876485,"135":0.06902592922775867,"136":-0.030742870808313432,"137":-0.02881670251390359,"138":0.016978311628844136,"139":0.03656465267188649,"140":-0.003790722916785375,"141":0.006515046562167835,"142":0.04872893494086851,"143":-0.09758012470277941,"144":0.030656139484778046,"145":0.04601694440593226,"146":-0.002636100907575922,"147":-0.012474401348944252,"148":-0.11591476160565743,"149":0.04374796129609468,"150":-0.013409147627296577,"151":0.1311084271018852,"152":-0.03606239717469818,"153":-0.0351554709981412,"154":0.05660110765218448,"155":-0.010056948949719502,"156":-0.03753293594550258,"157":-0.007605250808603836,"158":-0.07726774638377851,"159":-0.037699632856451774,"160":-0.05066391909214942,"161":-0.04258468271728099,"162":0.01031007108922939,"163":0.011417756904547154,"164":0.08868645926028564,"165":-0.12710893184818764,"166":-0.021229944158277295,"167":-0.11744695381408797,"168":-0.021145617519893512,"169":0.05085204314471379,"170":-0.04045282886249438,"171":-0.04928795338119368,"172":-0.022051279814489795,"173":-0.047739130258627215,"174":0.11295428911119111,"175":-0.02293468753238755,"176":0.033320610491560036,"177":0.02539410099961672,"178":0.11643500622446781,"179":0.09320034865698563,"180":0.012137377369056599,"181":-0.02179852909817198,"182":-0.06043173341090099,"183":0.00594364465466643,"184":0.04683818407939987,"185":-0.06648360163508744,"186":-0.021679179171833304,"187":-0.014833966262107647,"188":0.02995186321070423,"189":-0.03734790265435148,"190":0.017146101066872213,"191":0.09627165937941785,"192":0.06318171136513,"193":0.04719822398391658,"194":-0.00031265513907227996,"195":0.03806565696232629,"196":0.042078166708348706,"197":-0.017829421457124146,"198":0.049961877192581376,"199":0.10412572751723141,"200":0.07251935431681167,"201":0.04950173057099776,"202":-0.01433175016336388,"203":0.00040577211625629885,"204":-0.0009571837186936388,"205":0.02654342741586099,"206":-0.04254602374074004,"207":0.00199423120488567,"208":-0.05591936516652848,"209":-0.05363584679265064,"210":0.00014622396835302842,"211":0.05645147430995828,"212":-0.10144676562841892,"213":0.04042152952725728,"214":0.02276214447684128,"215":0.06231431206372593,"216":0.05130149232482356,"217":-0.05388005700119646,"218":0.02395439331404589,"219":0.005247687839819547,"220":0.06598631333619075,"221":-0.043546348263125985,"222":-0.03535162066429753,"223":0.014192653120618135,"224":0.040568226753765146,"225":0.06710067121108294,"226":-0.0014340872493424496,"227":0.0481961406121984,"228":0.028987377734629647,"229":0.05259688887332717,"230":-0.0346955726034805,"231":-0.06264355791116291,"232":-0.059373201814529764,"233":0.022559810095137238,"234":0.021408185709991805,"235":-0.09306856793651637,"236":-0.07946033247371403,"237":0.06641092082043971,"238":-0.033313756181199146,"239":0.021677348138207916,"240":0.05063527827464011,"241":-0.09464092898735665,"242":0.0444377375338346,"243":-0.0959335214964854,"244":0.00011664643653234096,"245":-0.0204003777744789,"246":0.09727403655117535,"247":-0.0802938476165396,"248":-0.0611460350842236,"249":-0.01724313811067914,"250":-0.012803731568926786,"251":-0.09417781697909113,"252":-0.10731977292098908,"253":-0.05152165564401631,"254":-0.0200362650927231,"255":-0.03482344009876153,"256":-0.05325144319667327,"257":0.003517018172016247,"258":0.030599645446486325,"259":-0.033069724198929895,"260":-0.0026435665039074795,"261":-0.018413777763696827,"262":-0.0018564865860815059,"263":-0.05154625984085216,"264":0.09580042312215371,"265":-0.009161899438874108,"266":-0.007844780197177048,"267":0.03510345342348156,"268":0.1375019668971216,"269":0.044438840807126755,"270":-0.10857437461029103,"271":-0.04948174394196368,"272":0.027443564914455904,"273":-0.11977764520129647,"274":-0.029804072282534226,"275":-0.015679792885712408,"276":-0.1427352304495829,"277":-0.00627194772105257,"278":-0.008355865859346383,"279":-0.013680327578562046,"280":-0.043813833016791606,"281":-0.02031376456849875,"282":-0.06408503593802493,"283":0.021535810727337786,"284":-0.035687116108576895,"285":0.020187749878823283,"286":0.0999812899465933,"287":0.0254490221490473,"288":0.05612272578240343,"289":-0.05976465159698909,"290":0.01695360116491381,"291":-0.08664802841102634,"292":0.028248416251007387,"293":-0.01152715367785798,"294":0.015960353789784974,"295":-0.023939514266693104,"296":-0.1037885181595357,"297":-0.009805002777046637,"298":-0.0345178808237389,"299":-0.0453823327531611,"300":-0.017704681746546314,"301":0.07784506067292864,"302":-0.02152783354803599,"303":-0.005863888223215784,"304":0.050781638331144456,"305":0.0063527761742682015,"306":-0.005216156173354121,"307":0.028421963522987103,"308":-0.034284710130574186,"309":0.0660547387416091,"310":-0.018945630781345264,"311":-0.05308083917572922,"312":-0.0016420374997832257,"313":0.026902190876841384,"314":-0.06299413347225731,"315":0.034408667196984544,"316":-0.017418171939419844,"317":-0.0634539608014368,"318":0.1278914655951331,"319":-0.03139375992549864,"320":-0.05427593902033125,"321":-0.0157043772279422,"322":-0.013157130428341914,"323":-0.03093193907438537,"324":-0.02650517533370598,"325":-0.0006324215985120149,"326":-0.12388656515003783,"327":0.026777484804309973,"328":-0.051269424158013686,"329":0.10363891862032384,"330":-0.012287760195380023,"331":0.03962238993486546,"332":-0.06526185704748635,"333":0.020901903248062317,"334":0.03572963279875268,"335":-0.0728584015197642,"336":-0.021053466912965495,"337":-0.02957317733615681,"338":0.015640286068924463,"339":-0.074133457784947,"340":0.003712784573536563,"341":0.07216995415767169,"342":-0.001343848059384321,"343":-0.006813252446165844,"344":-0.025691158977646754,"345":-0.04129169180846787,"346":-0.01139177918553471,"347":-0.12132224097766282,"348":0.043433331192720456,"349":-0.008496017370713801,"350":0.04496650980020146,"351":-0.03908239185019875,"352":-0.05417041986987079,"353":0.0032743516621552677,"354":-0.04667618477928011,"355":0.04790220076263601,"356":0.03919702309343361,"357":-0.01943256205706188,"358":-0.05898927049455651,"359":0.029047725059811156,"360":-0.03669319616512265,"361":-0.06702117413743026,"362":-0.03964411575664126,"363":-0.004233507564439045,"364":-0.05037186116043728,"365":-0.038637463397179696,"366":-0.029954139764262967,"367":0.074735551963183,"368":-0.046113533190839266,"369":0.01564921739511901,"370":-0.010129366811136895,"371":0.035878973497980284,"372":-0.03257753642845387,"373":0.04925358472520635,"374":0.033127298561738024,"375":-0.0789166678364113,"376":0.0845539778924054,"377":-0.07865859881650648,"378":0.027012771581970997,"379":-0.10764265111216918,"380":-0.03914247746976589,"381":0.026599416525508904,"382":0.014099775648005084,"383":0.010466116961624495,"384":0.03182907395387204,"385":-0.034317625280267446,"386":-0.038088332337428865,"387":0.03293485480674426,"388":0.003056449650624991,"389":-0.08339486875441321,"390":-0.03513500305859439,"391":0.09080986731269641,"392":0.005665778317794529,"393":0.02696220733612547,"394":-0.08214836833697331,"395":-0.1344450139813265,"396":0.007682217846598248,"397":-0.10505971596967188,"398":-0.01772849832451282,"399":0.035308158122616416}},{"sx":5,"sy":5,"depth":16,"w":{"0":0.055786942482617355,"1":-0.07405019536464848,"2":0.041808298249004325,"3":0.055135330314985895,"4":-0.09092633795556673,"5":0.09426484744113686,"6":0.044918033980526274,"7":0.020119827873337517,"8":-0.042551727382858465,"9":0.053038247450140866,"10":-0.0031444347459274645,"11":-0.020118855928098603,"12":-0.041919004874069875,"13":-0.013665870908937075,"14":-0.09060589007309972,"15":-0.03601096738656596,"16":-0.05493041282663885,"17":-0.02660357683779689,"18":0.026973758245764465,"19":0.01661749475303074,"20":-0.018809421054788222,"21":0.02231220666504266,"22":-0.039714741738974324,"23":0.0059601360189125005,"24":0.04170275664410476,"25":-0.04418950980061914,"26":-0.05188771437521796,"27":0.05456913691201944,"28":0.0037659515371442948,"29":0.07308263084215157,"30":-0.08006556939639728,"31":-0.046711661946979295,"32":-0.06246259104609612,"33":-0.013559980776676535,"34":-0.0069109827099881165,"35":-0.021181652606545164,"36":-0.013166925885729085,"37":0.01904318423061834,"38":-0.014750081491993786,"39":-0.027787140474632065,"40":0.015171542278554214,"41":-0.06408367140807367,"42":-0.04186775799066288,"43":0.017496300715114647,"44":-0.04727309074790108,"45":-0.04543495196078021,"46":-0.037323434428058404,"47":0.013919218175871127,"48":-0.04345620968860211,"49":-0.043293340984457196,"50":0.010495203050197235,"51":-0.013033648097889119,"52":0.006444909926351536,"53":-0.030874008479515696,"54":0.026368476124226305,"55":0.03965123236049422,"56":0.01820075771581767,"57":-0.02053178667443212,"58":0.08190224536525595,"59":-0.031268494349098855,"60":-0.0574806600965883,"61":0.05210811277791449,"62":0.02783937078329666,"63":0.012729204183593428,"64":-0.019610044977027424,"65":0.010718215386249971,"66":0.02105598257414175,"67":-0.001658553464029375,"68":0.07855594311734743,"69":-0.010436220328662479,"70":-0.06178498630099682,"71":-0.04151034249636782,"72":0.02048551433748323,"73":-0.04307171368022636,"74":0.09916898298033577,"75":-0.06819724441677895,"76":0.11222011768072565,"77":-0.10289100218056045,"78":0.02269121880102115,"79":0.012147209375151537,"80":-0.018478530315370147,"81":-0.07512972952648564,"82":0.03391188383362611,"83":-0.025066997577839416,"84":0.029242042884076672,"85":-0.06680924467992105,"86":-0.0013568185642642149,"87":0.007303207369486713,"88":-0.019729622573216428,"89":-0.08432932779646785,"90":0.00047640080099466326,"91":0.011814250294855843,"92":0.05763365258138998,"93":-0.06331546570027209,"94":0.034280984564088096,"95":0.03531815778865575,"96":0.0041219357420904015,"97":-0.043889517382195264,"98":0.0022433435255451994,"99":-0.007133756612868606,"100":-0.027811452963770633,"101":-0.07274650443747645,"102":0.019025662577157963,"103":-0.027464541926213754,"104":-0.012469408233950596,"105":-0.06098241842682092,"106":-0.06018126428523168,"107":-0.022970739713930655,"108":0.00518363958274366,"109":0.013553738076384847,"110":0.06000458676670472,"111":-0.037838632342420034,"112":0.06019578533824907,"113":0.044775515312853925,"114":0.05316026427309112,"115":0.03263487303572359,"116":-0.0642261340691118,"117":0.050719468594844636,"118":-0.025900573468262335,"119":-0.03315344118358354,"120":-0.06916531830531693,"121":0.020675672005239665,"122":0.024511424980269706,"123":0.09975010481782111,"124":0.04932806140221071,"125":0.09657759098110406,"126":-0.009957451484907532,"127":-0.07943425165143864,"128":0.048971619049042375,"129":-0.11132974308174155,"130":-0.05259214101939501,"131":0.0739356304022415,"132":0.020052756724822842,"133":-0.04874594927945787,"134":0.01000388311917582,"135":-0.05210596966132625,"136":-0.03330983433468286,"137":0.0361593816382842,"138":-0.04104778108217859,"139":0.022038901787544633,"140":-0.1047982081756762,"141":0.06009501778449534,"142":-0.0030664812362435475,"143":0.009668526107991427,"144":-0.010448925541727631,"145":0.024927871626008524,"146":0.0422136259962442,"147":0.016044563586578024,"148":-0.004603301637745284,"149":-0.08207067160717349,"150":-0.032946891099899914,"151":-0.09614472913269939,"152":-0.00683651224993356,"153":0.024987262762979204,"154":0.001918461993725759,"155":-0.040221538196643286,"156":-0.01437924714309389,"157":0.029424720599453898,"158":-0.0549859108494971,"159":-0.03533570216196777,"160":0.016921937179415345,"161":-0.005852328406305923,"162":-0.012689016897746262,"163":-0.02203767982210152,"164":0.09024915978738653,"165":-0.028848977798775176,"166":0.01658447064929709,"167":-0.03559372804401521,"168":0.007510870634812299,"169":0.008573904939984497,"170":0.014008430301794559,"171":-0.05969786326838416,"172":0.004400046951881422,"173":0.041612109328539454,"174":0.07663724649094306,"175":-0.010644852809139878,"176":0.002016778306746937,"177":-0.09422568619859936,"178":-0.09206138193761072,"179":-0.057847366366781255,"180":-0.027164036285728773,"181":0.03147474480994273,"182":0.02033767031435406,"183":0.08316616620872118,"184":0.11910150252331286,"185":-0.049396228900453865,"186":0.06146217250088849,"187":-0.02179835804384775,"188":-0.0151878720437034,"189":0.09665910566092835,"190":0.08079300484785948,"191":-0.023320638721999506,"192":-0.017201042414350977,"193":0.09193141775065632,"194":-0.0318620871485172,"195":0.04719657796389099,"196":0.008216905894476642,"197":0.00269988351182224,"198":0.006851136076599707,"199":0.018046873054299844,"200":-0.11191642681436802,"201":-0.05424635652287256,"202":-0.011460735179870294,"203":0.03152938749459936,"204":0.004228667302702141,"205":-0.0043575717450241944,"206":0.10124933904927884,"207":0.055013878828784314,"208":0.05999085568657927,"209":0.012098425118107794,"210":0.10880387968880666,"211":0.042663134486367826,"212":-0.029475161370582162,"213":0.03113473536062314,"214":0.03548419093897306,"215":-0.13431928173697283,"216":-0.009284550044491528,"217":-0.03485525235736395,"218":0.08482811412558912,"219":0.00710028086896973,"220":0.06947004217819666,"221":-0.03666085986351762,"222":-0.03910970532539402,"223":-0.011182341009083066,"224":0.013613542941716376,"225":0.09425125227193004,"226":0.054470080108951,"227":0.02729161859146411,"228":-0.01657340583001271,"229":-0.10095854805962491,"230":0.02228507120248817,"231":0.03835237148555709,"232":0.07781836963626618,"233":0.02200755900117586,"234":0.031244100283447707,"235":-0.05486930473507584,"236":0.07053352730233212,"237":-0.12311414097399011,"238":-0.10812867555156064,"239":0.06979807417415691,"240":0.016538592460149697,"241":0.11253543795086282,"242":-0.047461652319099684,"243":0.12165891234901496,"244":0.021345524299732008,"245":-0.028502006604038715,"246":-0.02373815614807489,"247":-0.01032878507622442,"248":0.03830890497455337,"249":-0.005795121418749153,"250":-0.000543125991952817,"251":0.009817019786569847,"252":-0.002904952540165376,"253":0.05251673081260846,"254":-0.01118595101386322,"255":0.048314364866629135,"256":0.015002456426485069,"257":-0.010613220680197178,"258":-0.03931460296017342,"259":-0.05333229263246334,"260":0.008325087328515852,"261":-0.022337133906873093,"262":0.08533779529447047,"263":0.04515606363495042,"264":-0.08746125225409952,"265":-0.013828464217221007,"266":-0.06618855250264197,"267":0.054155336920520075,"268":-0.00492247438945294,"269":-0.01165388130642148,"270":0.06149399911640709,"271":-0.014241865629651457,"272":-0.05892578924028523,"273":0.02016361450145837,"274":0.004975358749913477,"275":-0.028491847545313583,"276":0.07207813732004487,"277":-0.04065173821518525,"278":0.029065832230523194,"279":-0.009652728998964261,"280":-0.0066578548778791335,"281":0.034312730441537806,"282":-0.06103141257403578,"283":0.00693213153396052,"284":-0.06730138833520871,"285":0.03314157897940939,"286":0.0894997452050186,"287":-0.06947977738316564,"288":-0.013955869008148197,"289":-0.024658859158119533,"290":-0.03906286963137389,"291":0.03495403202731668,"292":0.04326233101394159,"293":-0.010356410191108438,"294":0.021565675461679208,"295":-0.07784934629844398,"296":0.028793111748591924,"297":-0.10841112099663489,"298":-0.02497889662673751,"299":0.060933297072220255,"300":-0.06368874701069603,"301":0.058960403070743184,"302":0.025368623466683678,"303":0.013837559013666173,"304":-0.018162758107126517,"305":-0.0005376366923353611,"306":-0.10426280512181804,"307":-0.05164164482732634,"308":-0.010582432037475976,"309":0.1505737705307819,"310":-0.09480774318626814,"311":0.0711284473148065,"312":0.05927685748700233,"313":0.04679592703792832,"314":0.058282828128088486,"315":-0.022880309595110983,"316":-0.12810915332718104,"317":0.04442491811770965,"318":0.008281375595526937,"319":0.027533862234421863,"320":-0.016356082232058287,"321":-0.010855397938913151,"322":-0.004885278744005238,"323":-0.10437993197523925,"324":-0.031899460990356496,"325":0.06530032551528028,"326":-0.01293248058474594,"327":0.007962741860684703,"328":0.026640802198496242,"329":0.06644976369931137,"330":-0.021836784143453122,"331":0.017434398064490576,"332":-0.07401308457560823,"333":-0.032911933634104405,"334":0.07014904311469933,"335":0.05459976102907313,"336":0.0476865276118732,"337":0.050372691925076006,"338":0.042403977273438545,"339":-0.1051723486337827,"340":-0.02689159789552892,"341":0.014561929992602236,"342":-0.037320764878570174,"343":-0.0347851223162778,"344":-0.03941597509377822,"345":0.02379441102270816,"346":-0.09074365802008251,"347":-0.03922293277089074,"348":-0.02449379787406517,"349":-0.006606999498098599,"350":0.014696887475459641,"351":-0.038451299227603694,"352":-0.07730120897441158,"353":-0.06542276121584314,"354":-0.11239705864961749,"355":-0.09216229954657022,"356":-0.00011771487307176299,"357":-0.008465840151918884,"358":0.08948965823293045,"359":-0.036188514763422636,"360":0.02969893267032117,"361":-0.06328429461653937,"362":0.003213217985893879,"363":0.03610922617117129,"364":-0.0003464044814929911,"365":-0.06396930202935418,"366":0.003064178581566963,"367":0.08635596998073752,"368":0.020062507083635977,"369":-0.07304841898231462,"370":-0.03818255011549078,"371":-0.04871339558897646,"372":0.056503822336713215,"373":0.0016569160995028422,"374":0.1127642526216655,"375":-0.09014420585356595,"376":0.021081950760238145,"377":-0.04120284915545877,"378":-0.09724422857421179,"379":-0.0076117681912039915,"380":0.05503961956838858,"381":-0.10190017850927909,"382":0.0017778849065377498,"383":0.03944522234612263,"384":-0.005562324259537094,"385":0.019923945629168098,"386":-0.011915787472755991,"387":0.08861620424512807,"388":-0.023337507837637255,"389":0.012861973119888445,"390":0.03765999828859025,"391":0.05899875005836995,"392":-0.04585487314832317,"393":0.020695765529470216,"394":-0.04747540074884882,"395":0.08936845523174887,"396":-0.009892427422157169,"397":-0.039090186839984734,"398":0.009374366759731717,"399":-0.057433867394109044}},{"sx":5,"sy":5,"depth":16,"w":{"0":0.09528215765124574,"1":-0.01624761730479732,"2":-0.06909575684633829,"3":-0.022341165462659622,"4":0.024872501866466976,"5":0.05150970249954316,"6":-0.05451774825598952,"7":0.018574413759735026,"8":0.034092202529372936,"9":0.017881711419082444,"10":-0.12640732137960944,"11":0.05644817389612475,"12":-0.057076942232065705,"13":0.001235487314843528,"14":0.052175418547726476,"15":0.03309570879647867,"16":-0.05539152716087123,"17":-0.09483643573264318,"18":-0.03870283540473493,"19":0.014053760538886712,"20":0.05216877620207522,"21":-0.0241641460155954,"22":0.06341763433397517,"23":0.034266774621109504,"24":0.014051942044027928,"25":0.022417050001329396,"26":-0.0359436720512472,"27":-0.009669912592707837,"28":0.015304724402470634,"29":-0.06334352992337,"30":0.024391767458241655,"31":0.04580066751276896,"32":0.028881458891390738,"33":0.011286247420463384,"34":-0.041500113559482986,"35":0.04617652921350001,"36":-0.06518943261704745,"37":-0.04345722459775722,"38":-0.024766102006247303,"39":0.02226085595222546,"40":0.0005924182602569878,"41":-0.07273617226106749,"42":0.04313941726201556,"43":-0.046233569492789686,"44":0.03537800205714287,"45":0.024050132609092827,"46":-0.0015722028802336854,"47":-0.00992989310287544,"48":-0.12363786763006544,"49":-0.01886425884056851,"50":-0.08407033725913028,"51":0.034662176855699105,"52":0.036061360074257164,"53":-0.011468864648169944,"54":-0.015480636426514306,"55":-0.08240864074856508,"56":-0.006517307622806395,"57":0.11375895272778722,"58":0.09475623471145911,"59":-0.010254644251045192,"60":0.01791971966985819,"61":0.03267337656878279,"62":0.10729636389196595,"63":-0.002455129957648738,"64":0.023963867697384476,"65":-0.012397287929771817,"66":-0.023161850868415636,"67":0.06478304851587496,"68":-0.03384227242106616,"69":-0.032780957243701496,"70":0.008398254412003108,"71":-0.07882644809426366,"72":0.02304686993342246,"73":-0.02645567415106475,"74":0.060571330184367896,"75":0.017543276385835027,"76":0.04466726552672422,"77":0.012830790399782774,"78":0.014973599799118477,"79":0.020077816913884456,"80":0.05033378221295501,"81":-0.023022362441604535,"82":-0.044902554273691477,"83":0.0015721465757274154,"84":0.06614743108469669,"85":-0.026117222805193983,"86":-0.044133776135278795,"87":0.03802082297486158,"88":-0.050730151252374095,"89":0.049610959830826556,"90":0.05130026839578672,"91":0.04583354427033625,"92":0.06610997502294753,"93":-0.014231000547787434,"94":-0.08410631498601404,"95":-0.060422847440754004,"96":0.07056592885700855,"97":0.04134023530498503,"98":0.13100724341875367,"99":0.054292399482452694,"100":0.040013537405164265,"101":0.00027521396707379394,"102":0.032974866888181506,"103":0.0029584978239570294,"104":-0.044164955747803596,"105":0.016065309930071832,"106":-0.037808142829390094,"107":-0.03588097948072819,"108":-0.03103577919039171,"109":-0.044712931545580877,"110":-0.00798380591190247,"111":-0.02713890103960622,"112":-0.09907490686280478,"113":-0.10647523281380246,"114":0.07206692847327109,"115":-0.004029683843919344,"116":-0.029638363289184108,"117":-0.035916135583921684,"118":-0.02766752007622901,"119":0.05995332714213792,"120":-0.06017036762238395,"121":0.006799492168287891,"122":0.07316904841359183,"123":-0.009451633366074545,"124":0.01546999242793577,"125":-0.060683813526510796,"126":0.04710255691513904,"127":-0.08086741328462377,"128":0.012461270654234692,"129":-0.062398454654380694,"130":-0.05321890589325095,"131":-0.012230416223823867,"132":0.04627479542798838,"133":0.07147350924641248,"134":0.014670174216210908,"135":0.02761443367219475,"136":0.029649315937649186,"137":-0.05523538986122805,"138":-0.056935064204616914,"139":-0.06770254970697132,"140":-0.02448997462419286,"141":0.002725159874973967,"142":0.0808384090966801,"143":-0.025562020814725347,"144":-0.020457538438780714,"145":-0.05974511234361713,"146":-0.03664749007542379,"147":-0.020140868472917947,"148":-0.014451858627688422,"149":-0.019522853348299382,"150":-0.049587324883022574,"151":-0.0004202706535645839,"152":0.00032794630394323513,"153":-0.011742688910677675,"154":0.03454951017274956,"155":-0.05804689026426338,"156":-0.0027247956745819904,"157":0.043405042847472756,"158":-0.02417046693809336,"159":-0.02337585694742682,"160":-0.030286955895658704,"161":0.022239933435772085,"162":-0.006354726160581475,"163":0.03905121087904391,"164":-0.01347245906505335,"165":0.055917138840809504,"166":-0.10195089013558928,"167":-0.034388053825780335,"168":0.03538358945172946,"169":0.027009232990482378,"170":-0.002992366431677115,"171":-0.15982608553810543,"172":0.02262368765161089,"173":0.0515353236966284,"174":-0.008156357872774755,"175":-0.024818140187587476,"176":-0.030616655320923225,"177":-0.025677590726169423,"178":-0.0979333717574431,"179":-0.017303799507717207,"180":0.03962742238170441,"181":0.025513060166327234,"182":-0.007250558674458691,"183":-0.047521824402592706,"184":0.019102696185536172,"185":0.03493261834910708,"186":0.021153699828613898,"187":-0.11380663352624323,"188":-0.04719822559501882,"189":0.05388235342739102,"190":0.04888580612970346,"191":0.14055650341887668,"192":-0.017071782944857686,"193":0.025076596581877,"194":0.0747525971056056,"195":0.00521063495525463,"196":-0.028242265236032307,"197":-0.00002217430414576567,"198":0.15395450806641983,"199":0.04334118253254454,"200":-0.006448167787007016,"201":-0.017108909482894324,"202":-0.011452183768991955,"203":-0.021545875581960704,"204":-0.020643585494732393,"205":-0.08924239778328362,"206":-0.07357362302771286,"207":-0.002508467439261209,"208":0.07622055717449519,"209":-0.053514386181456285,"210":-0.019577916356099487,"211":0.08196645244668169,"212":0.0794089770304223,"213":0.0622436316532002,"214":0.030101829987291474,"215":-0.013346922386792873,"216":-0.04676841641429575,"217":-0.1261066612045844,"218":0.007484684742746528,"219":0.0342096129321877,"220":-0.024091060062138764,"221":-0.043096893575941306,"222":-0.029984405009599757,"223":-0.019917055434104127,"224":-0.026728768221233726,"225":0.028457865716396736,"226":0.04530911456094883,"227":-0.03222939221500753,"228":0.007357131495008902,"229":0.009023084591245756,"230":-0.027619678780899236,"231":-0.02076719298369518,"232":-0.01559174721892313,"233":-0.0005060375800755622,"234":-0.021195244007211875,"235":0.006960723528357487,"236":0.012373321451512749,"237":-0.02239724498167996,"238":-0.054525831334384815,"239":-0.11573166359269173,"240":-0.02535721697650147,"241":-0.015336795781930881,"242":0.0014464655093728942,"243":-0.06260309690977071,"244":-0.04508621855311568,"245":-0.08420263838321158,"246":-0.04629333967542875,"247":-0.11146027906622948,"248":0.027462936055106402,"249":0.0619807366057518,"250":0.032430130395207715,"251":-0.07236748674638262,"252":-0.041590536112529185,"253":-0.015011486833374275,"254":-0.026846933633089886,"255":0.11368153625638631,"256":0.06353107228201005,"257":0.04108720274618239,"258":-0.011746029060859559,"259":-0.0204613693420817,"260":0.09834089812120214,"261":0.021416937643437762,"262":-0.05982717125385144,"263":0.04480884977931565,"264":-0.02482720307619829,"265":0.0020856749012419895,"266":-0.02492367419260023,"267":0.023219022760462546,"268":-0.08612781780208491,"269":-0.06750300757397143,"270":0.017537577405842553,"271":0.10331571027973793,"272":0.030480083296875835,"273":0.05039198384611401,"274":-0.0573827350956114,"275":0.053920697266586874,"276":-0.01631484768986695,"277":-0.00048503792816629947,"278":-0.06866644566149747,"279":-0.06350333389480098,"280":0.07287699238819594,"281":-0.020480122291284184,"282":0.006242863518714743,"283":0.02489877691638686,"284":-0.006991079365083594,"285":0.016346549250353344,"286":-0.041984319068612275,"287":-0.027895678810864022,"288":0.08793707275703326,"289":-0.07107634335545894,"290":-0.009367034443735489,"291":0.05063394119619211,"292":-0.02574329798076184,"293":-0.009685058682919877,"294":-0.013795024933902951,"295":0.04787003334189512,"296":-0.029581490175685017,"297":0.02265972160922603,"298":0.0332821916954103,"299":-0.06803129400467314,"300":-0.005139726116215771,"301":-0.030135770844644284,"302":0.07203309997325621,"303":0.018899481057757652,"304":0.06510061804401214,"305":0.01713282986594604,"306":0.01581302118346286,"307":-0.005196722067066478,"308":-0.0772510573065179,"309":0.034122501322914014,"310":0.021220785893453994,"311":0.014342080666362554,"312":-0.06125610891631725,"313":0.027261253480123527,"314":-0.02600976077769535,"315":-0.10230330558857134,"316":0.04970881122441196,"317":0.05598225251799979,"318":-0.07921465614514106,"319":0.06990520884983749,"320":0.0722374515637252,"321":0.06372056333998029,"322":0.049724762260131006,"323":0.05414518420258108,"324":-0.09279148639737198,"325":0.005621883393504509,"326":0.029654702914843553,"327":-0.030381179214140748,"328":0.04111514012643481,"329":0.00047111710435932615,"330":-0.10136848816722165,"331":-0.008075470986457792,"332":-0.01858825734668561,"333":-0.020613464821738096,"334":0.00653518849130817,"335":0.03721323148409521,"336":-0.08891291408778847,"337":-0.037056754870902424,"338":0.027571469720373144,"339":0.033116728966767116,"340":0.04180153906105282,"341":0.09689227061454565,"342":-0.1594370221030889,"343":-0.11676690518230112,"344":0.02745845123534118,"345":-0.04642508522340563,"346":0.02547117923741489,"347":-0.07389198476102252,"348":0.008294260140708958,"349":0.0076014950894119785,"350":0.04092766853347174,"351":0.05551783278081945,"352":-0.03678607871391982,"353":-0.06597377349507874,"354":0.07016552089818405,"355":-0.05414264868435581,"356":-0.062233979707757583,"357":0.003470950577361533,"358":0.01209181434133115,"359":-0.09285953265612736,"360":-0.039938796759537806,"361":-0.0031202823422845118,"362":0.04507984765494164,"363":-0.004441197193145542,"364":0.07646668909247326,"365":-0.019136142445516445,"366":0.042298019992033205,"367":-0.057299520381379525,"368":0.11166536686874,"369":0.0955762936177149,"370":0.021759319341863228,"371":0.04503679719457561,"372":0.008478137489542736,"373":-0.08347509418463911,"374":-0.04564668384745303,"375":0.034024074033586656,"376":-0.0039014859428531147,"377":0.024092722094034194,"378":-0.002391740465809901,"379":-0.04023801189643399,"380":0.009508780198119826,"381":-0.025545481773582002,"382":-0.06764045271390097,"383":0.06980074130583531,"384":0.02936668270001436,"385":-0.07695320109562438,"386":0.029508835919492955,"387":-0.07660685389481586,"388":-0.09844504524292332,"389":-0.07476464955139109,"390":0.027845282288117768,"391":-0.004066366347120393,"392":0.04036569887995437,"393":0.03695723820729917,"394":0.06646013696247309,"395":-0.014263264909302676,"396":-0.0013708082833261159,"397":-0.028207911076884574,"398":0.12190469236360951,"399":0.016933685328736413}},{"sx":5,"sy":5,"depth":16,"w":{"0":0.10212471067799249,"1":-0.09178613094023033,"2":0.025467089505615725,"3":-0.027025055762881948,"4":0.0836976725369815,"5":0.01887320323795831,"6":0.005521313180680315,"7":0.027616411797929643,"8":0.0193920630287336,"9":0.013736876695631742,"10":0.026753969822903848,"11":0.024821475673582317,"12":-0.034185516355906165,"13":0.05476558943562311,"14":0.0001280201623094548,"15":-0.060272496601026834,"16":-0.0010876446411520995,"17":-0.03378100627024553,"18":0.040677109645062076,"19":0.009139456309815185,"20":-0.0455199248331395,"21":0.03711061699729607,"22":-0.058464204694601146,"23":-0.01118097162785155,"24":-0.11894797093571367,"25":0.014744285494041484,"26":-0.1060965486961992,"27":-0.04416656053675923,"28":-0.04144669180663232,"29":-0.014128614349680078,"30":-0.10444141532898597,"31":0.054201012770260217,"32":-0.1282789012986387,"33":0.027970905226699424,"34":-0.025577468949161696,"35":0.0538992501846912,"36":-0.07436028608128122,"37":-0.04849571245432092,"38":0.02300897531845765,"39":-0.07405718970301693,"40":-0.11676998994725765,"41":0.054959448281437825,"42":0.06368776058266729,"43":-0.02343835009508174,"44":-0.013341772322838862,"45":0.027291481607137204,"46":0.016386050047772955,"47":0.0820093037774592,"48":0.04766418236241344,"49":0.04424262375533951,"50":0.007186449637937081,"51":-0.058566552163027474,"52":0.02115715079260484,"53":0.07294389267624557,"54":0.008179601122202547,"55":-0.00852778671703614,"56":0.07549665768909938,"57":-0.008084383254712614,"58":-0.030254131067947432,"59":0.06610022369813096,"60":-0.06045702358440616,"61":-0.003772933139260825,"62":0.032500897366205955,"63":-0.044043466171181704,"64":-0.0011833873786493963,"65":-0.04999497779809377,"66":-0.048651747590499166,"67":-0.15824818141822036,"68":0.018347375699637184,"69":0.032164002244088385,"70":-0.06856762952097833,"71":-0.050612202465234325,"72":0.02084518770793419,"73":0.000018216783052730882,"74":-0.0015781149281420903,"75":0.0466930467686504,"76":-0.0055032481865054115,"77":0.030975111131461234,"78":0.0011405128668994756,"79":-0.11115651651210634,"80":0.008608096757970288,"81":-0.044055985236741674,"82":0.015436789489898994,"83":-0.009417437847540145,"84":-0.08207846553856117,"85":-0.03263920869766479,"86":-0.013725193833046798,"87":-0.030031885512721585,"88":0.07740802965496439,"89":-0.0018636724407201752,"90":-0.14392318661425169,"91":-0.01902630061317155,"92":0.0500803742678134,"93":-0.03954910222690198,"94":-0.05222957462221885,"95":-0.013802438869492025,"96":-0.016902957780212044,"97":0.040265415304186376,"98":0.01651972843191703,"99":-0.04636747204776341,"100":-0.009651835133110043,"101":-0.026230682171645536,"102":-0.08672349396019612,"103":-0.12476514882962189,"104":-0.009738878393476905,"105":-0.04992499973771254,"106":0.04339273122373838,"107":-0.014585713532008868,"108":-0.08979867824275369,"109":-0.028298413966465943,"110":-0.026468783912737784,"111":-0.03037372840649532,"112":0.04810253627623879,"113":0.02529799028492479,"114":0.007438728863159037,"115":0.018077956026664843,"116":-0.06853042154356247,"117":0.010425719834158959,"118":-0.006676171504374475,"119":0.03312372933390704,"120":-0.06210408577112613,"121":-0.095311473930841,"122":-0.041753465393367564,"123":0.016956287597149438,"124":0.02044375119747316,"125":0.025910644751011062,"126":-0.014381018726710725,"127":-0.04979220843882725,"128":0.03509459951925598,"129":0.005164501935977266,"130":-0.023287046870878736,"131":0.052312379115672714,"132":-0.025481764728139414,"133":-0.03345332201917723,"134":-0.029534897349501828,"135":0.017514321441920704,"136":0.023858305426768363,"137":-0.004909474245953508,"138":0.006847122768948629,"139":-0.07131594906341948,"140":-0.0011562394419675213,"141":-0.05496630104843947,"142":-0.014435717124962619,"143":-0.08088239281679731,"144":-0.019241611873335555,"145":-0.03573936750880846,"146":-0.025352729517795252,"147":0.004136141759476738,"148":0.03931004199749638,"149":-0.06908293428846198,"150":0.07044672227354513,"151":0.04965179094783868,"152":0.014149056370537575,"153":-0.06378241698317277,"154":0.031555052804230196,"155":-0.13569951290871,"156":0.06562576011128772,"157":0.007170060437896088,"158":0.001633720079960801,"159":-0.06690636204549046,"160":0.07973919672471877,"161":0.09990765851724423,"162":-0.04491640942991787,"163":-0.07105010898823406,"164":-0.05380003293325949,"165":-0.0520068368902189,"166":-0.05424095208591262,"167":0.037611635850532385,"168":0.06341742887432109,"169":-0.028920759937723535,"170":0.051656018437870384,"171":0.049806988252142324,"172":0.04701113153759732,"173":-0.08221166209127555,"174":0.018342427925728457,"175":-0.07669474474230242,"176":-0.01043631735576149,"177":-0.06638392791487387,"178":-0.02274658515253292,"179":0.04958413212105156,"180":-0.00451053111860603,"181":-0.004562586701542098,"182":-0.004834762611590168,"183":-0.01762600330430498,"184":-0.04730717137151008,"185":0.000024699080143551506,"186":0.0703512380429002,"187":-0.05457611149743406,"188":-0.044786806180914275,"189":0.030317688974957815,"190":-0.014153742383225634,"191":-0.027307172469212864,"192":0.010339199484138148,"193":-0.0607329452983701,"194":-0.01718245057063072,"195":0.026016151232926187,"196":0.02848097112299485,"197":0.04745151126552178,"198":0.02986233613942971,"199":-0.018029591606713833,"200":-0.019530033333829536,"201":0.07114317848604391,"202":0.004617760703717974,"203":-0.02217467300514102,"204":-0.009284757820198242,"205":-0.05823575162232299,"206":0.05118185787337199,"207":-0.04258623424349673,"208":-0.014776079081392283,"209":0.15718760148001634,"210":0.01094392474331673,"211":0.009724132897502255,"212":-0.1490112446952845,"213":-0.06485473297348769,"214":-0.014203615712407813,"215":0.01704955741571292,"216":0.02865910241862825,"217":0.022604862401434018,"218":-0.06524189195126465,"219":0.034868221062368254,"220":0.029982242857125512,"221":0.00416510505082406,"222":-0.018355255032063165,"223":-0.008606105897881943,"224":0.025369827410949827,"225":-0.0257137548415055,"226":-0.04750071598599609,"227":0.06942758121694495,"228":0.009568184680809026,"229":0.06537932815002366,"230":-0.019164498463562683,"231":0.0036567252872776635,"232":-0.0021375710747398883,"233":-0.02906375885228071,"234":-0.02307008888426493,"235":0.11528922276603507,"236":0.05971445873792988,"237":0.0251356195780858,"238":-0.03485522331540243,"239":0.018093435862118236,"240":0.012620314409899866,"241":0.0274510123511264,"242":-0.0007095129479495736,"243":-0.026140359720124417,"244":0.06560947983405642,"245":-0.03368220498111372,"246":0.0761590420977179,"247":0.00412039229278325,"248":0.07382940501498374,"249":-0.06905464392958514,"250":-0.046441473706507155,"251":-0.1295603647837731,"252":-0.08188097216945536,"253":0.03456219333169192,"254":0.03415265416945851,"255":-0.00179783096227083,"256":0.08586069279618375,"257":-0.005091157446963378,"258":0.001622210001094511,"259":0.02211496326563515,"260":0.04661145590093146,"261":0.07399253862173835,"262":0.0019398982864183125,"263":0.09439047454081137,"264":-0.004961557496564165,"265":0.009329092684799891,"266":0.06777658960882965,"267":0.04853215308716702,"268":0.051051357761413306,"269":0.04874009474644234,"270":-0.010137318883770691,"271":0.05881070000086152,"272":-0.06491210028960892,"273":-0.006316064729913848,"274":-0.05899135841517419,"275":-0.049612623755031435,"276":0.008303375862925937,"277":0.08246324221645661,"278":0.017047838913106732,"279":0.012487016276801073,"280":0.020737882042375123,"281":-0.0432785403167354,"282":-0.011857872956192242,"283":0.07553186617398504,"284":0.04886098657151742,"285":0.13525839804142242,"286":0.01525824766770778,"287":-0.004453325528519059,"288":-0.05105245735175632,"289":0.01264392405747631,"290":0.006013196642845168,"291":0.050939366713341525,"292":-0.04659829495833535,"293":0.010993228402906676,"294":0.0015529543762487293,"295":-0.02959109882569871,"296":-0.018833688394512386,"297":-0.019867448406527873,"298":-0.002910094131505671,"299":0.006578459316497107,"300":-0.141263400592512,"301":-0.05214177940101417,"302":-0.0377447340800041,"303":0.025459455971597184,"304":-0.004041979071116406,"305":0.022971312916964456,"306":-0.04587707027615758,"307":0.01748353609801591,"308":0.07005705260970628,"309":0.07225776977868968,"310":0.003530907514757163,"311":0.03291827052934116,"312":0.07633594565979174,"313":-0.02698984005523463,"314":-0.060049625565901876,"315":-0.05780602040423696,"316":-0.033527563635243826,"317":0.001991535043408147,"318":-0.05609401178439911,"319":0.02678324499819787,"320":-0.043397999910998304,"321":0.056685865200379326,"322":-0.009119948094383153,"323":0.030039569791720656,"324":0.045055471540458,"325":0.017721987177548488,"326":-0.04324109958834171,"327":-0.05476991651179414,"328":-0.02141064676634899,"329":-0.02750752458158024,"330":-0.036154879871686287,"331":-0.0033926812776620737,"332":0.009694713661394821,"333":-0.04187764662884418,"334":-0.00914687075895174,"335":-0.013412983318756367,"336":-0.0242784759145237,"337":-0.05845297419095177,"338":-0.04610677791885037,"339":-0.013792441791017095,"340":-0.0257847356897919,"341":-0.06855501041265519,"342":0.01607446945674702,"343":-0.00821821491029142,"344":-0.0338598020507982,"345":-0.010245354543989437,"346":-0.02467288680901364,"347":0.07451540839520351,"348":-0.03956671705780985,"349":-0.05987866628453758,"350":0.003230571280246405,"351":-0.04068575309949666,"352":0.04766846732825339,"353":-0.05090283032649926,"354":-0.11830396697916447,"355":0.004196380127939198,"356":0.008319249178438695,"357":0.04146054576051775,"358":-0.033084442922948855,"359":-0.0000028779764892010017,"360":0.040105027117753524,"361":-0.02009601722027031,"362":0.08561627357847851,"363":0.046814125604830406,"364":0.0491953686435235,"365":0.027892503147699893,"366":0.04147984846416776,"367":-0.005159060870225307,"368":0.09235042267701975,"369":-0.08931732899111491,"370":0.058813063103568895,"371":-0.01618085322859268,"372":0.05094891837400067,"373":0.03541292732464285,"374":0.04452934078858374,"375":-0.08920059079567748,"376":-0.041103022325426425,"377":-0.024034276825087547,"378":0.01711869083998681,"379":0.03666045589885435,"380":-0.08108715737371901,"381":0.13777668636042678,"382":0.030491366672179568,"383":0.056906931011766436,"384":0.004171372246871944,"385":0.09677679449999145,"386":-0.0024272589764922107,"387":0.047482321156348414,"388":-0.044361653322208844,"389":0.0679158921739778,"390":0.00984533631325386,"391":-0.006637580341595982,"392":-0.01373036794642351,"393":-0.044366256532279796,"394":0.011514511372370159,"395":0.05025283957823364,"396":-0.05396725662559925,"397":-0.060114102628089486,"398":-0.04877782493150634,"399":0.01797712115671072}},{"sx":5,"sy":5,"depth":16,"w":{"0":-0.06932014568436456,"1":-0.04394633281503858,"2":0.013900519929027685,"3":-0.015658490660305155,"4":0.008168794350917248,"5":-0.04166502062317005,"6":0.043562991663703955,"7":0.04847588648090865,"8":-0.06658165316724096,"9":-0.025468435847824458,"10":0.010175522947322322,"11":0.030019378379479173,"12":-0.05401732349496912,"13":-0.0008963253720782214,"14":-0.04335720624790414,"15":0.04289831470781864,"16":0.02156719042122531,"17":-0.07712085733079933,"18":0.05223681823746825,"19":0.14842195393521812,"20":0.10319719228838568,"21":0.010262332091389798,"22":0.012391261940995216,"23":0.020671320413277433,"24":0.04488577469025421,"25":0.00011399510179119395,"26":0.01513882064565695,"27":-0.05980015992334456,"28":0.010324335590442282,"29":0.008474597027090348,"30":-0.03223955291880342,"31":-0.029025983161965772,"32":-0.053451109380841626,"33":0.007805635485758006,"34":0.043403945820571846,"35":0.09857112350055484,"36":-0.0316497113500631,"37":0.040025383063909466,"38":0.031934110876326034,"39":0.021520298625831116,"40":0.08252580624256547,"41":0.022353395279521224,"42":-0.03482798301981848,"43":-0.021131444338819253,"44":0.06598367802638427,"45":-0.019379207208167274,"46":-0.04560444555569049,"47":-0.056482683732901155,"48":0.08469235963598434,"49":-0.05311481951677411,"50":-0.008291924443612595,"51":-0.06217621497785921,"52":-0.08837221882376478,"53":-0.027901391496565828,"54":-0.02236587398302292,"55":0.10863548956566026,"56":-0.01276154861947108,"57":-0.0402788389591102,"58":-0.01568479219619029,"59":-0.04247403573992774,"60":-0.001814636259515029,"61":0.009260421001372237,"62":-0.019365607874928175,"63":-0.03325764035985325,"64":-0.043408850231627855,"65":0.00639717322496648,"66":0.043597888768487775,"67":-0.011701089507468936,"68":0.022673920723242497,"69":-0.021943156501685816,"70":0.003680962243102032,"71":-0.014516503700222016,"72":-0.0017159130242497475,"73":-0.07663272733103339,"74":0.007439918765977939,"75":0.0841861525417392,"76":0.04315722469750392,"77":-0.11027144344396858,"78":-0.04982912177736462,"79":0.015310054710313582,"80":0.09650660382179117,"81":0.011038710743887084,"82":-0.01865006215461448,"83":-0.012458523290089488,"84":-0.023348061103070514,"85":0.08702729673992936,"86":-0.01360689582973122,"87":-0.05687140421865301,"88":-0.06081609370202011,"89":0.04913210121085747,"90":0.0032398793814634418,"91":0.0011409372984833577,"92":-0.05414581867953884,"93":0.024589625651589245,"94":-0.025104906674319263,"95":0.08274554523341554,"96":0.013793303834030912,"97":0.024220571929000744,"98":-0.0829951663895427,"99":0.008939253517013971,"100":-0.08960771821807725,"101":-0.009404430414931608,"102":-0.05773064558364202,"103":-0.019268276714283356,"104":0.01521323911246425,"105":-0.040039606524250614,"106":0.012555300456012903,"107":0.011271672691453311,"108":-0.04336500983755743,"109":0.06969577271153422,"110":-0.004138042336471089,"111":-0.09369118297631777,"112":-0.09291428850312877,"113":-0.03051334523151838,"114":0.05360286408389688,"115":0.03309058390208413,"116":0.010477344240155772,"117":0.0017052208626117758,"118":0.00888817912548032,"119":0.04733778898125401,"120":0.08390338465661148,"121":0.04338869275167363,"122":0.0202175240411393,"123":-0.09047469174209534,"124":-0.027898221195384855,"125":0.045357089508418075,"126":-0.004216573579500109,"127":-0.0040086162353476906,"128":-0.026947645373375392,"129":0.017583089671525994,"130":0.08097098513901153,"131":0.007288055765188088,"132":0.01292293184032534,"133":0.05324809656016221,"134":0.055381135961637414,"135":-0.05421990358752519,"136":-0.01850372241784621,"137":0.061995583719854315,"138":0.029060472380551573,"139":0.006100967670145498,"140":0.07025329467921416,"141":-0.058063771110934845,"142":-0.08319051249583716,"143":0.04733433223324913,"144":-0.027598815462335523,"145":-0.10721148011856362,"146":-0.029268234114840842,"147":0.004553562712714102,"148":0.02727009771255721,"149":0.0064519530258283124,"150":-0.08810817372460882,"151":0.021941845923831582,"152":0.005504635350534196,"153":-0.043509512554645885,"154":0.0032239398751943466,"155":0.05351724289561899,"156":0.04348428272137152,"157":-0.05659658194922829,"158":0.09099110002898103,"159":-0.028965140817226773,"160":-0.08228686449736229,"161":-0.04883349496991888,"162":-0.015619613158031603,"163":-0.05909271908915143,"164":0.029592537524049993,"165":-0.03403629462376581,"166":-0.05161953965383424,"167":0.003131892024360901,"168":0.003976441754193212,"169":0.07938421906433733,"170":0.011473274031224593,"171":0.020880166177839804,"172":0.04701736168401516,"173":0.045394231158680194,"174":-0.02800785363111443,"175":0.05008673423355034,"176":-0.060106773528824174,"177":-0.06765163933779367,"178":-0.0070003267760769036,"179":-0.006053588182455714,"180":-0.05463978394399091,"181":0.018045743763474058,"182":0.1222075052300833,"183":0.05620599822215029,"184":0.09287289973478156,"185":0.04376664499948399,"186":-0.036407234068823895,"187":0.07654081239437809,"188":-0.0722733299229517,"189":0.027591606765230405,"190":-0.05327512126371019,"191":0.03331885528277301,"192":0.07371483854955138,"193":0.10383189437747929,"194":0.006732846520718491,"195":-0.0037106735837643392,"196":-0.03418521214864808,"197":-0.05204325444695572,"198":0.020704139707103966,"199":-0.049044347715863794,"200":0.0316885150689119,"201":-0.02653726277721708,"202":-0.008174024248655288,"203":-0.02582025160717653,"204":-0.04033892409901262,"205":0.08005871486239179,"206":0.028265036201605812,"207":0.06320263237465047,"208":0.016754320413782213,"209":-0.019353555732534212,"210":-0.028252681570706654,"211":0.02719531275725725,"212":-0.040758192250006264,"213":-0.006800272629601221,"214":-0.009036422887745046,"215":-0.04403668743673664,"216":0.03584094855007836,"217":0.04107190775074482,"218":-0.028248348373172597,"219":-0.09960709646461904,"220":-0.045188518135896305,"221":-0.022618519861819494,"222":0.06582128112287916,"223":0.05424366058259521,"224":0.04965078532053713,"225":0.02225636100628636,"226":-0.064929677479489,"227":0.014326265212784284,"228":-0.032678022567047854,"229":0.0030376757852636745,"230":-0.07875878282059685,"231":0.08416590486582227,"232":0.05477808423750259,"233":0.006228388859908192,"234":-0.013805304695957735,"235":-0.028703185811566646,"236":0.021105790971457823,"237":0.03904047760608125,"238":0.04321898608461768,"239":-0.0625649055450888,"240":0.021353106940785294,"241":0.015001777832152036,"242":-0.08066404262620287,"243":-0.05344155684291867,"244":0.038503111832920135,"245":-0.06223509139323809,"246":-0.058625237864008486,"247":0.04561947163235216,"248":0.0956615824940633,"249":-0.03149985165473679,"250":-0.050388909714630455,"251":0.09235554866493989,"252":0.004194219946984955,"253":-0.06322660172419763,"254":0.021469284358676538,"255":-0.03943841956319562,"256":-0.006469654802435047,"257":0.06490242997935027,"258":-0.041352764097507905,"259":-0.027357510268111267,"260":0.03476871467489417,"261":0.044838612712930014,"262":0.06789828799351673,"263":0.08168198689487988,"264":0.006037870044811526,"265":0.0889820895168511,"266":-0.004907604341071142,"267":-0.027427152096894537,"268":-0.06700039084624487,"269":-0.024824249130863403,"270":-0.06575792811012847,"271":0.05518062067094354,"272":-0.13113589940633052,"273":-0.049037735253253965,"274":-0.027339435193814352,"275":0.004186060517299841,"276":0.1035310172245538,"277":-0.08899035170128843,"278":0.04128452180459192,"279":0.04143427607485331,"280":0.11006097940173928,"281":0.09151359907749576,"282":0.06064061263185723,"283":-0.06549672691970176,"284":-0.002168852850229706,"285":-0.02207778024155268,"286":0.1083542388690666,"287":-0.0000059366283679009035,"288":0.04194067600359758,"289":-0.0323720325886859,"290":-0.029498440816029984,"291":-0.01601648320716613,"292":0.04557147546149094,"293":-0.04317647453535198,"294":-0.08428364892263752,"295":-0.0013476150195203384,"296":-0.04110680098517824,"297":-0.040967647427128634,"298":-0.02658605749205884,"299":0.0037068108527580305,"300":0.0058968780206175115,"301":-0.01781955418001225,"302":0.08979027715676417,"303":-0.0602316564913928,"304":-0.061636513552333766,"305":-0.0069862537737520585,"306":-0.09317023127300295,"307":-0.007221678720509055,"308":0.028746838684455968,"309":0.032341713295946754,"310":0.06375427728082038,"311":-0.07250843543551846,"312":-0.02659564118371478,"313":-0.03239607091790765,"314":-0.05092429061478377,"315":0.03980102451616941,"316":-0.03968774257012953,"317":-0.002171833345953984,"318":0.020153355010864082,"319":-0.010379865986287134,"320":-0.001852517294506949,"321":-0.032212151961151854,"322":-0.07482777775783168,"323":0.03408519080953383,"324":0.01837888995558285,"325":0.02027386401346884,"326":0.03257219194082472,"327":-0.052776689753396014,"328":0.06370141758960832,"329":-0.013696476933724895,"330":-0.04483549463365174,"331":-0.027826822188425682,"332":0.04228448960894477,"333":0.054352132893743035,"334":-0.05654313119478335,"335":0.00677698082520403,"336":0.003552658055836961,"337":0.038257948729597265,"338":-0.046899044065880274,"339":-0.04019580615199842,"340":0.006257366992579852,"341":-0.018695531204177877,"342":-0.023502085342026774,"343":-0.01040137077644605,"344":-0.04516616186523086,"345":0.032483626271265845,"346":0.027664837959932465,"347":0.013790709493718172,"348":0.09632225277322745,"349":0.05327028108917257,"350":0.03429243534981906,"351":0.0026042062865399666,"352":0.013336850619661398,"353":-0.07160974849196425,"354":0.021978097370601073,"355":0.02528721031322393,"356":-0.03483871555803379,"357":0.02875654124627788,"358":0.09080492793026332,"359":0.04357882028852651,"360":-0.014870380977159911,"361":-0.07864088586950915,"362":-0.0670629579583108,"363":0.08698553719127694,"364":-0.006293863707500566,"365":0.0024304654887538453,"366":-0.06429125781582283,"367":0.028772302786038755,"368":-0.010305532168610224,"369":-0.05802602643827407,"370":0.026856936315173875,"371":0.12136192234945528,"372":0.07504021878276933,"373":0.0271876609300157,"374":-0.014108190675747392,"375":-0.026804660630455907,"376":-0.0017693349667104695,"377":-0.055566402417595064,"378":0.05442844749014575,"379":-0.01528163242792332,"380":-0.06708079384751867,"381":-0.012603956709275806,"382":-0.014248031011569608,"383":-0.029228847528257995,"384":0.10420371898262935,"385":0.019236082962148824,"386":0.01668873966764289,"387":-0.00010480028268153394,"388":-0.04460515965680891,"389":-0.03468331513497837,"390":-0.024277260290325283,"391":0.0012234265278923337,"392":-0.027288185679593527,"393":0.022752328245881148,"394":-0.03153599695777011,"395":0.045808472963177686,"396":-0.005054978640003125,"397":0.03846402765075164,"398":-0.05841224235998203,"399":-0.024394569825414936}},{"sx":5,"sy":5,"depth":16,"w":{"0":-0.011155315398842684,"1":-0.04029648871707087,"2":0.012765901335492692,"3":-0.06408124834671879,"4":-0.013139457902024199,"5":0.06518384588922228,"6":-0.0771164569162114,"7":0.023171651955588485,"8":0.010552052647852098,"9":0.035776295980362006,"10":-0.07438826770874897,"11":-0.04413105522959268,"12":-0.06989098271141209,"13":-0.026156655078086503,"14":-0.020346423471861306,"15":0.08984178848093806,"16":0.003121621496390819,"17":-0.0646316818135163,"18":0.020631567237183627,"19":0.017313977956737885,"20":0.11786318805170702,"21":-0.00319988581736863,"22":-0.02168054476021879,"23":0.0892039470498228,"24":0.0039565190209339554,"25":0.04543610301358564,"26":-0.0005251198563449334,"27":0.04108255166548257,"28":0.02859949892430031,"29":-0.04743687023863749,"30":-0.044130936958279895,"31":-0.014603265156329523,"32":-0.016020177914445925,"33":0.03363374465099581,"34":-0.03898801064240987,"35":0.024595964818198875,"36":-0.005140108882019198,"37":-0.021478251201256786,"38":-0.03621972394704609,"39":0.09315627267374099,"40":0.027078517494660635,"41":0.03103184688416385,"42":-0.04175430357118142,"43":-0.07165872041034907,"44":0.004273981688822069,"45":-0.04415733268459904,"46":0.012255254650674879,"47":0.0028407377688052303,"48":0.02326976195150032,"49":-0.005632845770540159,"50":0.015589171863114345,"51":0.009461176982972243,"52":0.010042347089062077,"53":-0.056525281448166396,"54":-0.02811939814257981,"55":-0.07375471040673573,"56":-0.05186416913571011,"57":0.046246278091749325,"58":-0.07130632144379044,"59":0.007966937403058842,"60":0.003956862275009906,"61":0.02475607178023618,"62":-0.07070045341578914,"63":0.0648567800509425,"64":-0.008509768995024845,"65":0.016991978826607548,"66":-0.05385765626070867,"67":-0.0945810921030436,"68":0.057991530418721335,"69":-0.06838413631759467,"70":0.007364589262384632,"71":-0.017570711168914267,"72":-0.06360489853878006,"73":-0.06024427432404368,"74":0.004850659892722247,"75":-0.0060135910744104,"76":-0.02816676137671544,"77":-0.005094220515263613,"78":0.03768793560794411,"79":-0.15378709230049237,"80":0.013600559709319168,"81":0.06447197371462432,"82":-0.010685546280297182,"83":-0.006945199888809582,"84":-0.018724847131894352,"85":-0.084590643131433,"86":0.0021020475685760084,"87":0.01810068364592042,"88":-0.024455206400157165,"89":0.09772593591654072,"90":-0.009455449838950565,"91":-0.0471940156335599,"92":0.027460893675060855,"93":-0.055776168822057555,"94":0.04237397245335546,"95":0.08506205025834589,"96":-0.06636872758917016,"97":-0.004190289126899768,"98":-0.016944718972255923,"99":0.006284457809857109,"100":0.018367433525511966,"101":-0.01696773306566632,"102":0.013846149585965358,"103":0.01747129876113957,"104":-0.04176646977668824,"105":-0.011115386242196566,"106":-0.05321238965231387,"107":-0.0175457211861745,"108":-0.021274026829507152,"109":-0.02652858459207104,"110":-0.025317114168259484,"111":-0.03763056629894569,"112":-0.05327746968096003,"113":0.1097516191564444,"114":-0.005216078505400387,"115":-0.030840379429852197,"116":0.02480750710876102,"117":0.10478874565792325,"118":-0.014519230890800969,"119":0.03430231069010773,"120":0.012294027638317228,"121":-0.08971175436611525,"122":-0.02409333613151374,"123":0.00929827929792755,"124":-0.03955470427910313,"125":0.006790197913814488,"126":-0.009379283710908274,"127":0.06974729629175698,"128":-0.005097433136007688,"129":-0.013481227057196041,"130":-0.023943285809780085,"131":0.09616236924852294,"132":-0.051515050299961486,"133":-0.06128864234798154,"134":-0.019134055769319994,"135":-0.040824708592571056,"136":-0.05252648359467966,"137":-0.07290010209594518,"138":-0.012238776971765694,"139":0.05166635360654805,"140":-0.08787067766514162,"141":-0.01684259039761566,