{"layers":[{"out_depth":3,"out_sx":32,"out_sy":32,"layer_type":"input"},{"sx":10,"sy":10,"stride":3,"in_depth":3,"out_depth":4,"out_sx":9,"out_sy":9,"layer_type":"conv","l1_decay_mul":0,"l2_decay_mul":1,"pad":2,"filters":[{"sx":10,"sy":10,"depth":3,"w":{"0":-0.04793467096725595,"1":0.019012620392352318,"2":0.036846416636895356,"3":-0.02795514256046664,"4":-0.005861251599023872,"5":-0.10696550951588166,"6":0.05689760105575111,"7":-0.05015086445241653,"8":-0.07376388476745997,"9":-0.06851751577784074,"10":-0.050438630264434584,"11":-0.015152741727269901,"12":0.03563360411755791,"13":0.02359186851525908,"14":-0.038574029357891434,"15":0.04544684930285318,"16":0.06904833377274182,"17":-0.023639556737393406,"18":-0.06020931670733462,"19":-0.04773354857068192,"20":-0.12043407911746362,"21":0.01151824286071416,"22":-0.06736350511845329,"23":-0.03643580508701427,"24":-0.054733880039673034,"25":-0.0418804864025107,"26":-0.11310143815144148,"27":-0.030768402233537405,"28":0.03450258738142035,"29":-0.0377237656100267,"30":-0.009532440845776912,"31":-0.048672857240061956,"32":-0.05513227337705129,"33":-0.0011366280377127502,"34":0.010435071504982876,"35":-0.03075768782767981,"36":0.09695391870078975,"37":-0.012036992723966395,"38":0.002537219830064728,"39":0.03104147495476352,"40":-0.061148153197076595,"41":0.014305241071434771,"42":0.005793718403607699,"43":0.027311298008411495,"44":-0.08012320418798398,"45":0.05789407060420954,"46":0.027592353200844764,"47":-0.08031645896336409,"48":-0.018782946839956568,"49":0.04671484915613523,"50":-0.05430404874358648,"51":-0.12910508571372173,"52":-0.1849195217050882,"53":0.00908589739617505,"54":-0.053032094287748126,"55":0.0070798650478519996,"56":-0.02326843275670979,"57":-0.030447466422058866,"58":0.002492747320113637,"59":-0.010659318819600604,"60":0.12044738373553651,"61":-0.027465969666728957,"62":0.026937813408566633,"63":-0.02523467327480219,"64":0.012344282112719537,"65":0.10007613694570426,"66":0.027530674372800427,"67":0.04869474808555141,"68":-0.0684652792795215,"69":0.07195759007680229,"70":-0.04641209243303137,"71":0.00895305652813575,"72":0.04398214541976733,"73":0.03949036698356184,"74":0.06499728537994613,"75":0.0004600657160083363,"76":-0.006794938557531384,"77":-0.06293778484151939,"78":-0.1136260444322997,"79":0.003786225777875964,"80":0.01656496575161024,"81":0.015047158223099582,"82":0.03204242002833363,"83":-0.08433403770324893,"84":-0.02107844897511479,"85":0.002925888517587214,"86":0.03179931782888483,"87":0.06468459290998749,"88":-0.07700929287719487,"89":0.019742701764785778,"90":-0.011182026512360735,"91":-0.004924436097492122,"92":-0.03166281367755543,"93":0.03435245789918677,"94":-0.023006756315809757,"95":-0.05363002364464974,"96":0.018003890548081266,"97":0.013683276992558566,"98":-0.07537169534678856,"99":-0.10057813585037946,"100":0.06940585235565536,"101":0.061520509094450976,"102":0.01952090117035429,"103":0.006871882819050525,"104":0.09538750205362428,"105":0.06427667376590747,"106":-0.05637712322927048,"107":0.11905658501787122,"108":0.001728480357635013,"109":0.08922825505492413,"110":0.030577650766621566,"111":-0.018879342479807652,"112":-0.0628197703212804,"113":-0.01956054207556745,"114":-0.0023107848737854084,"115":-0.020194382196127944,"116":0.03457320786736032,"117":0.007970779272050275,"118":-0.07457903811995749,"119":0.07846250900995454,"120":-0.012055222673317654,"121":-0.07536912730030036,"122":0.012498919301746004,"123":0.006239018634197492,"124":-0.05585847750747139,"125":0.01676269046922551,"126":0.06554093223097078,"127":0.022633177663328473,"128":0.047670093973562186,"129":0.023356478823885987,"130":-0.0736890217199644,"131":-0.048225201147812445,"132":0.06675391240705646,"133":0.035504728888382166,"134":0.04844660795930225,"135":0.03914177661993069,"136":0.022173135813448562,"137":0.028803856431730918,"138":0.014716263282743149,"139":0.05354605631328488,"140":-0.10730126690737339,"141":-0.13267570405903456,"142":0.10385525816317834,"143":-0.05911773465956357,"144":-0.055010396469683906,"145":0.02255427397592216,"146":0.055238423748592023,"147":-0.06583981811811287,"148":-0.06152856111334821,"149":-0.016596801583991665,"150":0.08409782277272834,"151":0.012493668096450982,"152":0.057843692617303405,"153":0.1283945599927729,"154":0.07521559394955026,"155":-0.01985576699905131,"156":0.0887070720899213,"157":-0.12549547597405422,"158":0.050813557956855174,"159":0.1307289087777599,"160":-0.02358273491160207,"161":-0.003921779944079324,"162":-0.06577944925324647,"163":0.07732857980902107,"164":-0.08513448917265158,"165":0.030327664915432536,"166":0.023193533141816654,"167":0.002871002124312254,"168":-0.015076270496409572,"169":0.001748443696647626,"170":0.0662907812821837,"171":0.010132657803907291,"172":-0.10928521895711957,"173":-0.013622583036098134,"174":-0.07031601558622753,"175":-0.020726242598665547,"176":-0.1049559384906243,"177":-0.07769922986231043,"178":0.09948838240614248,"179":-0.01105697546294743,"180":0.013328521111213291,"181":0.00431878054263835,"182":0.043462841229405,"183":0.07642931484843166,"184":0.017822295421072016,"185":-0.026141480095572697,"186":-0.03985040741659572,"187":-0.018717738360165312,"188":0.07325410661957511,"189":0.06927535945774362,"190":0.005304692009142292,"191":-0.02632216407376265,"192":-0.021047447563051314,"193":-0.03445903918362052,"194":0.04193176597158676,"195":0.03627971349954826,"196":0.02053765926842862,"197":0.06433302440452034,"198":-0.008986008541341621,"199":-0.06997240965753386,"200":-0.027267194732727165,"201":-0.10776371076197025,"202":-0.04524328281780155,"203":-0.051827139951823316,"204":-0.014370384060020006,"205":-0.04146454053726389,"206":0.041050515775938906,"207":-0.06319607965023334,"208":0.03599620739626107,"209":0.01885815482550323,"210":0.013273358060035823,"211":0.05033741388194365,"212":-0.03276768845752573,"213":0.05596265695183097,"214":-0.027692921742179157,"215":0.06142419186610636,"216":0.06586906545505189,"217":0.034034283969310804,"218":-0.11424706141571954,"219":-0.0037984012852773446,"220":0.052480799800022855,"221":0.0222678603632534,"222":-0.0708197869628243,"223":-0.03368724706610653,"224":0.04694965495777669,"225":-0.09633540056061356,"226":0.022196374725712637,"227":-0.013545371569529034,"228":-0.0021351864324683587,"229":-0.08029737143881205,"230":0.01976393981539039,"231":-0.06887248951991724,"232":0.021004844385608065,"233":-0.04986718108358818,"234":-0.041577138923360235,"235":0.03820684995760568,"236":-0.03502687262689208,"237":-0.02346575997510738,"238":0.0007548555400462564,"239":0.09247600870221474,"240":-0.015588561205669246,"241":-0.06581203761774197,"242":0.049284688191112445,"243":0.025084019471389697,"244":0.06692773522089857,"245":0.03032693694458862,"246":0.06747021525169283,"247":0.08457073685466628,"248":-0.008506859379724091,"249":0.07218632610599188,"250":-0.011839966524948887,"251":0.024576819299901114,"252":-0.0888426147094496,"253":0.037939376000179645,"254":0.057919549344699194,"255":-0.06698726398749753,"256":-0.00033423160932305983,"257":-0.021105650394373926,"258":-0.05455267853773492,"259":0.05967748802622521,"260":0.009738114430559781,"261":-0.08072206638246159,"262":0.02934629094480269,"263":0.07872537985175324,"264":-0.06280763477095315,"265":0.042002102603040534,"266":0.08217080378276723,"267":-0.11912954108266222,"268":0.09705102481374307,"269":0.06759041530861147,"270":-0.04262321111086957,"271":0.1424242902521092,"272":-0.010662872200261412,"273":-0.04515464737105927,"274":0.10383058769032315,"275":0.07694718981845347,"276":0.186602040863111,"277":0.035483431775384336,"278":0.0976395758273264,"279":0.10153022449271928,"280":0.09173384166785935,"281":-0.0021614863409247197,"282":0.05187622935955923,"283":-0.006442377227992704,"284":-0.024595892573599214,"285":0.06723744156499209,"286":-0.02179979590126987,"287":0.04578872596786162,"288":-0.05492887801936724,"289":-0.02040479368567334,"290":0.07589601289116854,"291":-0.002421229412177305,"292":0.01650110474261742,"293":-0.05846330707582068,"294":0.038582506296859685,"295":-0.023325469695010304,"296":0.13775933397395937,"297":0.07209495960296297,"298":0.11132998983052585,"299":-0.03786632952331783}},{"sx":10,"sy":10,"depth":3,"w":{"0":0.016638452073872014,"1":0.09140077925818249,"2":0.047502103375512326,"3":-0.0065952917866393184,"4":0.027443796263375304,"5":0.044351751534870705,"6":0.07804780073820389,"7":0.07601053342142902,"8":-0.019599350414130755,"9":-0.02017537790260611,"10":-0.05792578244405314,"11":0.00596546255356796,"12":-0.10628240922472582,"13":-0.017763627661870493,"14":0.07807826710559383,"15":-0.08937973938193418,"16":0.0038304748919931794,"17":0.08955852693235516,"18":-0.005472321690580219,"19":-0.029406641659392226,"20":0.03272117846254999,"21":0.058809796871105546,"22":0.060571331078212845,"23":0.03721711579848069,"24":-0.05663192690694739,"25":0.08968796863260742,"26":-0.023144681882820338,"27":-0.12481801616194275,"28":0.027132691476052902,"29":0.1468106473186208,"30":0.027756150347003974,"31":0.10318350896559826,"32":0.026678138986380658,"33":0.017137434586019847,"34":0.02271929208143507,"35":-0.009062357920865018,"36":-0.1031191761763913,"37":-0.01897450645714711,"38":0.01773226216110805,"39":0.015559796476198068,"40":0.02692254529574663,"41":-0.04200020651143405,"42":-0.08270434056846132,"43":-0.0007468667006081792,"44":-0.05118137430473059,"45":-0.05080757248302232,"46":0.10291195376461167,"47":0.13540684659474178,"48":-0.044847619419933406,"49":0.0703467571768854,"50":0.019380345151550134,"51":0.0031323007762593504,"52":0.05773756160441934,"53":0.014454726647205193,"54":-0.03138821931838054,"55":-0.017313059272773226,"56":0.08412291245541687,"57":-0.015562826879780447,"58":0.05499535510019263,"59":0.0793635002663647,"60":0.048572592245828015,"61":0.06963400816665569,"62":0.02092760084568534,"63":-0.030838990064945,"64":0.08471526743311564,"65":-0.010606735361880908,"66":-0.017729533943419282,"67":-0.047703502269050325,"68":-0.04882461482113151,"69":-0.10580969052519107,"70":-0.10996464103410122,"71":0.07668550080162133,"72":-0.05351685764105351,"73":0.013503363817950358,"74":0.032299274485608216,"75":-0.06269737817762926,"76":0.056757658912825255,"77":0.050574561785554396,"78":0.0413269162742711,"79":0.025765100317393864,"80":-0.023547901180414957,"81":-0.019168535844458223,"82":-0.011923367356486051,"83":0.045987788790357406,"84":-0.12424907071329298,"85":-0.00824819224869374,"86":0.06292040038200661,"87":0.014576935094515141,"88":-0.037477605715114104,"89":0.06421046500982741,"90":-0.024374020467164095,"91":-0.056925542762490886,"92":0.1446058190175107,"93":0.027874643220138773,"94":0.06534629966370126,"95":-0.041880252582938544,"96":-0.03479150786380814,"97":-0.017568796343655067,"98":-0.08788583756014853,"99":-0.05647902657274255,"100":-0.03971643821594259,"101":-0.03674883619933655,"102":0.11769088337684248,"103":-0.049971653342416905,"104":-0.05633005275131726,"105":-0.034886963431343655,"106":-0.056105756771466134,"107":0.003063800819707113,"108":-0.054169889964202904,"109":0.010996023039890227,"110":-0.060474362677420956,"111":0.010062184548809562,"112":0.0839405329704823,"113":0.008990938575255628,"114":0.00444708644610245,"115":0.015622679619294979,"116":0.060115228049813764,"117":-0.0452438023751324,"118":0.009519450441042358,"119":-0.015862124629610903,"120":-0.04001082880966068,"121":0.070167593654068,"122":0.11519003882123717,"123":0.127280590777337,"124":-0.03745828335051764,"125":0.08081213578398834,"126":0.02391755434213256,"127":-0.02365748478631688,"128":0.133676641812341,"129":-0.00995290197339081,"130":-0.07940610278550227,"131":0.023035425505346135,"132":0.06581300112792993,"133":0.0068968838002342716,"134":-0.015983181692027906,"135":-0.011915991207577175,"136":-0.07867750541748789,"137":-0.07487973205894412,"138":-0.10258946360142851,"139":0.08259315126985108,"140":0.009031719577195018,"141":-0.11367687769382984,"142":-0.03124079934443881,"143":-0.0193231217336962,"144":-0.053168606642116804,"145":-0.06141877141285664,"146":0.032381889236443445,"147":0.07762871546891371,"148":0.01998653713148171,"149":0.03414871369875459,"150":-0.09625953181613862,"151":0.024096370307917326,"152":0.012727304882450859,"153":-0.039995539348225105,"154":-0.11196350659170573,"155":-0.08427858135076274,"156":-0.0707493452689021,"157":-0.05647758934237007,"158":-0.11522700000387734,"159":-0.03268621292311912,"160":-0.029777668060794724,"161":0.08968238520026993,"162":-0.0673297067261391,"163":-0.04691545520527062,"164":-0.020285668325455343,"165":-0.053381663515854265,"166":0.012960249664321334,"167":-0.015446176790348888,"168":-0.180017539764292,"169":0.054104638947582745,"170":0.047352143376698415,"171":-0.014872284314539803,"172":0.015486743900302021,"173":-0.08547183795396238,"174":0.024468607730501662,"175":0.05443021780610074,"176":0.017476392537813957,"177":-0.1458305679448653,"178":-0.02396846722461961,"179":-0.02252347101846522,"180":-0.026161929335894837,"181":0.01929132501779705,"182":0.06081638764984993,"183":0.0695063274651975,"184":0.03012595110549255,"185":0.06875052671881686,"186":-0.08858015206060281,"187":-0.013477777203048541,"188":0.088848696988439,"189":-0.10573738858180753,"190":-0.011826966174824429,"191":-0.0430078636910412,"192":-0.049477233733267935,"193":-0.06257657528310372,"194":0.05202849588049416,"195":0.0014155379571403226,"196":0.06729719669432584,"197":0.13416870155983182,"198":-0.011039273970743727,"199":-0.01772619685740475,"200":-0.004723837882227683,"201":-0.0336097919711257,"202":-0.0047950133119386154,"203":-0.034401503290811625,"204":-0.03290803172854403,"205":0.026449166163165637,"206":0.023904154553959545,"207":-0.011336746084896073,"208":-0.08550856205299101,"209":-0.11232386681297286,"210":0.04280345588708577,"211":-0.013263166272734597,"212":-0.049447893472521764,"213":-0.05220433122638109,"214":-0.0077975869267349,"215":0.02211314050010111,"216":-0.03937767224914595,"217":0.03155981376778358,"218":0.011042881779516537,"219":-0.011470761624054039,"220":-0.024065603326151173,"221":0.08812204499868731,"222":-0.016065598366796673,"223":-0.024556128497537275,"224":0.006072656881405742,"225":-0.11916478780980481,"226":0.07884998459494592,"227":-0.04830727501697678,"228":-0.09225054317750209,"229":0.07106452174616493,"230":0.02954595774973129,"231":0.10319635557688676,"232":0.04901771402053073,"233":-0.021981006702361857,"234":0.0036590578470409455,"235":0.06313341446284101,"236":0.1459008258933946,"237":-0.031413869297119486,"238":-0.09835335392588107,"239":-0.09286425340781229,"240":-0.10332681489045176,"241":0.05101649122102748,"242":-0.03613955756660761,"243":-0.006517595229321756,"244":-0.13648958494703392,"245":-0.08790885126008706,"246":0.011302109553507089,"247":0.0663620332583372,"248":-0.013834162246740427,"249":0.08464234201803775,"250":0.005568582090270684,"251":-0.062055562512802774,"252":-0.008175359478401143,"253":-0.03126527939761411,"254":0.07285267233380961,"255":-0.07182524146834696,"256":-0.030150000928005856,"257":-0.06557855926016998,"258":-0.043299306367491366,"259":0.01636098399902863,"260":-0.0008585295727918071,"261":0.1226772940765449,"262":-0.0831132418524784,"263":-0.027187960005696225,"264":-0.012432535252301001,"265":0.08855279198485463,"266":-0.002086873923753685,"267":0.09525603384253664,"268":0.05545666348285763,"269":0.07423668036366649,"270":0.005400158425981982,"271":0.008448220869543251,"272":0.030717547668704936,"273":-0.06993766955092648,"274":0.02690099845774342,"275":0.03400681148297618,"276":-0.015301691954952842,"277":-0.0014041967850458828,"278":-0.022992923961494587,"279":-0.04306621209682307,"280":0.037309875054974635,"281":-0.061010657649391266,"282":0.07545231747689386,"283":0.11859152476179466,"284":-0.03321159802782444,"285":-0.010734845075549223,"286":0.026931644387667077,"287":0.020952813237990222,"288":-0.07431595145494778,"289":-0.16039456272903496,"290":-0.030950763220107622,"291":-0.09975347539315121,"292":0.01721313828762052,"293":-0.04750688454450876,"294":0.029273385671629727,"295":-0.09169823484856528,"296":0.051514797372105244,"297":-0.0947827752852385,"298":0.005403516948567591,"299":-0.005368045638847623}},{"sx":10,"sy":10,"depth":3,"w":{"0":-0.2134165721711473,"1":-0.04394943762845607,"2":-0.15921732865250943,"3":-0.059660632512319164,"4":-0.049515149628933906,"5":-0.13168609987906935,"6":-0.11469102983832757,"7":-0.15800082478969613,"8":-0.08165405813609301,"9":0.06726713508555274,"10":-0.12042381357466014,"11":0.011196420097781594,"12":0.014404056401310645,"13":-0.07750352999498429,"14":-0.011712721381503768,"15":0.06175995996852632,"16":0.06649916193185988,"17":-0.029736913697346185,"18":-0.07533715968891722,"19":0.005360174408231836,"20":-0.050438859290500404,"21":-0.06985720525176647,"22":0.00006482194326927612,"23":-0.0025891294447354836,"24":0.022565386438719533,"25":0.043655952459181524,"26":-0.0065392887043402015,"27":-0.0464056524143144,"28":-0.015202746095492364,"29":-0.04995499350099222,"30":0.0634048743484932,"31":-0.09378238073060026,"32":-0.047624606225478844,"33":-0.027313216259585996,"34":-0.004379504920362085,"35":0.003762471013345493,"36":-0.09797591234798354,"37":-0.07792844412025347,"38":-0.032997978116641805,"39":0.008729224411100276,"40":0.029689659688525,"41":-0.11534844579624377,"42":-0.007060932667788022,"43":-0.04640154853913983,"44":-0.07934978256262043,"45":-0.01604744941490869,"46":0.1308287246742438,"47":0.018654413837837645,"48":0.08693852249511595,"49":-0.024330738318907228,"50":0.05921536574216092,"51":-0.011789173356155912,"52":-0.04626217864030249,"53":0.009450985281033285,"54":-0.1086071845589282,"55":-0.0245368387767545,"56":-0.01416493068517421,"57":-0.13147711127545597,"58":-0.13479555207689203,"59":0.03929410958582147,"60":0.0558007518009106,"61":-0.0777748911164274,"62":-0.044227164337363706,"63":-0.09587827065682492,"64":-0.043172582793552065,"65":-0.04676867693290383,"66":-0.05420239056514352,"67":0.0628525769290485,"68":-0.030768946852932973,"69":-0.0034808650193414213,"70":0.055195953872874494,"71":-0.01284825164151637,"72":0.011245424415263544,"73":0.07295301204862817,"74":-0.048012471428578785,"75":-0.05066301090264519,"76":0.020790306823252412,"77":0.019252363775748862,"78":0.011193658896009984,"79":0.022422379497106865,"80":0.1031827173590012,"81":-0.0026097672007884256,"82":0.12026520713541825,"83":-0.022020636593904203,"84":-0.033117701049260456,"85":0.016645568986855666,"86":-0.027717618458762392,"87":-0.07745330079464362,"88":-0.022719605442137907,"89":0.030642469583618968,"90":-0.010995400388609727,"91":-0.04704607065749715,"92":-0.03437668636904367,"93":-0.07014422175306324,"94":-0.10433370751296382,"95":-0.04875084769011425,"96":-0.030931656336857214,"97":0.06954058872448655,"98":0.017966660417079543,"99":0.08215892874371925,"100":-0.02068242182881074,"101":-0.012245850584583958,"102":0.06886204795839224,"103":-0.11306464746450647,"104":-0.010622781360188314,"105":0.030571076834623984,"106":-0.06620932499872427,"107":0.02740460559981973,"108":-0.03944609781655512,"109":0.04903194023831193,"110":-0.0532290579650542,"111":0.06327122807026443,"112":-0.12110483252572969,"113":-0.037457580821368415,"114":0.11489971416169752,"115":-0.0443642367386052,"116":-0.09858066031026186,"117":0.021904274679560756,"118":-0.014040660137765983,"119":0.0226357306170381,"120":-0.007911212531546311,"121":-0.07336825623350472,"122":-0.02341839339759863,"123":0.023016532765765242,"124":-0.03492678708786958,"125":0.04605497397124881,"126":-0.001113320808925053,"127":-0.00280962881022917,"128":-0.026113698581495537,"129":0.0928369908162325,"130":0.026977194338219837,"131":0.023971841033562032,"132":0.05420858759523337,"133":-0.030739204164646733,"134":0.13482707324631438,"135":0.08028551722509428,"136":-0.06953398430136033,"137":0.00181235941722934,"138":0.015235879537509435,"139":-0.06269543754354681,"140":-0.06551288396042781,"141":0.02978273806678909,"142":-0.0037089341347457264,"143":-0.11261258494388646,"144":-0.02158202517304602,"145":-0.08829456766411431,"146":-0.04536314096184211,"147":-0.08459386910858822,"148":0.04682394388585522,"149":0.06148416315626247,"150":-0.003610637078892124,"151":-0.007023912980362607,"152":0.014888333414680223,"153":0.07714305383564508,"154":-0.00339445011658369,"155":-0.07277362912933774,"156":0.04268195794938891,"157":-0.05381770857055992,"158":0.03681406168659975,"159":-0.06126566993201911,"160":-0.009331940081382798,"161":-0.009214517426258588,"162":-0.030438692794356816,"163":0.10662886622781972,"164":0.025780189395640876,"165":0.05594743867795877,"166":0.050429384530734034,"167":0.028642610780202197,"168":0.0026503602718594937,"169":-0.07023985178780195,"170":0.11462018151636835,"171":-0.03494519605842616,"172":-0.05629156693802084,"173":0.04991847075617988,"174":0.012126389960496115,"175":0.06261100793249293,"176":-0.06268613854261917,"177":-0.07230874072169366,"178":-0.057701852078902126,"179":-0.024749576321961477,"180":0.018504564792749884,"181":-0.033012375865135606,"182":0.012662424560595678,"183":-0.029352305340273697,"184":0.021877912372705068,"185":0.10976109957676562,"186":0.07552550220952012,"187":-0.06309740628183254,"188":0.07917773200745228,"189":-0.01149882646826243,"190":0.05130561090148154,"191":0.009566326417852836,"192":-0.04043393524454157,"193":-0.012504236784839806,"194":0.06128185069287204,"195":0.02152625418893183,"196":0.09779470835833806,"197":-0.008394591381215354,"198":0.03351231364516432,"199":-0.02355164153844237,"200":-0.030703242353226523,"201":-0.04140010570838619,"202":0.0376130264984051,"203":-0.07455094623358832,"204":-0.12857157260255409,"205":-0.06275345133331894,"206":0.030077924759423273,"207":-0.007103261021587585,"208":0.01455934240331182,"209":0.02925908917735764,"210":-0.003226874724734154,"211":0.06918908459745042,"212":0.04609931393607443,"213":0.07128036075431107,"214":-0.003982375267332567,"215":-0.051389831725555515,"216":0.03292468084839306,"217":0.043444928031974174,"218":0.012646997269511025,"219":0.12158569425275298,"220":-0.02197213757525732,"221":0.03621330149963801,"222":0.054899421961776884,"223":0.0035738431987394664,"224":-0.006484522402625242,"225":0.021422565091540183,"226":-0.036826718015478085,"227":-0.04353365574803963,"228":-0.005620240030749533,"229":0.025915767030649916,"230":-0.03537110062880475,"231":0.05918891489479238,"232":-0.020616633721924682,"233":-0.017499549052534775,"234":-0.023592123122700766,"235":0.004817101182928615,"236":0.055510138932430425,"237":0.0065550420483112245,"238":-0.03107041943855395,"239":0.06069850366970796,"240":-0.0329061011424895,"241":-0.05357789074694323,"242":0.03271978104823356,"243":0.008666945389642489,"244":-0.0061747685048640834,"245":-0.02628430228742002,"246":0.0035899924178620546,"247":-0.14783434035683557,"248":0.04660264674031549,"249":0.11352750521199406,"250":0.0533347311256926,"251":0.07150216118465554,"252":-0.019071245432317897,"253":0.01579561496673388,"254":0.057745228157639175,"255":0.02572948334318827,"256":0.01256698251943272,"257":-0.03177464439210126,"258":-0.02978780990753678,"259":0.040813835429366827,"260":-0.018222709044047436,"261":0.013248085195866066,"262":-0.000201530964452302,"263":0.021669767677367842,"264":0.028605583753983397,"265":0.06594887551281717,"266":0.037751445661134864,"267":0.10065574595229324,"268":0.09517268648515922,"269":0.01335556325100201,"270":0.05693743619440903,"271":-0.06085769561011025,"272":-0.04224465678300492,"273":-0.09123729852569545,"274":-0.016559592855158702,"275":0.05705527749914582,"276":-0.0006638290459026511,"277":-0.019070816987402952,"278":-0.02838742934105983,"279":0.012701426348075634,"280":0.031205277683526676,"281":0.011324928094398373,"282":0.02741371303064662,"283":0.035059450397898005,"284":0.0599252806076949,"285":0.06867380146930696,"286":0.11960257551645413,"287":0.01072012483414517,"288":0.05144469192070408,"289":0.0009913694515982403,"290":0.052239177139312594,"291":-0.001779685522599321,"292":0.051872825453798066,"293":-0.014846070842888168,"294":0.020858684824308794,"295":-0.036211972119147305,"296":0.05022182338912787,"297":-0.04588572488872299,"298":0.053760210725070486,"299":0.15278864418856583}},{"sx":10,"sy":10,"depth":3,"w":{"0":-0.10852209847121552,"1":-0.08065209295991246,"2":-0.10702213168580998,"3":-0.03496930264142401,"4":0.05025257521321677,"5":0.03290607637135452,"6":0.10623017759165775,"7":0.014815494961579476,"8":0.002781236816010649,"9":-0.0750508684752547,"10":0.01796520616726279,"11":-0.04588186502445074,"12":-0.08206712159120466,"13":0.07542116060570972,"14":-0.11353384158060541,"15":-0.047756904497068375,"16":0.03688689722668491,"17":0.0852278205035618,"18":-0.008634675450744499,"19":-0.010195183540969863,"20":-0.06716163943617275,"21":-0.03650823678902925,"22":0.00345225116016229,"23":0.006685166774655775,"24":0.1409224993475746,"25":-0.029709527216116235,"26":0.05473732592903436,"27":0.1913120129937417,"28":0.07452589821712322,"29":0.03596494219614525,"30":0.0124929562959071,"31":0.01612325705184738,"32":-0.06799452506757735,"33":0.03651616952575545,"34":0.14260366320154838,"35":0.008840562303165165,"36":0.06413296565560414,"37":0.007647938347649059,"38":-0.044520714829595645,"39":-0.03607571815917095,"40":-0.02324327614563515,"41":0.0032483400873699747,"42":0.020673798589939132,"43":-0.07419469737494136,"44":-0.026542042985804128,"45":-0.05504759868155892,"46":-0.13812783637053053,"47":-0.061830564239845814,"48":-0.022278764615247994,"49":0.026009879743765382,"50":-0.03457282237746697,"51":-0.01934034855084786,"52":0.029266310597403304,"53":-0.0351953641043896,"54":-0.03297291615627425,"55":0.0019224469099404036,"56":-0.038259924575552245,"57":0.05172985636854384,"58":-0.0572688047359521,"59":0.061280902108968055,"60":0.025167728925331256,"61":-0.017089504178708456,"62":-0.016770700322995425,"63":0.018890314840845294,"64":-0.04860727562364141,"65":-0.04226724259014794,"66":0.09151186829179,"67":0.03490055994628442,"68":-0.0577616557390271,"69":0.14857015087907832,"70":-0.04440526794065326,"71":0.008118370505544575,"72":0.06737104750243093,"73":0.018889540322760242,"74":0.09606183152519232,"75":-0.05310129688282169,"76":-0.02639345383749308,"77":-0.052621418287167175,"78":0.0500531295927477,"79":-0.03398341764127513,"80":-0.007585026671192076,"81":0.02734989172523933,"82":-0.09550307064233834,"83":-0.057280942770667226,"84":0.09813350043712286,"85":-0.022317111627603494,"86":-0.012729226825181784,"87":0.0748085255879486,"88":0.027387234005874055,"89":0.05231668018408711,"90":0.04953848936725747,"91":0.10094339273534386,"92":0.0011223706277038322,"93":0.15965217480368765,"94":-0.03597894692721177,"95":-0.07146005877523307,"96":0.08737840130930807,"97":0.0871369744589044,"98":0.07515325850364868,"99":0.041081505248682336,"100":-0.10321215314929165,"101":-0.04379778004050889,"102":0.03228124225730324,"103":0.04651974752260451,"104":0.04480546036710263,"105":-0.11731595418279978,"106":-0.013978270598239698,"107":-0.06334085976129147,"108":0.007946099413845213,"109":-0.11277036269307027,"110":-0.045302701944040194,"111":0.03308614174863795,"112":0.04215863314581294,"113":0.06850319947886398,"114":0.07452612622101973,"115":0.024616858606974712,"116":-0.01665208570866767,"117":-0.002882777581257521,"118":0.07240671292429156,"119":0.014128791253793946,"120":-0.10837004077576737,"121":-0.1019893593540417,"122":-0.0765474965943252,"123":-0.03285546065331559,"124":0.07433992376102051,"125":0.003662286612196018,"126":0.03969766920170945,"127":0.007403538743551262,"128":0.0790825817219888,"129":0.12647225419840974,"130":0.044389789688324306,"131":-0.011309205374183263,"132":0.05024586008125987,"133":0.0862313889070317,"134":-0.14043267662250422,"135":0.04570966604546385,"136":-0.07437967425549603,"137":-0.009725169735593436,"138":0.04953505703067797,"139":-0.09624792259880015,"140":0.030674655389993793,"141":0.058316889830371935,"142":-0.02678099148419102,"143":0.015027072493549206,"144":-0.07042387247839274,"145":-0.06525864301219185,"146":-0.009232934756056351,"147":0.032160870696179296,"148":-0.011509063779018426,"149":-0.017679172538911617,"150":-0.010254492286512071,"151":0.019025234036302772,"152":-0.1410917819812253,"153":-0.01960192243403103,"154":0.025224747225332102,"155":-0.06994173341643929,"156":0.04460834871948646,"157":0.14381220050951407,"158":0.039285214588207135,"159":0.03904589753120353,"160":0.11555674423698302,"161":0.0044482435490469955,"162":0.034096941792647856,"163":-0.04009805545280845,"164":0.022031028681169046,"165":0.032253376006710896,"166":-0.03164086273934883,"167":-0.07336693468928421,"168":-0.09370524787910156,"169":-0.07215354172367887,"170":-0.011405945222977347,"171":0.06530257815955796,"172":-0.0014555177879881209,"173":-0.019613588579440826,"174":0.05654311458293817,"175":-0.0017132976832617201,"176":0.021288779659845092,"177":0.07511083760501464,"178":0.01161577730194072,"179":-0.0012245759834273373,"180":-0.04132733288225768,"181":0.07073028802348137,"182":0.015205258535207034,"183":-0.04297563205529665,"184":0.018100016389189115,"185":-0.02317505121953411,"186":0.009812932365544019,"187":-0.035599328949966945,"188":0.01553230932338271,"189":0.02032416637305913,"190":0.025242231134849726,"191":0.08372671754178063,"192":0.0057529931262100655,"193":0.03788164733370817,"194":0.03583399253629392,"195":0.03254411376632538,"196":-0.08262137946028016,"197":0.048983768962654675,"198":-0.004955911053985897,"199":0.07108924580957433,"200":-0.15115134236841493,"201":0.002834561376432454,"202":0.03967885445942798,"203":-0.0657377295714488,"204":-0.04337292822764167,"205":0.06790471478646978,"206":-0.021421448132304125,"207":0.06622452130089643,"208":-0.0008361858190112097,"209":-0.10568572582680302,"210":-0.014872461615629138,"211":-0.03174773025749745,"212":-0.012489029192924255,"213":-0.043674909752500705,"214":-0.06541691457075371,"215":0.017206147593639497,"216":0.08349360963474062,"217":-0.024776539579667047,"218":0.018593512798620412,"219":-0.0015032830070602892,"220":0.0032574762267633317,"221":-0.009924941284003369,"222":-0.042478681003132665,"223":0.012126090158224039,"224":-0.017901983349670317,"225":-0.0016290688468068308,"226":-0.08345015492809017,"227":-0.07039591741115496,"228":0.0033649877591648333,"229":0.015408055545083593,"230":-0.1493269226169885,"231":-0.07464163968314932,"232":-0.06299795081409329,"233":-0.03628264857730907,"234":0.07291265766030694,"235":0.03915097953031328,"236":0.010521575913664111,"237":0.005180091848992026,"238":0.026915916043613472,"239":0.07214250269578856,"240":-0.1416835664499254,"241":0.02387510757408222,"242":0.0003498522696190132,"243":-0.01183121079951727,"244":-0.06290047041774172,"245":-0.024454190303182168,"246":-0.06936142984998432,"247":-0.017870514396639666,"248":0.03532913392308263,"249":-0.023232008726804525,"250":0.032477710579475794,"251":0.08773916344791953,"252":-0.02189276385375087,"253":-0.04928117885229841,"254":0.026669910940521006,"255":-0.02731525776409483,"256":-0.02050408305082342,"257":0.0786632477528586,"258":-0.04896390316691567,"259":-0.022920269422639323,"260":-0.015629518967098417,"261":0.021629018613132975,"262":-0.017618757666881323,"263":-0.0722673550020706,"264":-0.10078260587376611,"265":-0.07648517667525011,"266":-0.03537000089002627,"267":0.046522579571784545,"268":0.00920769162527598,"269":-0.03396218488644546,"270":-0.04460054237544938,"271":0.09349526165373212,"272":-0.002616534277978741,"273":-0.07472587633070285,"274":0.11451538922677061,"275":-0.031888591269983856,"276":-0.053527752190012684,"277":0.06410582798307339,"278":0.04576303833300803,"279":0.04598923353657463,"280":0.10638612710501037,"281":-0.043644366615438725,"282":0.0949632686940929,"283":0.03382538090621226,"284":-0.03423022745921754,"285":-0.028140375674035118,"286":-0.017557554409528147,"287":-0.04677941633489697,"288":0.051287676289824835,"289":-0.038021505486506194,"290":0.05503013172137557,"291":0.05431594567878023,"292":0.008315996868477348,"293":-0.10467281043462959,"294":-0.022467685224667848,"295":-0.14578716166377992,"296":-0.11279530151721687,"297":0.004783954230065407,"298":0.0286666376034542,"299":0.04097006702095053}}],"biases":{"sx":1,"sy":1,"depth":4,"w":{"0":0.06520070708423086,"1":-0.02131419822567702,"2":0.020118365621336304,"3":-0.08085647606062438}}},{"out_depth":4,"out_sx":9,"out_sy":9,"layer_type":"relu"},{"out_depth":100,"out_sx":1,"out_sy":1,"layer_type":"fc","num_inputs":324,"l1_decay_mul":0,"l2_decay_mul":1,"filters":[{"sx":1,"sy":1,"depth":324,"w":{"0":-0.04580035526524011,"1":-0.027596778301353306,"2":-0.046105490028118506,"3":0.02128073155038786,"4":0.05477749123606801,"5":-0.0700399967692019,"6":0.023639788712531754,"7":-0.02761994061122042,"8":-0.02296845695106935,"9":-0.01271248408550865,"10":0.05373325339092734,"11":0.0008748807046052931,"12":-0.023230281959769238,"13":-0.009125401932844394,"14":-0.10905817662724959,"15":0.07357894299135932,"16":0.025672548478077366,"17":-0.05565703574432849,"18":-0.003043385457116318,"19":0.006868392578155836,"20":0.07785928596278438,"21":-0.06031367218268959,"22":0.04156773974216298,"23":0.08772568695605959,"24":-0.012721864561293567,"25":0.09797403320617372,"26":-0.027198484818397355,"27":0.0371247011003517,"28":-0.08991436846954806,"29":0.008312853310069685,"30":-0.06688698079039157,"31":0.05136810554686605,"32":-0.09937404198210918,"33":-0.0031370722374353165,"34":-0.0010165378110685076,"35":-0.044534615974117994,"36":0.03548550970216155,"37":-0.024581545392951914,"38":0.007403734752649706,"39":-0.02096581875746383,"40":0.005234816609463013,"41":0.03429139926416451,"42":0.023286316207365085,"43":-0.009468438158948843,"44":0.001390838482857969,"45":-0.06617559065438164,"46":0.01791956848336938,"47":0.05008528007766327,"48":0.05607406411245386,"49":0.04607894218734587,"50":0.027827925186486597,"51":-0.008348647241948075,"52":0.12328480486938036,"53":-0.0005547227615527374,"54":-0.07045204778208594,"55":0.02931580553326322,"56":-0.045780056315163124,"57":0.07178685516327463,"58":0.015412382454389698,"59":-0.011589865394933146,"60":-0.036941945631985426,"61":0.04268333539646998,"62":-0.04230660742534602,"63":-0.09394061919739591,"64":0.002760634317786102,"65":0.0635713697199094,"66":-0.045857465028798304,"67":0.045897737322390456,"68":-0.04472000658119202,"69":0.016955665135823098,"70":-0.014981079911749174,"71":-0.04421959027234082,"72":-0.042629296470122105,"73":0.017541468113007944,"74":0.025135363468913555,"75":0.023492173320722405,"76":0.05296548284047141,"77":-0.02368443262999602,"78":-0.02352203524794991,"79":0.006400469916344855,"80":-0.08148950094185252,"81":0.02118829030028746,"82":0.05044687340630464,"83":0.12336056653331269,"84":-0.024315005028279192,"85":-0.023290398830897806,"86":-0.030307758746176767,"87":-0.030906991114192393,"88":-0.032277244700736146,"89":-0.005726417178573099,"90":-0.08524337685688069,"91":0.043519605687872956,"92":-0.09160444368102477,"93":0.00035948529475772836,"94":-0.004212322738257166,"95":0.10364136803825763,"96":0.04159951603839353,"97":0.011404694319275741,"98":-0.09222712384293208,"99":0.06698529626704475,"100":0.09155343223807047,"101":-0.04455244559836414,"102":0.05009017077323257,"103":0.006829814013640305,"104":0.08123000460412308,"105":0.032254537260163404,"106":0.10310418739614985,"107":0.01833842012516642,"108":0.061401011663016064,"109":0.047719639056843476,"110":0.03909008064876577,"111":-0.055810705490936925,"112":0.020641961369880408,"113":0.001896782731962929,"114":-0.10217737192957192,"115":-0.03503758836570267,"116":-0.03329986509879026,"117":-0.04556965633407793,"118":0.0039006403358327058,"119":-0.02793014738834495,"120":0.014740929875314026,"121":-0.011607410428029827,"122":-0.07861493192604031,"123":0.09510946949932951,"124":0.1388344110196911,"125":0.04945455308263451,"126":0.06017608816918969,"127":0.07091376820888123,"128":0.012852731114575716,"129":-0.028370266935051038,"130":-0.0799411792292791,"131":0.09022564321646062,"132":0.020478862727231387,"133":-0.028719049747126642,"134":-0.015824963659337582,"135":0.058638532094949965,"136":0.10455029203916041,"137":0.16906014383354842,"138":0.06994319222634077,"139":0.007884989817163221,"140":0.05078342931223778,"141":0.04126793545456328,"142":-0.021338645265419322,"143":-0.034643656249115556,"144":-0.037597135400714875,"145":0.0018790817467020545,"146":0.020133962633596954,"147":-0.07971694771862647,"148":0.05934401737982205,"149":0.013277578968879402,"150":0.06560108889886414,"151":-0.033503684217172404,"152":0.024522679562101142,"153":0.0065712562512258875,"154":-0.08038429683533031,"155":-0.00927827521281046,"156":-0.031510065262555356,"157":-0.1474844094115689,"158":-0.10658984908281179,"159":0.026264943783990347,"160":0.0293264331409626,"161":-0.0013404587670062143,"162":-0.010302136816721335,"163":-0.09021168387437441,"164":-0.15779044108629875,"165":0.016010549878826212,"166":-0.059395980815181326,"167":-0.07781316875226044,"168":-0.02682142790605192,"169":-0.03652902859556591,"170":0.021597051375445195,"171":-0.01470234409714342,"172":0.014307858292007517,"173":0.049852360495791365,"174":0.03810913029894485,"175":0.10048799352868762,"176":0.015572709321426185,"177":-0.012202190597455824,"178":0.049924086089624974,"179":0.014218120603056009,"180":-0.0779163657404962,"181":-0.0005244321473459665,"182":0.04271816965857656,"183":-0.06346561061287546,"184":-0.14583632799713966,"185":0.010324042273816598,"186":0.10651895346681513,"187":-0.09151776354647091,"188":0.03608907831906096,"189":-0.03766692019664889,"190":-0.026114234091045827,"191":0.03363121547512653,"192":-0.0539349177108793,"193":-0.06475087086344018,"194":0.09099535853586352,"195":-0.06784964709898328,"196":0.04685503843329759,"197":-0.0011716422678080562,"198":0.027228159809985504,"199":0.015888854891277095,"200":0.026382949361488377,"201":0.018094715976710165,"202":0.033623243968697474,"203":-0.07453434645805915,"204":-0.0014656698220291233,"205":-0.02897513821270375,"206":-0.08383203228879745,"207":-0.030738201918677936,"208":0.009327569507774818,"209":0.0374777897681426,"210":-0.02039479256482775,"211":-0.07587391002883516,"212":-0.0325808143991997,"213":0.0069271228005897394,"214":-0.0025025576170399836,"215":-0.017493567319720623,"216":-0.030164106590269055,"217":-0.1116584834658887,"218":0.05623972319282503,"219":-0.014526195311330144,"220":-0.07331938461524008,"221":-0.010747954773344438,"222":0.004732267098770256,"223":0.05544360239464287,"224":-0.017547380251619903,"225":-0.05660255875828874,"226":-0.0634566165478856,"227":-0.019910429272727043,"228":-0.0302003730490269,"229":0.01136669930462814,"230":0.01637076804045719,"231":0.018615012686129227,"232":-0.05143123460153826,"233":-0.05614718694452555,"234":0.009696534068243074,"235":-0.06274497717246787,"236":-0.04973365532756591,"237":-0.0982957363375031,"238":-0.02467573835166493,"239":-0.016510371171434224,"240":-0.02964692352059658,"241":-0.10846144510960452,"242":0.004247312341824055,"243":0.04074870960362298,"244":-0.008932839689034846,"245":-0.033017420598845944,"246":-0.030295527936981134,"247":-0.004636954595387675,"248":-0.030571790013628697,"249":-0.033509476567486464,"250":0.04313202992251158,"251":0.02059870373230217,"252":-0.015139836499445728,"253":-0.024912976020460578,"254":0.049624276750344525,"255":-0.002540986307962482,"256":-0.002303641133899165,"257":-0.02983008736981787,"258":0.005346588140976831,"259":0.04477317770489554,"260":0.07398790901185259,"261":-0.0326291723192527,"262":-0.010359600533277244,"263":0.003625879449972875,"264":0.09051684513746935,"265":-0.010271021063503671,"266":-0.07367469549207344,"267":0.10088468575230489,"268":-0.025492310398653375,"269":-0.06825292669930987,"270":0.06510917515306841,"271":0.05280657383058263,"272":-0.0391707374294103,"273":-0.07189637073998222,"274":0.040535869280082966,"275":0.07642819997796428,"276":0.11101570704408086,"277":-0.02409638254627202,"278":-0.00791237070957286,"279":0.1012676882726557,"280":0.05437978136753714,"281":-0.014704843101812986,"282":0.10174241589117347,"283":-0.09859517936687996,"284":-0.05929857517544139,"285":0.02244512530700682,"286":0.007509051050199999,"287":-0.02726492420210297,"288":0.0691252856991891,"289":-0.020928963861310382,"290":-0.05722668663592829,"291":-0.05147834845099502,"292":0.011750070111005923,"293":-0.07603796422526997,"294":-0.050192605310203586,"295":-0.015734124283816583,"296":-0.029486962457993877,"297":0.08370852448055104,"298":0.11770584254315936,"299":0.026517860361498887,"300":0.11424573241617718,"301":0.07648438802814624,"302":0.010698476878075593,"303":0.005427525099230139,"304":-0.08747127336094829,"305":-0.012831643105594533,"306":-0.06196215473514825,"307":-0.02982918855435927,"308":-0.028268578332257106,"309":0.01084824458490363,"310":-0.013105752078505218,"311":-0.05383400938435763,"312":0.01448285424150509,"313":0.04560432999617815,"314":0.055189503394556735,"315":-0.08573446755080526,"316":-0.08765122400590386,"317":0.04019647657645439,"318":-0.04482133301985685,"319":-0.046348877257145975,"320":-0.04821895446090124,"321":0.08178771057687273,"322":-0.0014838363734717113,"323":-0.06756139689278415}},{"sx":1,"sy":1,"depth":324,"w":{"0":0.019470350118396453,"1":-0.05285078317322271,"2":0.07094255518863506,"3":-0.00020640613710208605,"4":-0.015604966835579239,"5":0.05765571666860994,"6":-0.10150773131351204,"7":-0.060946557049581115,"8":0.02097232783323234,"9":-0.0564388584178946,"10":-0.024029038066836372,"11":-0.05328361044234488,"12":-0.007824929426889567,"13":-0.03348473058854307,"14":0.05812062669680347,"15":0.07492815134887201,"16":0.03744265604314821,"17":-0.06463529243962667,"18":-0.037027938074955545,"19":0.09092854107143028,"20":0.04839119994200272,"21":-0.04695477479438673,"22":-0.048236730540586116,"23":-0.04686816013632101,"24":-0.014963366899979633,"25":-0.11354243393059328,"26":0.03988197137215466,"27":-0.004003930339205867,"28":-0.06150240880808706,"29":0.010220114895025584,"30":0.025055423500456364,"31":0.019638935208106247,"32":0.053133534391585045,"33":0.0154685519312856,"34":0.007532580083501268,"35":-0.004185575147614361,"36":0.008139499139425273,"37":0.028609617770176454,"38":0.03143826958518797,"39":0.0408939897246992,"40":-0.03050878689237051,"41":0.014405102788147526,"42":-0.004306232471112437,"43":-0.019134044709353093,"44":0.10773459618217483,"45":-0.0470431959701994,"46":-0.0319621260096322,"47":-0.08337070370472159,"48":-0.09591018777106,"49":-0.0048330302024850585,"50":-0.004249750378404162,"51":0.02317218112668458,"52":-0.1063725026336686,"53":-0.006766762854468664,"54":-0.06875657677103887,"55":-0.02735350671902965,"56":-0.014987671317842885,"57":0.0639332346404138,"58":-0.0030703431401496737,"59":-0.05011959272076952,"60":0.04362841651829391,"61":0.024875972563164584,"62":-0.10710467360497686,"63":0.0946434219207002,"64":-0.02373363279619405,"65":-0.012607216520089115,"66":-0.03082705445158339,"67":0.028801345015032707,"68":-0.10441560707070342,"69":0.008674033032185446,"70":0.10629202874714588,"71":0.04298259640277387,"72":0.053141993379317895,"73":-0.01845303367379958,"74":-0.05431085402474966,"75":-0.016694200279740688,"76":-0.027256312163368168,"77":-0.007043446695541235,"78":-0.0892434381215627,"79":0.013856781058760809,"80":0.0028335493284214683,"81":-0.08665618063103275,"82":0.068249281868751,"83":0.03789749597328302,"84":-0.026880322750010115,"85":0.02543679529679852,"86":-0.00974694791752673,"87":-0.009651697756415556,"88":0.07051604424163814,"89":0.013513645470271278,"90":-0.09537980207524796,"91":-0.04857932150688206,"92":0.02364441178720992,"93":-0.08960865940007581,"94":0.04473409054675576,"95":-0.06140440189597232,"96":0.07567714937223978,"97":0.12025351122255638,"98":0.02369443254994621,"99":0.04708610638792665,"100":0.0074441712409746025,"101":0.04282587481905721,"102":-0.06314753825735511,"103":0.042021418801875196,"104":-0.04050108587769935,"105":0.019683918342425416,"106":0.01626244744855057,"107":-0.06158914752666968,"108":0.0002055733566967239,"109":0.06514263475789168,"110":-0.03677929271540772,"111":0.056320026498477845,"112":-0.1511659480627866,"113":0.08064484824418948,"114":0.08713316287788084,"115":-0.04760268068130918,"116":0.011250103897966724,"117":0.06562683625641887,"118":-0.02734732936350589,"119":0.03835000199689293,"120":-0.0020247226784638355,"121":0.0057614051424936035,"122":-0.020893157661905744,"123":0.09005313156459459,"124":-0.008896413185367819,"125":-0.08133534340166741,"126":-0.022319168369698474,"127":0.04349117170002449,"128":0.04876918107201999,"129":-0.11219872995667042,"130":-0.11380121816470057,"131":-0.1644012527698644,"132":0.028565049376245502,"133":0.008250064874883601,"134":0.004284434738637027,"135":-0.03949241769392075,"136":-0.04138659354461007,"137":0.005077266828751181,"138":0.001659111476043455,"139":0.1227102758042244,"140":-0.09178142890937191,"141":0.10514326288283199,"142":-0.035107694673978423,"143":0.021754181391065948,"144":0.05913643909943059,"145":-0.018459487855906422,"146":0.06530374087439038,"147":-0.009314100284397362,"148":-0.06400696154057288,"149":-0.04138213889627497,"150":-0.0429796428374628,"151":-0.08613647490750065,"152":-0.01946751948518469,"153":0.00701417121299475,"154":0.0026935935203563485,"155":0.028605927439821155,"156":0.07556926915803372,"157":-0.010521267641180684,"158":-0.08181113442141857,"159":-0.0721500338564627,"160":0.06318510548021952,"161":0.006867398103655285,"162":-0.0974787545953367,"163":0.03846668009387556,"164":0.030290042086123157,"165":-0.09142602210883137,"166":0.028168963216910044,"167":-0.08011492872907028,"168":-0.0805280464518996,"169":-0.025984096387818994,"170":-0.055327270837217814,"171":0.004310306646594051,"172":0.011554054771007103,"173":-0.05742848329179486,"174":-0.007098743355558278,"175":0.013873467458592798,"176":0.06390000319332298,"177":0.007617265225467263,"178":0.005212240210990591,"179":0.020250956967313626,"180":-0.10351454505285732,"181":0.026313863147088102,"182":0.023047589604394375,"183":-0.026922513780513697,"184":-0.16842740292006092,"185":-0.016084708310019846,"186":-0.04802094185603438,"187":0.00028656206793368366,"188":0.04391886938835752,"189":-0.022000595783382763,"190":-0.03532628749284606,"191":-0.01149935868060835,"192":-0.009154339358284927,"193":-0.01604752905331697,"194":0.07866422601080744,"195":-0.004779418691968419,"196":-0.02183768101291084,"197":-0.021017141901294948,"198":0.04771865044498254,"199":-0.007685253468567487,"200":0.08628494256437386,"201":-0.03885474975542787,"202":-0.06160761150086313,"203":-0.10899577876977556,"204":-0.1325574591641663,"205":-0.031389820146763885,"206":-0.047723938939457165,"207":-0.005716968044704311,"208":0.07981753045817201,"209":-0.07797904064711206,"210":0.012838652893567145,"211":0.06435485076167562,"212":-0.12960154858583178,"213":-0.07616055835920678,"214":-0.018260280643390685,"215":0.08676089930233691,"216":-0.03535331636948725,"217":-0.03311247588205376,"218":-0.05760699691153845,"219":-0.02915664227722912,"220":-0.023185694699833375,"221":0.021654006728214877,"222":-0.012050562779520022,"223":-0.0005910717619518897,"224":0.028432283774186055,"225":0.01002754997003195,"226":-0.057567402079812875,"227":0.0074794476828150235,"228":-0.01480777723779221,"229":-0.0138286420684782,"230":-0.050966451911816285,"231":-0.07860601501709215,"232":-0.045124741165239825,"233":0.09559226109577144,"234":0.030337133366468157,"235":0.021860692768695615,"236":0.08650787782872973,"237":-0.09228090701227816,"238":0.08368484810273448,"239":-0.010997241482281634,"240":-0.05997838099494358,"241":0.1896727785141455,"242":-0.06174592267874937,"243":-0.018768244676078752,"244":0.10263945141203035,"245":-0.08058710060916394,"246":0.025909419631836846,"247":0.06452114206050992,"248":0.05660705274587098,"249":-0.012413753085672812,"250":-0.06104143833890491,"251":-0.07901723610921497,"252":0.010570013616384826,"253":-0.015159424615144695,"254":-0.05643979479039208,"255":-0.11419834143150433,"256":0.008604506605844974,"257":0.09553134216730795,"258":0.004254821196572268,"259":0.026166025026598812,"260":-0.02376586518358534,"261":-0.01602939552549123,"262":0.0655684661843092,"263":-0.06361864873241466,"264":0.003367122599303848,"265":-0.0414216106820082,"266":-0.04032568225282946,"267":-0.03071557565644495,"268":0.022609184556686753,"269":-0.0381225014746471,"270":0.0012101339733546165,"271":-0.030004537184125706,"272":0.04207498299728694,"273":0.03517073340240312,"274":-0.10129517770453748,"275":-0.02287375486382016,"276":0.009105550276873436,"277":-0.03371131573748333,"278":-0.03677579610238509,"279":-0.03842114617247764,"280":-0.03642813459042638,"281":0.05268761070146549,"282":-0.01910750019295551,"283":0.03186524039080361,"284":-0.0012345335691694727,"285":-0.007618300891060078,"286":0.03919566984559655,"287":-0.0013469376403573174,"288":-0.037773927680460374,"289":0.01786883306859326,"290":0.0568450143715583,"291":-0.03615753090591201,"292":-0.04065185337335986,"293":0.08017519346769751,"294":0.03215631715832289,"295":0.005460311712754601,"296":0.04132425317745854,"297":0.016585269015055523,"298":0.02780624246129525,"299":-0.05979383767841317,"300":-0.16157110020051277,"301":-0.012643245304858794,"302":-0.03517111622185623,"303":-0.08030934701330465,"304":-0.02191838316986066,"305":-0.013713752966212538,"306":0.04760045454809836,"307":0.02523761957588824,"308":0.07714372425896966,"309":-0.031968001253536424,"310":0.05639835361249505,"311":-0.13684403843402446,"312":0.11381615901806484,"313":0.044117857623155586,"314":0.008306580966767228,"315":-0.03513415933969504,"316":0.10989798138290871,"317":-0.036380430340833596,"318":0.03410585776305954,"319":0.04986437687261389,"320":0.06756036008006273,"321":-0.04970633379070989,"322":0.025816058041686952,"323":-0.025708166970457125}},{"sx":1,"sy":1,"depth":324,"w":{"0":0.06316034893665068,"1":0.0916395877599746,"2":0.026427880527928858,"3":-0.004823818905093914,"4":-0.00034064530423076654,"5":0.046003000594125855,"6":0.032964290738221665,"7":0.06081439103760153,"8":0.012983766013489632,"9":-0.04265955923573761,"10":0.14312302511978572,"11":-0.03989888307802932,"12":-0.0911998376277025,"13":0.013648629144072822,"14":-0.013605364074764925,"15":-0.07327075230218418,"16":-0.0436424493692122,"17":-0.043729476713742756,"18":-0.01550191172884604,"19":0.06666136718055926,"20":-0.05937163451380933,"21":-0.01910599363151894,"22":0.058943511254337874,"23":0.02470157359205625,"24":0.027528932312059756,"25":-0.025958043758934138,"26":0.05092887413113389,"27":-0.07437895756342922,"28":0.01916409096953478,"29":0.017220659889353663,"30":-0.09006577145265006,"31":0.0018387043243209772,"32":-0.046969257654982076,"33":-0.17709165714093866,"34":0.02556475851366224,"35":-0.05934656091080099,"36":0.030917670445664673,"37":0.036898705840946004,"38":0.05416125918787724,"39":-0.01761675452389547,"40":-0.01093529172813834,"41":0.03583117125562514,"42":0.03722126226830319,"43":0.02810239750322113,"44":0.037631156487458677,"45":0.06256876309320455,"46":-0.027652407009419205,"47":-0.0407116846513771,"48":-0.06839584186316007,"49":0.044211956075081396,"50":-0.10150227474995818,"51":0.08221446961016496,"52":-0.0698664504620592,"53":-0.040579995140328395,"54":-0.10174337042457923,"55":-0.002104283974036009,"56":0.051980734082163915,"57":0.05433765897351984,"58":0.017966803517064846,"59":-0.009680379213387467,"60":0.053463722626085536,"61":0.09618075235104154,"62":-0.09629325409970849,"63":-0.06844257954228081,"64":-0.0176696790319337,"65":-0.02356844881013388,"66":-0.08746211056607418,"67":0.06355429129476624,"68":-0.020218585714809244,"69":0.020597663603296647,"70":-0.06484523539208457,"71":-0.003932774564797011,"72":0.006498175214718571,"73":0.06540408062329228,"74":-0.004522381507788434,"75":-0.01011765006792734,"76":-0.012065527396072362,"77":0.016398148170299616,"78":0.043680450632038265,"79":-0.047488939626192966,"80":0.04891872752076709,"81":-0.05184250697635547,"82":0.06722917981398344,"83":-0.03854787711550002,"84":-0.059349789307007766,"85":-0.004856076101027105,"86":-0.04074993094443285,"87":-0.005403712340774773,"88":0.002077538444011553,"89":0.054175466250094374,"90":-0.00430988613417,"91":0.06378525116178033,"92":0.06489458508754822,"93":0.043129612571328885,"94":-0.01351265766400963,"95":0.08895823511253484,"96":-0.010204712974206099,"97":-0.006225085331085995,"98":-0.0028680293844796064,"99":0.0686308532977397,"100":-0.01917057711872842,"101":0.035837770233888136,"102":-0.12095212614918141,"103":0.03990632554253455,"104":-0.04258500713416291,"105":-0.06525016212168291,"106":-0.04912271649196253,"107":-0.06739353981443019,"108":-0.05138889832406493,"109":0.023855989057711677,"110":-0.11118196974530055,"111":0.1328249781949145,"112":-0.009842363897622095,"113":0.04913629230332129,"114":0.026842249560774266,"115":-0.09964736565102933,"116":0.017586905300018683,"117":0.014688221535005075,"118":0.05845450960377887,"119":0.08417096085940794,"120":-0.03154811796924533,"121":0.041822611312159884,"122":-0.011195877843980243,"123":0.014010912836713211,"124":-0.024117358666192218,"125":0.1107367946459408,"126":-0.07546109434942083,"127":-0.055351808419668004,"128":-0.03442906362868904,"129":-0.051002600076037435,"130":-0.05356621575195779,"131":-0.04690479308095218,"132":0.013885645956421496,"133":0.0789896798046187,"134":-0.08439860354219095,"135":0.06664255479717641,"136":-0.1273206882855418,"137":-0.0010337338863821925,"138":0.04600147473635555,"139":-0.06746547894391476,"140":-0.012723172313433352,"141":-0.0023646810416191335,"142":-0.11358906271845663,"143":0.005200771946052209,"144":-0.10560994542623311,"145":0.06271498119380813,"146":-0.06695651222147626,"147":0.05979222089297963,"148":-0.0641624979992096,"149":-0.03151350645636397,"150":0.12624057469950709,"151":-0.04951096061410375,"152":0.012417066769623269,"153":-0.030527912315477492,"154":0.05466609113706639,"155":-0.07625884561468177,"156":0.03382982502841587,"157":-0.05433994411852155,"158":0.07174536056559487,"159":-0.05947970026569653,"160":0.0044432875283308216,"161":0.10309985489715132,"162":0.01128010998282114,"163":0.072485699627395,"164":0.08083979678951059,"165":-0.013378178807944485,"166":-0.02855959868436386,"167":-0.030085949572361787,"168":0.07664463404169132,"169":-0.07119010149883467,"170":-0.02309383659407342,"171":-0.015268158380657617,"172":-0.028690635906986468,"173":-0.015880741255109642,"174":-0.03992043224498351,"175":0.02730951399199988,"176":0.02820711824068537,"177":-0.14081716232230854,"178":0.07348394369441573,"179":-0.019800728524083922,"180":0.0034641566155281757,"181":0.08495535322689717,"182":-0.09303298386567908,"183":0.21404406997592415,"184":-0.022374591238472262,"185":-0.08922377479622826,"186":0.02383321384346906,"187":0.04349725633978949,"188":0.04884174114618756,"189":0.010168000055393953,"190":0.009837321153673835,"191":0.008045365151426297,"192":-0.08445898845078746,"193":-0.008855156627650207,"194":-0.037718384947516816,"195":-0.08148404706279642,"196":0.0017972685098905088,"197":-0.014661366777818834,"198":0.039783077048349665,"199":0.02661119357419907,"200":0.04877152756268377,"201":-0.02044537315992954,"202":0.07346942369244612,"203":0.03227914004779128,"204":-0.08761222936479779,"205":0.013421690629612884,"206":-0.04816353496844943,"207":-0.056483614391806505,"208":-0.022839377494582074,"209":0.004592974311185115,"210":0.07921854943125516,"211":-0.0211125669512243,"212":-0.0174261098773147,"213":-0.015588945327736513,"214":0.045272636893682494,"215":-0.003769114311399154,"216":0.030714815398389095,"217":0.029629016818211854,"218":-0.09404347203972115,"219":0.02755242013416141,"220":-0.06230891125131059,"221":0.03395369656491399,"222":0.01570758930322416,"223":-0.009721628505823558,"224":0.04649037031537173,"225":0.024683472139987405,"226":-0.0745755851879355,"227":-0.023912261340616532,"228":0.05723544350952434,"229":0.03224424480032072,"230":0.01120602092541241,"231":-0.026426250618027846,"232":0.04127944834972297,"233":0.04465098135032022,"234":-0.035666818187197434,"235":0.0452330210082154,"236":-0.10270626963954065,"237":0.07294391392008194,"238":-0.03757579554019404,"239":0.028308927618894173,"240":0.005164651933596111,"241":-0.0834663767352607,"242":-0.01267869769663058,"243":0.01274836164095807,"244":-0.026963012911694603,"245":0.00321052504753921,"246":0.03136757035558308,"247":-0.018731088511654413,"248":0.05177470932022829,"249":-0.06512575382433444,"250":0.09867903853127122,"251":0.008702154888451434,"252":-0.045881626798474275,"253":-0.09162885944232063,"254":-0.07654701042861334,"255":-0.005725270880128856,"256":0.016858062638340044,"257":0.07644661030304412,"258":0.08435680902762671,"259":0.027670222343947844,"260":0.005649068310812022,"261":-0.07468542817816727,"262":0.06647601923450581,"263":-0.034513068398528045,"264":0.0030097478549942413,"265":-0.04658695050215665,"266":0.04944258563214542,"267":-0.029185286587616984,"268":-0.07458521853075319,"269":0.004837960779293941,"270":-0.04732157384492102,"271":-0.05435638987258939,"272":-0.024913235649502603,"273":-0.07253258174451184,"274":0.07069001075141348,"275":-0.1200455608176659,"276":-0.016636984152877222,"277":-0.03371903100865844,"278":0.002407071583788925,"279":0.01860682182334568,"280":0.02733080818231705,"281":-0.07205426250341913,"282":-0.029787637204422415,"283":-0.002978962302270784,"284":-0.001923317851478124,"285":0.0002626233075179148,"286":0.03349883128018872,"287":-0.040257778062986666,"288":0.0982770557863684,"289":0.0004253437651506563,"290":-0.006210563407822893,"291":-0.09498629148712397,"292":0.0006523758162689628,"293":-0.06591514825001948,"294":0.023627664965064393,"295":0.006767698015836387,"296":-0.09315782322960962,"297":-0.07502815618397495,"298":0.10429034822195045,"299":0.07904371814502914,"300":0.048621530788115715,"301":-0.021029549566367548,"302":0.0035299694913621393,"303":-0.02101564356301001,"304":-0.04824792343606012,"305":-0.060556974442994654,"306":-0.060300694482390366,"307":0.04023906269869059,"308":0.04387888063775372,"309":0.01930824691489479,"310":0.06913048000434882,"311":0.0042555450399936155,"312":0.019505776056846415,"313":-0.06760970929053588,"314":-0.03340131973326816,"315":0.009967249247701999,"316":0.05451081676297362,"317":-0.020412174969896307,"318":0.15710223009396881,"319":-0.03779361844274266,"320":0.06551710670302849,"321":-0.07909987795504339,"322":-0.047978053714014667,"323":0.041329555791589714}},{"sx":1,"sy":1,"depth":324,"w":{"0":-0.11470822359853865,"1":0.003265039297236164,"2":-0.029706330905402714,"3":0.13640016226624138,"4":0.02086088627269565,"5":0.03777170999484992,"6":0.03369088052474826,"7":0.00283789537581375,"8":-0.04716010732105265,"9":0.006847745671771592,"10":-0.003364014180546872,"11":0.013911557220784193,"12":-0.07336588423582133,"13":0.0014092960097958202,"14":0.04430122679894506,"15":0.03166324707300608,"16":-0.06080424274986431,"17":-0.02781291878073353,"18":0.06439549462437412,"19":0.08789496566193518,"20":0.019778376157178364,"21":-0.09407548059982065,"22":-0.07576916768274088,"23":-0.02667194076318802,"24":-0.038885963216296116,"25":0.020978887375391227,"26":0.03468637665365373,"27":0.1581982432883285,"28":-0.04427915221860003,"29":0.02974500695165486,"30":-0.07552231976653867,"31":-0.05351071581830251,"32":-0.03412166553995364,"33":0.012492348853445107,"34":-0.03607733850701287,"35":0.022802614349037947,"36":-0.0029703667120682094,"37":-0.026529184553042318,"38":0.022805486722005823,"39":0.08306872828099021,"40":-0.11284749072654182,"41":-0.029763118149671114,"42":0.02261828915245018,"43":-0.028081632896245868,"44":0.022323236616043792,"45":0.01286908830937575,"46":0.013944382921326005,"47":0.046913285161002606,"48":-0.023961538037894203,"49":0.07624727413246724,"50":0.0682468004945047,"51":0.011260692870208883,"52":0.0947429716796331,"53":0.04386125311052253,"54":-0.06883930782661785,"55":-0.015526959654598757,"56":-0.008648915838236957,"57":0.031199928083310725,"58":-0.007705961597554609,"59":0.012732525770922593,"60":0.07829384961033502,"61":0.03293439050284318,"62":-0.002762737758161191,"63":-0.0012728617609843115,"64":-0.0871243592081989,"65":-0.046395990016263135,"66":-0.04934494040800572,"67":0.03231389541312163,"68":-0.010913145066807121,"69":-0.034198526457762876,"70":-0.05366550566313033,"71":-0.007642907624974412,"72":0.08255147960363733,"73":-0.01671733727684187,"74":-0.022717356643221276,"75":0.12540705179009043,"76":-0.022551223852024283,"77":0.06297171908133689,"78":0.04055919124854747,"79":-0.03533421452497536,"80":-0.00931251893611559,"81":-0.0011724910088742964,"82":0.03140863342653837,"83":0.018058789799655993,"84":0.005557140263594257,"85":-0.0013858684151641378,"86":-0.029106118359567994,"87":0.08693666352235058,"88":-0.07669624371366088,"89":-0.015253575553998703,"90":0.002919652759861464,"91":-0.0029850950670055046,"92":-0.016745445523653365,"93":-0.017610432457293074,"94":0.09450789765538,"95":-0.08587939793619938,"96":-0.040970268691323766,"97":0.05475291297974268,"98":0.008581964034224883,"99":-0.017646834499699077,"100":-0.040621111578739294,"101":0.0706660385994782,"102":-0.09777182121861355,"103":0.03090979054490079,"104":0.16758671199062247,"105":0.13604303361200307,"106":0.01884204493689287,"107":0.08274520010395672,"108":-0.05579862061573689,"109":0.023840911802260056,"110":-0.022163702441557055,"111":-0.08132382961401882,"112":-0.05055173261852219,"113":0.00848976984855085,"114":-0.047025612788518446,"115":-0.10114116175826786,"116":0.058994672601516425,"117":-0.0453074269186777,"118":-0.06474534965122168,"119":0.05552227556470849,"120":-0.011504010584501938,"121":-0.09806906958483892,"122":0.14305498649080353,"123":0.05810703006892086,"124":-0.10848379742241165,"125":0.042990166226936306,"126":0.04935284418696797,"127":0.04287737066032965,"128":-0.06194797324208782,"129":0.05124288057470141,"130":-0.03392537470226214,"131":0.007909774164560157,"132":-0.053950098475825034,"133":-0.05848583745790429,"134":0.038605023325605815,"135":-0.02752710312157675,"136":-0.04755723223449534,"137":-0.04200641960235201,"138":-0.00555423843185956,"139":-0.08766420820953102,"140":0.015321934029161332,"141":-0.04625484599704088,"142":-0.049009610731401816,"143":-0.0921173204697659,"144":0.03490210509680288,"145":0.01569697461533421,"146":-0.10448387910903618,"147":-0.033670913852165384,"148":-0.098941408329524,"149":-0.13032927374527986,"150":-0.08956671828890397,"151":-0.006234281864817516,"152":-0.10328103312434199,"153":0.02645879211852819,"154":0.07224671529145787,"155":0.02178576230976198,"156":0.005892890090997169,"157":0.024876356856558004,"158":-0.014278022955314176,"159":0.057275582700802505,"160":0.05941017690115082,"161":0.019080604619872214,"162":-0.020285477409783873,"163":-0.07810031739558584,"164":-0.03028398506127202,"165":-0.07081072735634893,"166":-0.05092526767726572,"167":-0.05632665234898348,"168":-0.09001279591145905,"169":-0.01998750532458243,"170":0.044043996728812956,"171":-0.06761678414861959,"172":0.1798616983302596,"173":0.018409991675139105,"174":0.0006254951253017102,"175":0.010499287633048054,"176":0.04090036037778692,"177":0.0020593002892592364,"178":0.0452619851350525,"179":0.12854109036892633,"180":-0.027107511367773836,"181":0.02859716364302102,"182":0.024909575835208645,"183":-0.0900036813899237,"184":-0.008666164800167683,"185":0.006120413186293661,"186":-0.02509169392442481,"187":-0.09804925585884167,"188":-0.04288911930522543,"189":0.0015969435848935847,"190":-0.053029421397306244,"191":0.07446006448705522,"192":0.053654212544162264,"193":-0.12080802282830973,"194":0.015486307224391224,"195":-0.013413229248399005,"196":-0.017201316065823237,"197":0.041297412951289775,"198":-0.02922824292634219,"199":0.00154757324453586,"200":0.03780764147485848,"201":-0.07178224743396684,"202":0.03762255632063955,"203":-0.058199358346740004,"204":-0.01914171495962803,"205":-0.09939940978822329,"206":-0.10422426775840071,"207":-0.05273610653436213,"208":0.0275074868443505,"209":-0.012854669936908198,"210":-0.05444301773881293,"211":0.023496045953816734,"212":0.027240207858781288,"213":-0.027389313452855554,"214":0.0010272594200334724,"215":-0.05730339159817784,"216":0.0767970225389151,"217":-0.047245120905289394,"218":-0.029495804967594078,"219":-0.001011740237242182,"220":0.018822269964672657,"221":-0.12928338281430776,"222":-0.0369524309925348,"223":0.01347162952966344,"224":0.03245640564586678,"225":-0.16524548124576072,"226":-0.05652125602720926,"227":-0.016187522591738654,"228":0.009502196064208521,"229":-0.0060623122712312365,"230":-0.03980411887270242,"231":0.02848311708442645,"232":0.012299273246166096,"233":-0.03566910538862955,"234":0.006324311968862618,"235":-0.05469697614769133,"236":-0.05065118484903279,"237":-0.07336136844593978,"238":-0.05571325005085936,"239":-0.0692470665901874,"240":0.020013126546310333,"241":-0.00025122867884278183,"242":0.007901799285352566,"243":-0.026326108868885173,"244":0.029430873903003453,"245":-0.01704680731390034,"246":-0.013986093487944828,"247":-0.06779970852302213,"248":0.023945452754344308,"249":0.04464198034004073,"250":0.021913127318425218,"251":-0.03162885989530656,"252":-0.036510466551464164,"253":0.038532248432391725,"254":0.10546363063890528,"255":-0.06507795437818678,"256":0.013214463686205605,"257":0.06631419628695127,"258":0.03219379464656553,"259":0.03091812563140893,"260":0.03469190890087593,"261":-0.06075004157595558,"262":-0.042660236024767186,"263":-0.08786359249545223,"264":0.11934541745414988,"265":-0.05905755914178062,"266":0.003292933442639514,"267":-0.03923119250259799,"268":0.031714252424009486,"269":-0.04378070614288328,"270":-0.02135671393908876,"271":-0.08855339852664748,"272":-0.07825997347025092,"273":0.007336455865036436,"274":0.09679443843754695,"275":-0.09945006474126927,"276":0.0479082079671902,"277":0.02319658916023326,"278":-0.01106433497401253,"279":-0.031467692503715235,"280":0.05898174200367841,"281":-0.033589759575862396,"282":-0.06271294410642352,"283":-0.061598982564494295,"284":0.0504480604041721,"285":-0.007317214040094538,"286":0.008278121193995177,"287":-0.0821070611123508,"288":0.03538544605775792,"289":-0.019479540364200253,"290":-0.020164537886020066,"291":0.04101303279095607,"292":-0.023424282739928703,"293":-0.020945976475179436,"294":-0.015391421656022638,"295":0.018614333865667798,"296":-0.04601104627276393,"297":0.03173543628950667,"298":0.023005311211701227,"299":-0.1347511644598336,"300":-0.009902277446055052,"301":-0.012502338779327887,"302":0.006589552291759946,"303":0.04023401400762687,"304":-0.08519356738288895,"305":0.027214932210498134,"306":0.12913953992992808,"307":0.036217169670398036,"308":0.00772654013598591,"309":-0.062008111663165826,"310":-0.1088449311639943,"311":0.02363633939803944,"312":0.042623654487482274,"313":-0.06438376088436393,"314":0.02558476791140282,"315":-0.0600277193707715,"316":0.06079216441296578,"317":-0.03678557379965337,"318":0.03583463351613942,"319":0.03407886539526055,"320":0.0062330229729113,"321":-0.08262821988467667,"322":-0.11060746480054236,"323":-0.12319878126147722}},{"sx":1,"sy":1,"depth":324,"w":{"0":-0.05072296383001001,"1":0.030299682604744412,"2":0.0374942227234179,"3":-0.03316203461053659,"4":0.07811608285791037,"5":-0.01748186575228574,"6":0.006509448425737869,"7":-0.04343063102329048,"8":0.020164202484911683,"9":0.00001121271831643726,"10":0.013075585688293373,"11":0.04306338522373864,"12":-0.0775775774350778,"13":-0.06958726180274089,"14":0.09325123979947203,"15":0.0036719269239550794,"16":-0.015116182357978195,"17":-0.10669393533299272,"18":-0.09105074670793047,"19":-0.05893525583200117,"20":-0.081758762658515,"21":-0.0054313340173651,"22":0.06693835202856041,"23":-0.018547945725609312,"24":0.05553290893607009,"25":0.017525883657258448,"26":-0.006451564708696408,"27":-0.06546229963488585,"28":-0.06112079801789873,"29":-0.132199943810924,"30":0.052617819714080735,"31":-0.11722410502785131,"32":-0.011494377918968773,"33":-0.09729563744042981,"34":0.009458743531042015,"35":-0.08414767342121461,"36":0.01059595712747185,"37":-0.011005521604367095,"38":0.05727533223439089,"39":-0.05746734684104625,"40":0.08381940473663611,"41":0.014074295764506027,"42":0.009920442021874434,"43":0.07399314381965627,"44":-0.04614772642375346,"45":-0.04637156056059161,"46":0.03771740335830937,"47":0.04188883558788874,"48":-0.023342657197060697,"49":-0.03548728529496047,"50":-0.11567783240823255,"51":-0.03297308589993535,"52":0.09126114126875177,"53":0.057937830167526426,"54":-0.029010361797251884,"55":-0.06286813124302773,"56":-0.06533598285786539,"57":0.02760862027408643,"58":-0.030788817537313867,"59":-0.035211229012031546,"60":-0.006005040302915977,"61":0.010430927427095749,"62":-0.07415779079506317,"63":0.08867343008458003,"64":0.0027941406251833045,"65":0.059975496196713975,"66":-0.0671563154132457,"67":-0.04794086990975824,"68":0.05201922093810013,"69":-0.008871502318462846,"70":-0.009151225922022811,"71":0.04937048118022053,"72":-0.00829081555189156,"73":-0.001048724944453809,"74":0.045210868077442866,"75":0.021501674655511786,"76":0.04102331502246937,"77":0.0107704594854768,"78":-0.029787074451178595,"79":0.015751735026346775,"80":-0.03465521923253877,"81":-0.047710093631276075,"82":-0.042528325511729685,"83":-0.02172338579172846,"84":0.06679222687347393,"85":-0.041358274383550234,"86":-0.04971454795859202,"87":0.007145683268797039,"88":-0.02176541372284228,"89":-0.06227637040192006,"90":0.048768649933899504,"91":-0.0008188122745097834,"92":-0.04422032294910888,"93":-0.014519991011839109,"94":0.01039863536852712,"95":-0.0370154444449182,"96":0.0011773896549302498,"97":0.09119177812175462,"98":-0.0569532106120739,"99":-0.009467565090051398,"100":0.03741024467473386,"101":-0.011827696109785566,"102":-0.08585113268199893,"103":-0.07970082763384645,"104":-0.015176111346709556,"105":0.09719603980387798,"106":0.02617285259172227,"107":-0.05360510445483112,"108":0.047576133416534105,"109":-0.0442959212667998,"110":0.021170234890500014,"111":-0.06717604273176035,"112":-0.0561499858297844,"113":-0.030098475935864517,"114":-0.028493975899789956,"115":-0.10268747977860888,"116":-0.022747713810266426,"117":-0.003395886340142673,"118":0.017133570588577736,"119":-0.03059804245111405,"120":-0.07285758065429683,"121":0.014276330260302901,"122":-0.010272106443015225,"123":-0.07055456388997519,"124":-0.010479000131591192,"125":-0.05446667599199347,"126":-0.037710121129207505,"127":0.0028234711395060904,"128":0.006159088559246657,"129":-0.08852728185493874,"130":0.02122584824979114,"131":0.09152061210793785,"132":0.05952708758129355,"133":0.0025347547096300346,"134":0.012982577335959849,"135":-0.01553252637424441,"136":0.023120961902484114,"137":0.027442831180847074,"138":0.005129861515338778,"139":-0.006930194913212932,"140":0.008245078618429118,"141":0.013934107653394368,"142":-0.03803540238254496,"143":-0.05084169745465205,"144":0.0161431377697192,"145":-0.027677663505022997,"146":-0.032739881277076124,"147":-0.006025303892281874,"148":-0.00966210487879611,"149":0.07507277732226247,"150":-0.06399515175466315,"151":0.05803932688935603,"152":-0.0488100272112744,"153":-0.014869411706720095,"154":-0.0510002357828229,"155":-0.01828868418725563,"156":0.011910019809812572,"157":-0.04065343543826094,"158":-0.012413597171487368,"159":-0.04151807736629121,"160":-0.023759062859077577,"161":-0.031254801976196005,"162":0.011032278550618422,"163":-0.01709875308025358,"164":0.06347487527498986,"165":0.020643277230229965,"166":0.02169860862978767,"167":0.01208617760020962,"168":0.0071079873480158545,"169":-0.07242848628016481,"170":-0.03871443846596935,"171":-0.019583702946309005,"172":-0.04624326382360154,"173":-0.03475951611438013,"174":-0.04944743787283364,"175":0.033699350188323415,"176":0.07593305117876271,"177":0.06585782296498849,"178":0.015103851576235292,"179":-0.054162306958400214,"180":0.053415033581162945,"181":0.023609499225349544,"182":0.04348356057237564,"183":-0.05847794847719049,"184":-0.02491090069277144,"185":-0.08132176554673222,"186":-0.07983124168452532,"187":-0.03408966678376013,"188":-0.07285177655928145,"189":0.008518464421287258,"190":0.08058211136348718,"191":0.024632409750337248,"192":0.028069744960235732,"193":-0.06189710036818009,"194":-0.03391613754202751,"195":0.05352091167531105,"196":0.08118076422982315,"197":0.06086962290293843,"198":0.0025040912786337887,"199":-0.022654078971879186,"200":-0.027838935929320085,"201":0.01576761639122601,"202":-0.11231352213157744,"203":0.02112355872287166,"204":-0.005409110273969331,"205":0.04895462684653036,"206":-0.010737186411721113,"207":-0.02348833503695213,"208":0.05981332757194217,"209":0.12149488665017692,"210":-0.027139216197666967,"211":0.00809031142063767,"212":0.015046758830464229,"213":-0.10519721633978563,"214":0.07444783965271858,"215":-0.029228417257032603,"216":-0.02199701282504623,"217":-0.03430095106667309,"218":0.015776578519386873,"219":-0.01866124325118356,"220":-0.035050566355510696,"221":0.02950924905282165,"222":-0.01487451530122749,"223":0.036819318918253595,"224":0.04060751116968647,"225":0.12803443404993262,"226":-0.07666935748580347,"227":-0.06804851979841749,"228":-0.005792198289106211,"229":0.0676109008313914,"230":-0.1292927054892905,"231":-0.026412926719931396,"232":-0.06727732823047933,"233":-0.018839106492582514,"234":0.034870699462617186,"235":0.022067397245971315,"236":0.08210381602992164,"237":0.011449296396097621,"238":-0.02532181393339163,"239":0.09209060933166592,"240":-0.10846437782164894,"241":0.010428718430743831,"242":-0.00686835145866509,"243":-0.003264458162185748,"244":0.028473355040653903,"245":0.0074712850157950044,"246":-0.05383718843272151,"247":0.010426494283702984,"248":-0.011519585324056222,"249":0.000017180799257945965,"250":-0.0387227058147578,"251":-0.028892780282083287,"252":0.10278260256163405,"253":-0.0930363791989958,"254":0.032433394081894246,"255":0.0015640604978411272,"256":0.0631347166555041,"257":-0.03723491466336462,"258":0.014814803387966851,"259":0.052253839626244594,"260":-0.08330051363395956,"261":0.08931500634850086,"262":0.07878688500022306,"263":-0.06143067125859396,"264":0.038030130497537666,"265":-0.10354192487503047,"266":-0.09800562801590638,"267":0.11368312308494136,"268":-0.08522131004231408,"269":0.06286569894734596,"270":-0.030097452210528307,"271":0.0938760538629307,"272":0.09157973630760735,"273":0.029638049610315426,"274":-0.01912426584511613,"275":-0.1197872694856173,"276":-0.03036989316989985,"277":-0.04543965264561284,"278":-0.12172575410253192,"279":0.02260752658624765,"280":-0.04307047338321137,"281":-0.02927078040232638,"282":0.04615756548306479,"283":0.0022727996740287406,"284":0.009258294860751269,"285":0.03160063055483152,"286":-0.0009786211527698532,"287":-0.0508685912709008,"288":0.038441540247225424,"289":-0.0209055551057733,"290":-0.0045184591098658715,"291":-0.04847778648598539,"292":-0.031677027872776285,"293":0.029232082502208538,"294":-0.03765058717588004,"295":-0.013216300291849501,"296":-0.00959185010366707,"297":0.014207392890341033,"298":-0.057007955946298774,"299":-0.03848632043512009,"300":0.1277519501700011,"301":0.031890130416729195,"302":0.021799687856318643,"303":0.07499608577393463,"304":0.009620091364893777,"305":0.004466147681671854,"306":-0.07961351006850924,"307":0.02865567523611953,"308":-0.030661371005589157,"309":-0.010521571279797066,"310":0.0014798355461985875,"311":0.05055704158598211,"312":-0.07607804394549136,"313":-0.05633025758351388,"314":-0.01702250386059985,"315":0.060019750287989726,"316":-0.10202888215295207,"317":0.07435371711876777,"318":0.09698710695295196,"319":0.03508527282567621,"320":-0.02595960990564599,"321":-0.02273772285188061,"322":-0.06298430019789007,"323":-0.11563632659164344}},{"sx":1,"sy":1,"depth":324,"w":{"0":-0.009449437989688551,"1":-0.052761786559389644,"2":-0.03569907485059268,"3":0.05429908658480416,"4":-0.10169890045646784,"5":-0.04638899270148148,"6":0.029858503255810433,"7":-0.06650490327973749,"8":-0.009326558171555902,"9":0.019989134505024483,"10":-0.03609096317059394,"11":0.06363772622014094,"12":-0.05741132677863167,"13":0.06145106503173769,"14":0.061279646219238704,"15":-0.0158461081115133,"16":-0.005648792900750538,"17":-0.022505708822706402,"18":-0.01956526122249065,"19":0.04538522708125147,"20":-0.003991508011035056,"21":0.07923432131422756,"22":0.043956448635111174,"23":-0.1299280184598585,"24":-0.030521652801807946,"25":0.046278908053836505,"26":0.10777328159391193,"27":-0.006632952676937992,"28":-0.11243486532332675,"29":-0.03359164494000537,"30":0.11036040516042624,"31":0.03443325903989109,"32":-0.010563014335175175,"33":0.010336612811411456,"34":0.031093434855014777,"35":-0.00804187202707464,"36":0.028491843450604022,"37":-0.04284131662151309,"38":-0.06126150111905609,"39":0.00796935163668851,"40":0.035982186340395614,"41":-0.024801163453670696,"42":-0.17195837188891772,"43":-0.032682668273288404,"44":0.09720034007382683,"45":-0.03113621582624772,"46":-0.000053506597589421685,"47":0.015174837620754115,"48":0.024372434171879183,"49":-0.0850352154026831,"50":-0.03685842762136644,"51":0.022840560445681207,"52":-0.09427528790793481,"53":-0.04419774848050731,"54":0.019550650743285155,"55":-0.03242517377007236,"56":-0.006406737967152997,"57":0.0035263067199081447,"58":0.08948859239465236,"59":-0.02402115437712839,"60":0.06719355636422461,"61":0.09193634267400208,"62":-0.01355860795369184,"63":0.07750413673830606,"64":0.011638329256816175,"65":-0.044064886753099566,"66":0.09452979654575253,"67":-0.021739086764287725,"68":0.021796373946094693,"69":-0.03569390569130663,"70":-0.035269530755339645,"71":-0.03283649501684432,"72":0.05935555408052617,"73":-0.06150257852661662,"74":0.00987004873052835,"75":0.06890860073641955,"76":-0.06916504991352705,"77":-0.05460780305909989,"78":-0.16778488991696966,"79":-0.016648854322021928,"80":-0.02742961742111088,"81":-0.18962495929466652,"82":0.06548560586466615,"83":0.0723421695450042,"84":0.018305627382740542,"85":0.11349778464598081,"86":0.022448261934467598,"87":0.024977204007266763,"88":-0.07178761211014466,"89":-0.0757583418924191,"90":-0.0638952594237903,"91":0.04241014481797862,"92":-0.028069089293958405,"93":0.014167571719604994,"94":0.05780480484759945,"95":0.08951309694189499,"96":0.013842103218587122,"97":-0.0527123140740613,"98":-0.1305533049103589,"99":-0.004978411274312198,"100":0.031182626448499735,"101":-0.027343723090871665,"102":0.012175217270944508,"103":-0.008726812890208683,"104":0.055617437426709986,"105":-0.12253191134121852,"106":-0.007487562700608168,"107":-0.042083085613331496,"108":-0.06125793629201183,"109":0.018633196158271813,"110":0.052845635804090546,"111":-0.018862688980594438,"112":0.02337733024650109,"113":0.07740335362147,"114":-0.037886310753563114,"115":0.035216459443004694,"116":0.034416704155393385,"117":-0.07912526651641896,"118":0.07415740013266432,"119":0.007533712390294904,"120":-0.029989663043733256,"121":-0.06757268616196062,"122":-0.057148527172251336,"123":-0.025542009732758855,"124":-0.07671924227770154,"125":-0.08692440680708795,"126":0.01366746352806439,"127":0.018067167757351264,"128":-0.07890001874235993,"129":0.13837378827323138,"130":0.13165376054119599,"131":-0.0031229054190977028,"132":-0.004410651712090812,"133":-0.037767215584350866,"134":-0.003170425821828566,"135":-0.048058512030162724,"136":0.00067385591971981,"137":-0.023053154658384353,"138":-0.007590702935241995,"139":0.05764462606771627,"140":-0.02317769489850801,"141":-0.048244837380616176,"142":0.032811139496143976,"143":0.019202767533402502,"144":-0.01957581117966497,"145":-0.005068553660040975,"146":0.04955935903783701,"147":-0.020895817238838557,"148":0.008279277000211714,"149":0.027006182893233862,"150":-0.07717121013014026,"151":0.0026976327608718422,"152":-0.08005028944503774,"153":0.024523657335274063,"154":0.026211319796807155,"155":-0.04119968916695806,"156":-0.027475848158288005,"157":-0.032758298255202496,"158":0.04599964084339983,"159":-0.08862881452393016,"160":0.024290320370395375,"161":-0.04294733984129917,"162":-0.04270908718076397,"163":0.01139902423258177,"164":0.08715227006896897,"165":-0.01889253812125717,"166":-0.060361170867808005,"167":-0.00019395960860641988,"168":0.024677865152340252,"169":0.07942829600083633,"170":0.07086531585372371,"171":0.019244213461213595,"172":0.026887400780749922,"173":0.005496397675136395,"174":-0.03335062208676089,"175":0.06666943962097865,"176":-0.11341224803930476,"177":-0.05481989848099887,"178":-0.02372017839916769,"179":-0.055098760795884494,"180":0.053350368497781867,"181":-0.00741705149900194,"182":0.013211593799460153,"183":-0.029014194483430965,"184":0.02179844872675193,"185":-0.09874870947704757,"186":-0.01184875281037829,"187":-0.07617904221093154,"188":-0.024067936249543863,"189":-0.005242322181125339,"190":-0.08890375278925942,"191":-0.04352472897504645,"192":-0.03619191772564821,"193":-0.08021852609639064,"194":-0.013767073514966591,"195":-0.030277665904276354,"196":-0.15764691945156742,"197":-0.009111011563426199,"198":0.15057154690743768,"199":0.04098255561413182,"200":0.04006261691425342,"201":-0.1047636370727787,"202":0.06404710216954491,"203":0.10513043078341887,"204":-0.006587813257674007,"205":-0.0746741751165753,"206":-0.06613150726156984,"207":-0.12687864559261677,"208":0.011698525390369465,"209":-0.10364624632633572,"210":0.0452655442285285,"211":0.014178832949235444,"212":0.04490204508287737,"213":0.01303599119120023,"214":0.028309492661528723,"215":-0.025711038581423873,"216":0.08966977682273969,"217":0.015738069114601495,"218":-0.029074315793769203,"219":-0.08761432306964365,"220":0.016785423427526796,"221":0.05587794307318089,"222":-0.08290231151445708,"223":-0.007884987256341671,"224":-0.056722989644247525,"225":0.00304035046205607,"226":0.020906615385718377,"227":-0.015518150648907747,"228":0.041767779083416764,"229":0.06401096904233813,"230":0.07186484185004055,"231":-0.0549795156131304,"232":0.0034690024430130226,"233":-0.007584892622275134,"234":-0.02995259969007096,"235":0.03942516328126617,"236":0.053511786835536014,"237":0.006985765109366198,"238":0.022646906294618314,"239":0.10161568259881813,"240":-0.059859484611326015,"241":0.01964712518687748,"242":-0.029227188998639044,"243":0.051811287552693215,"244":-0.03207401563844213,"245":0.0045528588280047055,"246":-0.0031099927610776738,"247":0.024588649465954664,"248":-0.009558387386456112,"249":-0.06664295638878498,"250":-0.050572588503127125,"251":-0.06949157921241576,"252":0.03445328695998709,"253":0.008378264371491537,"254":-0.020546722489331426,"255":0.03036545592741108,"256":-0.008965479759870333,"257":-0.009386635171769601,"258":0.03428571856761188,"259":-0.053012880527018066,"260":-0.009452397808625501,"261":-0.06543897239274585,"262":0.009664642290915704,"263":-0.09406872033909533,"264":-0.13714592577056456,"265":0.056734182796791106,"266":-0.022525173382155487,"267":-0.07932842984921043,"268":-0.11932504680941,"269":0.0140692456332874,"270":-0.016276768940806687,"271":0.07660147278394103,"272":-0.030192217761724028,"273":0.0015868743988659085,"274":0.05233480138220035,"275":0.13539743272151772,"276":-0.05830158433075932,"277":-0.005470860830931344,"278":0.012416753058295458,"279":-0.009619444823246129,"280":-0.04276908868488364,"281":-0.049932787840937486,"282":0.008517961029279713,"283":-0.07160454183873426,"284":0.021014939731280054,"285":0.07845470325975308,"286":0.017213453401266756,"287":0.006910951934734457,"288":0.06254547903046817,"289":-0.05715080677597624,"290":0.04067025719618518,"291":-0.00017070441712658548,"292":-0.02900651648842504,"293":0.02897992115205252,"294":0.008896583554950257,"295":-0.003945157689213212,"296":0.14378682927232966,"297":0.006063359895704458,"298":0.0052012248419415165,"299":-0.03725583352558393,"300":0.0010200728443949718,"301":-0.0512583347575572,"302":0.0709951377112601,"303":-0.06391789235146375,"304":-0.07689696310359694,"305":-0.03668396993363737,"306":0.02527779665947445,"307":-0.03394145163145901,"308":0.07002252810205921,"309":0.01995020800714031,"310":0.006919801441440531,"311":0.028281463016192557,"312":-0.12769968532688314,"313":-0.021827933962350155,"314":-0.012847872687853085,"315":-0.04616645463597148,"316":-0.11198444647803052,"317":0.03802583809536185,"318":-0.10613618446107918,"319":-0.11387830754940326,"320":0.03643701517538927,"321":-0.03141527647910875,"322":0.039606852104551435,"323":-0.03687097556461946}},{"sx":1,"sy":1,"depth":324,"w":{"0":-0.024406256830012452,"1":0.017716332254449123,"2":0.12836183307430338,"3":-0.05511251974014387,"4":0.030177922107759367,"5":0.010837306963654326,"6":-0.0031630570274240413,"7":-0.05504494335890593,"8":0.057035242242019064,"9":-0.05511698140342213,"10":-0.0014081480604581018,"11":0.011545759219083006,"12":-0.0166595586501102,"13":-0.018054345564946974,"14":-0.0518369984563462,"15":0.029701104367236487,"16":-0.018545696407182292,"17":0.024431761934873376,"18":-0.03182948367862742,"19":-0.00704701937049852,"20":-0.01634129331464123,"21":0.04539123022986305,"22":-0.16451011979420593,"23":-0.06143543971424076,"24":0.031351662818246376,"25":0.018840745024140827,"26":-0.05164249035827009,"27":-0.04158031695093765,"28":-0.029009398286985302,"29":0.08151773070894984,"30":0.04167296630593305,"31":0.054648925256293966,"32":-0.00418187523140949,"33":0.01085337565782172,"34":-0.061569845249251284,"35":0.02109641387449299,"36":-0.026555259181771602,"37":0.016369535167441912,"38":0.06626126066097943,"39":0.04405700398511939,"40":0.010345456048992414,"41":-0.014378964085993023,"42":0.07325575702832446,"43":0.06899353068845136,"44":0.03209698953246038,"45":-0.05405179376617253,"46":0.008138126836836268,"47":-0.0008432048146290896,"48":-0.02860607074949197,"49":-0.15093059047394847,"50":0.02329399460745968,"51":-0.032293287969549826,"52":0.011381368789193554,"53":-0.0257373169577178,"54":-0.029195890894540645,"55":-0.008887924544748802,"56":-0.061009260004338636,"57":0.04078080103590106,"58":-0.002325789181384037,"59":0.08163734825589157,"60":0.05255037138018483,"61":0.07871126016220834,"62":0.006374787998009254,"63":-0.15094367306293677,"64":-0.04428404430492217,"65":-0.06798402034916468,"66":-0.06052744812155068,"67":0.06717920699397453,"68":-0.0004297995827081413,"69":0.022890090321366328,"70":-0.023475557220523288,"71":0.08440671792048979,"72":0.12248359229234634,"73":-0.04607374541608142,"74":0.040462425484280605,"75":-0.04080494111596919,"76":0.028136282100192308,"77":-0.03682912802712132,"78":0.03355444819677032,"79":0.05290263816131571,"80":0.003931470817693496,"81":0.00952787139920247,"82":0.14924665770807027,"83":-0.057059802101163286,"84":-0.01339158032395566,"85":-0.11786399359434692,"86":-0.018433464416205428,"87":0.025993052596127362,"88":0.0798893305236108,"89":0.04752263380427733,"90":-0.01580016710201107,"91":-0.0388843421855482,"92":-0.03682231477708767,"93":0.15322830246562597,"94":-0.06332932633314624,"95":-0.02111629119675429,"96":0.10378037048757471,"97":0.022453355055528118,"98":-0.016101509951885574,"99":-0.05406657154436236,"100":-0.07075037450960404,"101":-0.11137214774772275,"102":-0.08379164851510215,"103":-0.06372909142030647,"104":0.018551347173336043,"105":-0.008815871061251656,"106":0.08769256642674443,"107":0.1199952451273819,"108":0.000481338249227317,"109":0.07457989309682657,"110":-0.05651035364407177,"111":0.012985504243738342,"112":0.06450479944958885,"113":-0.1279551873406731,"114":-0.06049687494493756,"115":-0.04311882122197887,"116":0.13432135735389264,"117":0.01854848764644186,"118":-0.02794614150536352,"119":-0.003556380057945086,"120":0.059552820079212386,"121":-0.01360851872465236,"122":-0.006880902258711619,"123":0.00433371714051418,"124":-0.020043441873043206,"125":-0.002378737163374206,"126":0.0016886050377296143,"127":-0.058582454960762115,"128":-0.05322185926768974,"129":-0.09223461661288675,"130":0.0009233322754836132,"131":-0.030870971406971804,"132":-0.007326500555006071,"133":-0.11991406675967933,"134":0.06613073257927311,"135":-0.06082019871397929,"136":0.016936105805964944,"137":-0.0797278175803366,"138":0.041768973629591165,"139":-0.10146045987199757,"140":-0.02427218511547171,"141":0.07093276386512115,"142":-0.049466980974444914,"143":0.003740437556158845,"144":0.05723087203197313,"145":0.023289266988922305,"146":0.02070192208359275,"147":-0.07621640904188463,"148":-0.06030036124785585,"149":0.06335010250539799,"150":0.009899458349484606,"151":0.036447200490710756,"152":-0.042052233764189366,"153":0.014804998269921491,"154":0.01644327934856012,"155":-0.10825841083530906,"156":0.019495973890634344,"157":0.04993657975651177,"158":0.021941132832879028,"159":-0.048798116970485625,"160":-0.052464259289370214,"161":0.04641042080007367,"162":-0.1307401690335099,"163":-0.012094013322934855,"164":-0.00958481768504353,"165":-0.1101872369182195,"166":-0.09265943802161342,"167":0.0954330794640535,"168":0.045997919566749895,"169":0.013029958358366308,"170":0.061981258820857414,"171":-0.07347793786386927,"172":-0.04996755736175703,"173":0.07596479532384044,"174":0.06761526241833962,"175":-0.06738127649424577,"176":-0.04671917320445,"177":-0.024987460619891943,"178":0.06042606070705698,"179":0.01778141443237346,"180":-0.025390312439006656,"181":-0.041323805950911126,"182":0.10976868935099943,"183":0.029243266385863432,"184":-0.053058791486874715,"185":-0.059989287838505774,"186":-0.004824779145431807,"187":0.05786333898230742,"188":-0.004037773618758891,"189":-0.07563764325050781,"190":0.08955882512386304,"191":-0.03208760724761535,"192":-0.09856382831460478,"193":0.011920316141660113,"194":-0.08714215081631109,"195":0.14017111158078485,"196":-0.05739757574206367,"197":0.003454418679647097,"198":-0.03365418931768076,"199":-0.02967187659992094,"200":0.019386699209749184,"201":-0.014520580190544483,"202":0.025831219383248512,"203":-0.04385581734782703,"204":0.030871128745922898,"205":0.00727685396350765,"206":-0.13293778006761245,"207":-0.0009145857331393265,"208":-0.07232220701262047,"209":0.0015316583178952737,"210":0.10315805334548024,"211":-0.1973635481261728,"212":0.015178076046932994,"213":0.0016169560628782897,"214":-0.017107928368484977,"215":-0.09814390651582534,"216":-0.05956158690234478,"217":-0.046589169221339925,"218":-0.002075483459950184,"219":-0.022269027684320923,"220":0.029144440784177744,"221":-0.03959725255107364,"222":0.019641389634831488,"223":-0.0038200175657301587,"224":-0.025261272781096793,"225":-0.07381199183852048,"226":0.020338307610611946,"227":0.06744329405017124,"228":-0.03673374679732808,"229":-0.0843041072036224,"230":-0.013503359308955541,"231":0.045093441447724134,"232":-0.004083862436627874,"233":-0.09413487413547998,"234":-0.06616414937639357,"235":-0.11910943484155365,"236":-0.06919466620800314,"237":-0.07574885818832798,"238":0.07313380851145626,"239":-0.03992012124548611,"240":0.03416723781463875,"241":-0.048906947699097654,"242":0.06802962855572861,"243":-0.03444685640233771,"244":-0.006231890140951583,"245":0.030941289615635376,"246":0.007541743988951852,"247":-0.07665704553647554,"248":0.020319468125986534,"249":-0.041214218117009385,"250":0.0028237551796241422,"251":-0.09379642792597685,"252":0.03159052596248735,"253":0.02768006314151365,"254":-0.05965211138658051,"255":-0.029647129008807633,"256":0.024905215629117225,"257":0.04889066987025097,"258":-0.010985825467642225,"259":-0.05897769368329612,"260":0.04451300855712439,"261":-0.05001175036099621,"262":-0.008270499403131182,"263":0.03405856603905927,"264":-0.09517795873957526,"265":-0.05880894965644395,"266":0.018740393567009368,"267":0.05224171944940639,"268":0.0560217980502857,"269":0.0029633587887101997,"270":-0.006116193521143348,"271":0.007104830030684258,"272":-0.04130364771635389,"273":0.04998968519786452,"274":-0.012110713130232091,"275":-0.09007411177850994,"276":-0.059992635890852075,"277":0.006324511175620202,"278":0.021753231903645788,"279":-0.01707613052556006,"280":-0.01651809970246136,"281":-0.026948188452435885,"282":0.02080516871122215,"283":-0.02804441203905811,"284":-0.07542293726318026,"285":-0.035334923319054974,"286":0.12614834002751396,"287":0.019779905538340053,"288":0.004434423860089968,"289":0.07871733751781282,"290":-0.09467158809397948,"291":-0.07209478417377144,"292":0.033171409213488746,"293":0.039202520499536896,"294":-0.1189501438339228,"295":-0.045585156192752815,"296":-0.026309287666501133,"297":0.04774241569988457,"298":0.008047366798890124,"299":-0.06759206632679322,"300":-0.06409075924357036,"301":0.00020775463221115267,"302":-0.09522234393508677,"303":-0.12359541418508559,"304":0.03175878932645682,"305":-0.03967295492609422,"306":-0.03232315639726504,"307":0.049150500724068166,"308":-0.05978508116298882,"309":0.013455209358913285,"310":-0.04423511458535748,"311":-0.0034688197816068996,"312":0.09676009263353834,"313":0.04430024222613319,"314":-0.03758897367457312,"315":-0.07044172462817827,"316":0.07448423487108143,"317":-0.06342681684178313,"318":-0.045215051425195045,"319":0.036801042128850034,"320":-0.0058013487260546,"321":0.014287707909803413,"322":-0.004894466799424645,"323":-0.04623150187745756}},{"sx":1,"sy":1,"depth":324,"w":{"0":-0.006334999752887438,"1":-0.00687421542251891,"2":0.06190616915125104,"3":-0.0423715751551095,"4":0.036180695389752986,"5":-0.03675281307856784,"6":-0.03973272528269478,"7":-0.11350446937195843,"8":-0.1007381164728902,"9":0.03912714441923461,"10":-0.04378949317406223,"11":0.010034227173352093,"12":-0.004889330693768323,"13":-0.046033785813921556,"14":-0.08427138334304103,"15":0.016748737019659406,"16":-0.08299146204384669,"17":0.03779816613467997,"18":0.05863491886790393,"19":0.0372502675457859,"20":-0.001994173892636525,"21":-0.08790475783181016,"22":0.0255812178928963,"23":0.030922842060813888,"24":-0.10760734790508183,"25":-0.09093999248156438,"26":0.04817912237541688,"27":-0.06345273139265116,"28":0.029782612755231704,"29":0.03292566026450175,"30":0.011971108656939568,"31":-0.018148667215335774,"32":-0.005248089890190961,"33":-0.02043698014022322,"34":-0.011376465663850487,"35":-0.05864466400270208,"36":-0.02495355023939621,"37":-0.027432307036157302,"38":-0.0421922873584788,"39":0.1145521832699226,"40":0.019755606159387828,"41":-0.011768122386882874,"42":-0.06028854271982189,"43":-0.029799530393376402,"44":-0.037810059896952526,"45":0.07310821306147466,"46":0.06969058702737864,"47":-0.03522227351364741,"48":-0.04214822606491223,"49":0.04375087654508279,"50":-0.07443419895237557,"51":-0.020588056125552808,"52":-0.012594288886635592,"53":-0.03144325186768929,"54":0.05529338021916935,"55":-0.009505209544546419,"56":-0.13722958971617377,"57":-0.07416531506911818,"58":0.14553414694419195,"59":0.010420607101362363,"60":-0.07735043662658059,"61":-0.010778736820074618,"62":0.04346563208977049,"63":-0.00832347352148287,"64":0.12752795394238153,"65":0.006532828866312311,"66":0.04257153751359736,"67":-0.109320712369105,"68":-0.03129768236518861,"69":-0.08801568237043668,"70":0.05971646334860799,"71":-0.05434620016189654,"72":-0.02761828862311956,"73":-0.0687580353588238,"74":0.04236441682711505,"75":0.06094849168498638,"76":-0.061487195106521425,"77":0.0396622119535618,"78":-0.025576982540588558,"79":0.03469209458898974,"80":-0.049415622564145466,"81":0.039010564982620725,"82":0.08391234388066664,"83":-0.011895744781229223,"84":-0.046064094177910915,"85":-0.10848918939568068,"86":0.031236521645514662,"87":-0.04559036322362545,"88":-0.026841198124521525,"89":-0.0065341883178222804,"90":0.025681687990907625,"91":0.0590697116809657,"92":-0.04727658140104203,"93":-0.03129258666371031,"94":0.07294807109766754,"95":-0.043897180585147716,"96":-0.048617229646479604,"97":-0.04349491082030305,"98":-0.03146569361447106,"99":0.04038113443757321,"100":0.0116443517886984,"101":-0.07784821688237045,"102":0.10755375277658737,"103":0.003948270812126906,"104":-0.005592368522630489,"105":-0.019788372924268022,"106":0.06891102278104609,"107":-0.05153506718409925,"108":-0.023866344126289785,"109":0.06574260518042024,"110":-0.06572701754260733,"111":0.01869478611498675,"112":0.009908461072183426,"113":0.08388912945630916,"114":0.022675389241927257,"115":-0.03929599416262258,"116":0.016576166091078523,"117":0.021675029683209477,"118":0.034277093426285855,"119":0.007270679715239187,"120":0.007796709654523678,"121":-0.07981509662902368,"122":-0.01585374921700568,"123":-0.02101428613594356,"124":0.05969405815547403,"125":-0.16061916848417174,"126":-0.10252928348203291,"127":-0.023696117923465033,"128":0.0019834094436223973,"129":0.04709870879449881,"130":-0.01797135633702115,"131":0.08961435458712257,"132":-0.0339754259507856,"133":0.018614642289970545,"134":-0.014010498587940269,"135":0.021018773717946294,"136":-0.10788011589670161,"137":0.03605834816689343,"138":-0.01741264528768154,"139":-0.020779806671195094,"140":0.008899533811041915,"141":0.014761385104227096,"142":-0.027305253826883546,"143":-0.0492450836066524,"144":-0.009830686450129597,"145":-0.015435919928160215,"146":0.017185322821235895,"147":-0.015589269936767947,"148":-0.028017392839907007,"149":-0.06873259373859171,"150":-0.06708478690920758,"151":0.036451790344310536,"152":-0.08816262591652842,"153":-0.04903401134457142,"154":-0.010572749855476593,"155":-0.051582744840142296,"156":0.020318040830907123,"157":-0.015963251262298483,"158":-0.029042942539518484,"159":0.020819002114728886,"160":0.06783207757766446,"161":0.011543016989495388,"162":0.05271367177597701,"163":-0.016531445612819058,"164":-0.01337471627746141,"165":-0.07583140855148936,"166":0.02096413998744835,"167":0.032524029195768925,"168":0.010240475097179524,"169":-0.018635812411019474,"170":0.041631460674804756,"171":0.046872075646534866,"172":-0.010525071078315183,"173":-0.02462644562585805,"174":0.1469235960362755,"175":-0.05574132519298738,"176":-0.014979435165192064,"177":-0.06459205353804902,"178":-0.06614250895088021,"179":-0.08797959687852645,"180":-0.06634162684873164,"181":0.00044209759406214195,"182":0.009137443966702392,"183":-0.08100895033122707,"184":0.024193078237828416,"185":-0.045614143722416914,"186":-0.051396754899550465,"187":-0.05454232208061542,"188":-0.03327075739506452,"189":-0.029566183057874444,"190":-0.0352624410738315,"191":-0.07280972303346041,"192":-0.0979451222866057,"193":-0.009687412006341753,"194":0.04723400202757594,"195":0.059967944123106354,"196":-0.02215824521518667,"197":0.09459852728747493,"198":0.036903785133873185,"199":-0.03361802642016829,"200":0.029678194776309067,"201":0.00951784684121347,"202":-0.0762321595668425,"203":-0.0023188870010136587,"204":-0.052422500415508715,"205":-0.003740006400679442,"206":0.009384196975061272,"207":0.025752129827556577,"208":-0.03203518675960541,"209":0.02983906149359433,"210":-0.12242617860978632,"211":0.04196712660684309,"212":-0.013650423508426992,"213":0.06657473582858302,"214":-0.02017657322060824,"215":0.03734853768191733,"216":-0.005110410343612146,"217":0.05769698522392478,"218":0.03153944263752698,"219":0.01823602780823174,"220":0.016490179704361747,"221":-0.025637823799499256,"222":0.06440057068427565,"223":-0.02059518619185347,"224":-0.010822969589970474,"225":-0.060279127161780806,"226":0.06103933521265049,"227":0.03823630562600563,"228":0.012820421789890787,"229":0.028515075785971174,"230":0.008543745286996066,"231":-0.1169703285344598,"232":-0.03340631578206291,"233":0.016524225340937372,"234":-0.04140067130831332,"235":-0.11165870054074162,"236":0.02692491911866184,"237":0.04812695061835172,"238":-0.07502787841743609,"239":-0.019758904799315375,"240":-0.01823437118962868,"241":-0.02943584016765493,"242":0.004343683680953465,"243":0.03360541003326528,"244":-0.046486178877180775,"245":-0.0026362308152555777,"246":-0.01401815641120816,"247":0.05234339776259223,"248":-0.08208247043987014,"249":-0.032634861644372626,"250":0.049752141116855345,"251":0.0838758972259996,"252":-0.04493555436830861,"253":-0.13178023849716775,"254":0.06749964033540097,"255":-0.01816154243193454,"256":-0.031772569278356165,"257":-0.03725110681762825,"258":-0.046049607986939654,"259":-0.06979551597832352,